{"learner":{"attributes":{"scikit_learn":"{\"_estimator_type\": \"classifier\"}"},"feature_names":[],"feature_types":[],"gradient_booster":{"model":{"gbtree_model_param":{"num_parallel_tree":"1","num_trees":"1000"},"iteration_indptr":[0,1,2,3,4,5,6,7,8,9,10,11,12,13,14,15,16,17,18,19,20,21,22,23,24,25,26,27,28,29,30,31,32,33,34,35,36,37,38,39,40,41,42,43,44,45,46,47,48,49,50,51,52,53,54,55,56,57,58,59,60,61,62,63,64,65,66,67,68,69,70,71,72,73,74,75,76,77,78,79,80,81,82,83,84,85,86,87,88,89,90,91,92,93,94,95,96,97,98,99,100,101,102,103,104,105,106,107,108,109,110,111,112,113,114,115,116,117,118,119,120,121,122,123,124,125,126,127,128,129,130,131,132,133,134,135,136,137,138,139,140,141,142,143,144,145,146,147,148,149,150,151,152,153,154,155,156,157,158,159,160,161,162,163,164,165,166,167,168,169,170,171,172,173,174,175,176,177,178,179,180,181,182,183,184,185,186,187,188,189,190,191,192,193,194,195,196,197,198,199,200,201,202,203,204,205,206,207,208,209,210,211,212,213,214,215,216,217,218,219,220,221,222,223,224,225,226,227,228,229,230,231,232,233,234,235,236,237,238,239,240,241,242,243,244,245,246,247,248,249,250,251,252,253,254,255,256,257,258,259,260,261,262,263,264,265,266,267,268,269,270,271,272,273,274,275,276,277,278,279,280,281,282,283,284,285,286,287,288,289,290,291,292,293,294,295,296,297,298,299,300,301,302,303,304,305,306,307,308,309,310,311,312,313,314,315,316,317,318,319,320,321,322,323,324,325,326,327,328,329,330,331,332,333,334,335,336,337,338,339,340,341,342,343,344,345,346,347,348,349,350,351,352,353,354,355,356,357,358,359,360,361,362,363,364,365,366,367,368,369,370,371,372,373,374,375,376,377,378,379,380,381,382,383,384,385,386,387,388,389,390,391,392,393,394,395,396,397,398,399,400,401,402,403,404,405,406,407,408,409,410,411,412,413,414,415,416,417,418,419,420,421,422,423,424,425,426,427,428,429,430,431,432,433,434,435,436,437,438,439,440,441,442,443,444,445,446,447,448,449,450,451,452,453,454,455,456,457,458,459,460,461,462,463,464,465,466,467,468,469,470,471,472,473,474,475,476,477,478,479,480,481,482,483,484,485,486,487,488,489,490,491,492,493,494,495,496,497,498,499,500,501,502,503,504,505,506,507,508,509,510,511,512,513,514,515,516,517,518,519,520,521,522,523,524,525,526,527,528,529,530,531,532,533,534,535,536,537,538,539,540,541,542,543,544,545,546,547,548,549,550,551,552,553,554,555,556,557,558,559,560,561,562,563,564,565,566,567,568,569,570,571,572,573,574,575,576,577,578,579,580,581,582,583,584,585,586,587,588,589,590,591,592,593,594,595,596,597,598,599,600,601,602,603,604,605,606,607,608,609,610,611,612,613,614,615,616,617,618,619,620,621,622,623,624,625,626,627,628,629,630,631,632,633,634,635,636,637,638,639,640,641,642,643,644,645,646,647,648,649,650,651,652,653,654,655,656,657,658,659,660,661,662,663,664,665,666,667,668,669,670,671,672,673,674,675,676,677,678,679,680,681,682,683,684,685,686,687,688,689,690,691,692,693,694,695,696,697,698,699,700,701,702,703,704,705,706,707,708,709,710,711,712,713,714,715,716,717,718,719,720,721,722,723,724,725,726,727,728,729,730,731,732,733,734,735,736,737,738,739,740,741,742,743,744,745,746,747,748,749,750,751,752,753,754,755,756,757,758,759,760,761,762,763,764,765,766,767,768,769,770,771,772,773,774,775,776,777,778,779,780,781,782,783,784,785,786,787,788,789,790,791,792,793,794,795,796,797,798,799,800,801,802,803,804,805,806,807,808,809,810,811,812,813,814,815,816,817,818,819,820,821,822,823,824,825,826,827,828,829,830,831,832,833,834,835,836,837,838,839,840,841,842,843,844,845,846,847,848,849,850,851,852,853,854,855,856,857,858,859,860,861,862,863,864,865,866,867,868,869,870,871,872,873,874,875,876,877,878,879,880,881,882,883,884,885,886,887,888,889,890,891,892,893,894,895,896,897,898,899,900,901,902,903,904,905,906,907,908,909,910,911,912,913,914,915,916,917,918,919,920,921,922,923,924,925,926,927,928,929,930,931,932,933,934,935,936,937,938,939,940,941,942,943,944,945,946,947,948,949,950,951,952,953,954,955,956,957,958,959,960,961,962,963,964,965,966,967,968,969,970,971,972,973,974,975,976,977,978,979,980,981,982,983,984,985,986,987,988,989,990,991,992,993,994,995,996,997,998,999,1000],"tree_info":[0,0,0,0,0,0,0,0,0,0,0,0,0,0,0,0,0,0,0,0,0,0,0,0,0,0,0,0,0,0,0,0,0,0,0,0,0,0,0,0,0,0,0,0,0,0,0,0,0,0,0,0,0,0,0,0,0,0,0,0,0,0,0,0,0,0,0,0,0,0,0,0,0,0,0,0,0,0,0,0,0,0,0,0,0,0,0,0,0,0,0,0,0,0,0,0,0,0,0,0,0,0,0,0,0,0,0,0,0,0,0,0,0,0,0,0,0,0,0,0,0,0,0,0,0,0,0,0,0,0,0,0,0,0,0,0,0,0,0,0,0,0,0,0,0,0,0,0,0,0,0,0,0,0,0,0,0,0,0,0,0,0,0,0,0,0,0,0,0,0,0,0,0,0,0,0,0,0,0,0,0,0,0,0,0,0,0,0,0,0,0,0,0,0,0,0,0,0,0,0,0,0,0,0,0,0,0,0,0,0,0,0,0,0,0,0,0,0,0,0,0,0,0,0,0,0,0,0,0,0,0,0,0,0,0,0,0,0,0,0,0,0,0,0,0,0,0,0,0,0,0,0,0,0,0,0,0,0,0,0,0,0,0,0,0,0,0,0,0,0,0,0,0,0,0,0,0,0,0,0,0,0,0,0,0,0,0,0,0,0,0,0,0,0,0,0,0,0,0,0,0,0,0,0,0,0,0,0,0,0,0,0,0,0,0,0,0,0,0,0,0,0,0,0,0,0,0,0,0,0,0,0,0,0,0,0,0,0,0,0,0,0,0,0,0,0,0,0,0,0,0,0,0,0,0,0,0,0,0,0,0,0,0,0,0,0,0,0,0,0,0,0,0,0,0,0,0,0,0,0,0,0,0,0,0,0,0,0,0,0,0,0,0,0,0,0,0,0,0,0,0,0,0,0,0,0,0,0,0,0,0,0,0,0,0,0,0,0,0,0,0,0,0,0,0,0,0,0,0,0,0,0,0,0,0,0,0,0,0,0,0,0,0,0,0,0,0,0,0,0,0,0,0,0,0,0,0,0,0,0,0,0,0,0,0,0,0,0,0,0,0,0,0,0,0,0,0,0,0,0,0,0,0,0,0,0,0,0,0,0,0,0,0,0,0,0,0,0,0,0,0,0,0,0,0,0,0,0,0,0,0,0,0,0,0,0,0,0,0,0,0,0,0,0,0,0,0,0,0,0,0,0,0,0,0,0,0,0,0,0,0,0,0,0,0,0,0,0,0,0,0,0,0,0,0,0,0,0,0,0,0,0,0,0,0,0,0,0,0,0,0,0,0,0,0,0,0,0,0,0,0,0,0,0,0,0,0,0,0,0,0,0,0,0,0,0,0,0,0,0,0,0,0,0,0,0,0,0,0,0,0,0,0,0,0,0,0,0,0,0,0,0,0,0,0,0,0,0,0,0,0,0,0,0,0,0,0,0,0,0,0,0,0,0,0,0,0,0,0,0,0,0,0,0,0,0,0,0,0,0,0,0,0,0,0,0,0,0,0,0,0,0,0,0,0,0,0,0,0,0,0,0,0,0,0,0,0,0,0,0,0,0,0,0,0,0,0,0,0,0,0,0,0,0,0,0,0,0,0,0,0,0,0,0,0,0,0,0,0,0,0,0,0,0,0,0,0,0,0,0,0,0,0,0,0,0,0,0,0,0,0,0,0,0,0,0,0,0,0,0,0,0,0,0,0,0,0,0,0,0,0,0,0,0,0,0,0,0,0,0,0,0,0,0,0,0,0,0,0,0,0,0,0,0,0,0,0,0,0,0,0,0,0,0,0,0,0,0,0,0,0,0,0,0,0,0,0,0,0,0,0,0,0,0,0,0,0,0,0,0,0,0,0,0,0,0,0,0,0,0,0,0,0,0,0,0,0,0,0,0,0,0,0,0,0,0,0,0,0,0,0,0,0,0,0,0,0,0,0,0,0,0,0,0,0,0,0,0,0,0,0,0,0,0,0,0,0,0,0,0,0,0,0,0,0,0,0,0,0,0,0,0,0,0,0,0,0,0,0,0,0,0,0,0,0,0,0,0,0,0,0,0,0,0,0,0,0,0,0,0,0,0,0,0,0,0,0,0,0,0,0,0,0,0,0,0,0,0,0,0,0,0,0,0,0,0,0,0,0,0,0,0,0,0,0,0,0,0,0,0,0,0,0,0,0,0,0,0,0,0,0,0,0,0,0,0,0,0,0,0,0,0,0,0,0,0,0,0,0,0,0,0,0,0,0,0,0,0,0,0],"trees":[{"base_weights":[-5.2454704E-3,-9.6906304E-2,3.9014873E-1,-8.54303E-1,-5.3648442E-2,2.4701397E-1,9.4009864E-1,-1.5195074E0,-3.0276608E-1,-2.087512E-1,-3.1653198E-3,6.89623E-1,1.7804204E-1,1.3318435E0,5.2480465E-1,-1.1921589E0,-1.969152E0,9.7511923E-1,-4.3088388E-1,-5.314022E-1,-1.5647097E-1,4.09749E-1,-2.2670357E-2,4.2839926E-1,1.0426736E0,9.3485004E-1,1.5622348E-1,1.0600114E0,1.7149252E0,1.6572689E0,2.6956367E-1,-3.5688332E-1,-1.4063643E0,1.6557005E-3,-1.999955E-2,1.5140456E0,1.8415359E-1,-1.8955233E-2,-3.2731438E-1,-7.5556554E-2,-6.9260764E-1,-1.3493697E-1,-7.881359E-1,1.7978343E0,-1.9352304E-2,-1.16785005E-1,3.7534244E-2,1.1660421E0,1.2874867E-1,7.016177E-1,1.4677054E0,-4.331826E-1,1.1759925E0,7.430018E-2,3.3590922E-1,1.433428E0,5.0485384E-1,8.7300044E-1,1.7459502E-2,1.2088492E0,1.8942662E-2,7.198346E-1,-7.797998E-3,-1.7051078E-2,6.5933806E-3,-4.590158E-3,-1.6497623E-2,1.6557007E-3,1.6154727E-2,7.0671346E-3,-1.3691873E-2,-2.3050578E-3,-1.6969802E-2,2.1927452E-3,-1.2387322E-2,-7.7995257E-3,1.8612132E-3,-1.4651706E-3,9.242119E-3,-4.6899943E-3,-1.2935482E-2,1.8619977E-2,2.0852347E-3,-5.382884E-3,1.9645244E-3,-1.9365994E-3,-1.690706E-4,-1.2693246E-3,8.065711E-4,6.5527763E-3,1.8503388E-2,-2.397833E-3,5.314091E-3,5.592992E-4,9.76171E-3,1.5711531E-2,2.773997E-3,-0E0,-1.1732815E-2,3.4817015E-3,1.7392414E-2,1.770398E-2,5.730067E-4,-1.6601746E-4,6.222416E-3,1.1458355E-2,1.7393159E-2,1.2514273E-2,-4.3492397E-5,1.4586369E-2,-3.7322338E-3,5.5712364E-3,1.6541844E-2,3.4096336E-3,1.3537749E-2,-8.838852E-3,3.7707603E-3],"categories":[],"categories_nodes":[],"categories_segments":[],"categories_sizes":[],"default_left":[0,0,0,0,0,0,0,0,0,0,0,0,0,0,0,0,0,0,0,0,0,0,0,0,0,0,0,0,0,0,0,0,0,0,0,0,0,0,0,0,0,0,0,0,0,0,0,0,0,0,0,0,0,0,0,0,0,0,0,0,0,0,0,0,0,0,0,0,0,0,0,0,0,0,0,0,0,0,0,0,0,0,0,0,0,0,0,0,0,0,0,0,0,0,0,0,0,0,0,0,0,0,0,0,0,0,0,0,0,0,0,0,0,0,0,0,0],"id":0,"left_children":[1,3,5,7,9,11,13,15,17,19,21,23,25,27,29,31,33,35,37,39,41,43,45,47,49,51,53,55,57,59,61,63,65,-1,-1,67,69,-1,71,73,75,77,79,81,83,85,87,89,91,93,95,97,99,101,103,105,107,109,-1,111,-1,113,115,-1,-1,-1,-1,-1,-1,-1,-1,-1,-1,-1,-1,-1,-1,-1,-1,-1,-1,-1,-1,-1,-1,-1,-1,-1,-1,-1,-1,-1,-1,-1,-1,-1,-1,-1,-1,-1,-1,-1,-1,-1,-1,-1,-1,-1,-1,-1,-1,-1,-1,-1,-1,-1,-1],"loss_changes":[4.2541284E2,3.1209323E2,1.7353345E2,1.8818887E2,7.057532E1,5.3344643E1,7.3252075E1,3.1627625E1,4.6651955E1,3.7185684E1,5.4766777E1,2.1168747E1,2.4832504E1,2.2243011E1,6.381125E1,2.3920395E1,6.8592834E0,1.0633154E1,3.8251183E1,2.2501427E1,2.5734352E1,1.8289987E2,3.6830647E1,3.0109077E1,1.3175049E1,1.4519936E1,2.169189E1,2.7998093E1,7.015991E-1,1.7299652E0,2.2959774E1,4.164189E1,2.4162369E1,0E0,0E0,1.6399612E0,1.0437958E1,0E0,3.1500319E1,2.840559E1,1.7644478E1,2.2686996E1,9.296848E0,6.797043E0,2.6482141E1,1.9446922E1,2.8112444E1,1.2341141E1,1.4845759E1,9.990023E0,4.704239E0,2.12783E0,1.6086014E1,2.9035233E1,4.6722603E1,4.9972534E0,2.2081642E1,4.6666284E0,0E0,3.790741E0,0E0,1.617966E1,3.890254E1,0E0,0E0,0E0,0E0,0E0,0E0,0E0,0E0,0E0,0E0,0E0,0E0,0E0,0E0,0E0,0E0,0E0,0E0,0E0,0E0,0E0,0E0,0E0,0E0,0E0,0E0,0E0,0E0,0E0,0E0,0E0,0E0,0E0,0E0,0E0,0E0,0E0,0E0,0E0,0E0,0E0,0E0,0E0,0E0,0E0,0E0,0E0,0E0,0E0,0E0,0E0,0E0,0E0,0E0],"parents":[2147483647,0,0,1,1,2,2,3,3,4,4,5,5,6,6,7,7,8,8,9,9,10,10,11,11,12,12,13,13,14,14,15,15,16,16,17,17,18,18,19,19,20,20,21,21,22,22,23,23,24,24,25,25,26,26,27,27,28,28,29,29,30,30,31,31,32,32,35,35,36,36,38,38,39,39,40,40,41,41,42,42,43,43,44,44,45,45,46,46,47,47,48,48,49,49,50,50,51,51,52,52,53,53,54,54,55,55,56,56,57,57,59,59,61,61,62,62],"right_children":[2,4,6,8,10,12,14,16,18,20,22,24,26,28,30,32,34,36,38,40,42,44,46,48,50,52,54,56,58,60,62,64,66,-1,-1,68,70,-1,72,74,76,78,80,82,84,86,88,90,92,94,96,98,100,102,104,106,108,110,-1,112,-1,114,116,-1,-1,-1,-1,-1,-1,-1,-1,-1,-1,-1,-1,-1,-1,-1,-1,-1,-1,-1,-1,-1,-1,-1,-1,-1,-1,-1,-1,-1,-1,-1,-1,-1,-1,-1,-1,-1,-1,-1,-1,-1,-1,-1,-1,-1,-1,-1,-1,-1,-1,-1,-1,-1,-1],"split_conditions":[6.6666664E1,2E1,1E2,3.1363636E1,4E1,1.7154588E0,2.357143E0,3.768116E1,2.3015873E1,5.0444973E1,2E1,1.5537411E0,8E1,5.590631E1,2.9047619E1,2E1,3.705818E1,5.7880768E1,8.064516E-1,5.25E1,2.5E1,1.0666667E0,5.627743E1,1.52807E0,3.317073E1,2.3918919E1,3.7118645E1,6.1134438E1,7.4074073E0,3.4482758E1,3.846154E1,2.888889E1,1E1,1.6557005E-3,-1.999955E-2,5E-1,3.5E1,-1.8955233E-2,6.6246057E0,6.6666664E1,6.963451E1,1.0344828E1,3.8636364E1,6.941956E1,1.5E0,6E1,2E0,5.8542934E1,2.625E0,2.486188E0,5.019608E1,2.0231214E0,5.181452E1,4E-1,3.2876713E1,1E0,3.702381E1,6.1884644E1,1.7459502E-2,4.0816326E0,1.8942662E-2,3.846154E1,4.1666668E1,-1.7051078E-2,6.5933806E-3,-4.590158E-3,-1.6497623E-2,1.6557007E-3,1.6154727E-2,7.0671346E-3,-1.3691873E-2,-2.3050578E-3,-1.6969802E-2,2.1927452E-3,-1.2387322E-2,-7.7995257E-3,1.8612132E-3,-1.4651706E-3,9.242119E-3,-4.6899943E-3,-1.2935482E-2,1.8619977E-2,2.0852347E-3,-5.382884E-3,1.9645244E-3,-1.9365994E-3,-1.690706E-4,-1.2693246E-3,8.065711E-4,6.5527763E-3,1.8503388E-2,-2.397833E-3,5.314091E-3,5.592992E-4,9.76171E-3,1.5711531E-2,2.773997E-3,-0E0,-1.1732815E-2,3.4817015E-3,1.7392414E-2,1.770398E-2,5.730067E-4,-1.6601746E-4,6.222416E-3,1.1458355E-2,1.7393159E-2,1.2514273E-2,-4.3492397E-5,1.4586369E-2,-3.7322338E-3,5.5712364E-3,1.6541844E-2,3.4096336E-3,1.3537749E-2,-8.838852E-3,3.7707603E-3],"split_indices":[2,2,2,5,2,4,19,7,16,0,13,4,2,0,5,13,11,11,10,11,2,19,0,4,16,16,16,11,18,7,18,7,7,0,0,19,5,0,10,13,11,10,18,11,19,2,19,0,19,10,16,10,0,19,18,23,5,0,0,10,0,5,18,0,0,0,0,0,0,0,0,0,0,0,0,0,0,0,0,0,0,0,0,0,0,0,0,0,0,0,0,0,0,0,0,0,0,0,0,0,0,0,0,0,0,0,0,0,0,0,0,0,0,0,0,0,0],"split_type":[0,0,0,0,0,0,0,0,0,0,0,0,0,0,0,0,0,0,0,0,0,0,0,0,0,0,0,0,0,0,0,0,0,0,0,0,0,0,0,0,0,0,0,0,0,0,0,0,0,0,0,0,0,0,0,0,0,0,0,0,0,0,0,0,0,0,0,0,0,0,0,0,0,0,0,0,0,0,0,0,0,0,0,0,0,0,0,0,0,0,0,0,0,0,0,0,0,0,0,0,0,0,0,0,0,0,0,0,0,0,0,0,0,0,0,0,0],"sum_hessian":[1.173683E4,9.528848E3,2.207983E3,5.1368787E2,9.015159E3,1.753288E3,4.54695E2,2.3197194E2,2.817159E2,2.2124824E3,6.8026772E3,2.3497157E2,1.5183163E3,2.3272185E2,2.2197314E2,1.3648349E2,9.548845E1,2.4996977E1,2.5671893E2,3.0696286E2,1.9055195E3,3.05713E2,6.496964E3,1.3648349E2,9.848808E1,4.124501E1,1.4770713E3,1.3848325E2,9.42386E1,3.9745193E1,1.8222795E2,2.8496553E1,1.0798694E2,1.2498488E0,9.42386E1,1.4248277E1,1.07487E1,1.5748095E1,2.4097086E2,8.0740234E1,2.2622264E2,1.844027E3,6.149256E1,7.149135E1,2.3422166E2,2.5349434E3,3.9620208E3,3.8495342E1,9.7988144E1,5.6243195E1,4.224489E1,5.9992743E0,3.5245735E1,1.01587714E3,4.611942E2,8.174011E1,5.6743137E1,4.499456E0,8.973914E1,1.5998065E1,2.3747128E1,6.899165E1,1.13236305E2,1.19985485E1,1.6498005E1,2.2747248E1,8.5239685E1,1.2498488E0,1.2998427E1,8.498972E0,2.2497277E0,2.2622264E2,1.4748216E1,6.499214E1,1.5748095E1,2.0597508E2,2.0247551E1,1.8250292E3,1.8997702E1,3.899528E1,2.2497278E1,6.8491714E1,2.9996371E0,6.8491714E1,1.6572995E2,1.4313269E3,1.1036165E3,8.221506E2,3.13987E3,2.3247189E1,1.5248156E1,5.12438E1,4.6744347E1,1.7247913E1,3.899528E1,3.8495342E1,3.7495465E0,4.4994555E0,1.4998186E0,1.4998186E1,2.0247551E1,8.998912E0,1.0068782E3,2.0697496E2,2.5421925E2,4.4744587E1,3.6995525E1,2.2497278E1,3.4245857E1,2.9996371E0,1.4998186E0,7.499093E0,8.498972E0,4.4244648E1,2.4747005E1,3.4245857E1,7.899045E1],"tree_param":{"num_deleted":"0","num_feature":"25","num_nodes":"117","size_leaf_vector":"1"}},{"base_weights":[9.947546E-3,-8.31151E-1,1.6669602E0,-2.0148737E0,-1.6066165E-1,7.25307E-1,1.9719689E0,-2.0194491E-2,-1.3021891E0,-7.6971465E-1,-9.055483E-3,6.1344814E-1,1.0242856E0,1.3481274E-2,1.9756185E-2,-0E0,-1.4007795E-2,-9.874739E-1,-7.006184E-1,-2.1011572E-2,3.038687E-1,6.868873E-1,4.0077448E-1,1.072552E0,7.516587E-1,-9.9985474E-1,-0E0,-3.3541918E-1,-7.35179E-1,2.4026008E-1,-3.2897655E-2,1.1795177E-1,6.020873E-1,6.321467E-1,8.697977E-1,5.245098E-1,1.3369563E-1,1.1319693E0,7.816479E-1,1.6124408E-1,8.53685E-1,-1.0539906E-2,-7.4512195E-3,-4.858461E-3,5.71878E-3,-7.714421E-3,-4.225459E-3,8.04272E-3,9.908335E-4,-4.2250994E-4,3.0131142E-3,-3.5781407E-4,5.030553E-3,3.5869335E-3,9.313593E-3,6.518051E-3,-3.6016738E-3,-4.450965E-3,9.000021E-3,6.89312E-3,1.5045081E-3,-9.843565E-5,6.638489E-3,1.0394545E-2,1.4177738E-2,-1.3824021E-3,8.412091E-3,-0E0,4.150219E-3,1.3157598E-3,8.833851E-3],"categories":[],"categories_nodes":[],"categories_segments":[],"categories_sizes":[],"default_left":[0,0,0,0,0,0,0,0,0,0,0,0,0,0,0,0,0,0,0,0,0,0,0,0,0,0,0,0,0,0,0,0,0,0,0,0,0,0,0,0,0,0,0,0,0,0,0,0,0,0,0,0,0,0,0,0,0,0,0,0,0,0,0,0,0,0,0,0,0,0,0],"id":1,"left_children":[1,3,5,7,9,11,13,-1,15,17,19,21,23,-1,-1,-1,-1,25,27,29,31,33,35,37,39,41,-1,43,45,47,49,51,53,55,57,59,61,63,65,67,69,-1,-1,-1,-1,-1,-1,-1,-1,-1,-1,-1,-1,-1,-1,-1,-1,-1,-1,-1,-1,-1,-1,-1,-1,-1,-1,-1,-1,-1,-1],"loss_changes":[1.6436139E4,6.2078496E3,1.1387256E3,6.260742E0,4.6112524E2,3.1752594E1,3.8310547E0,0E0,2.6525993E0,1.4116272E1,1.4945427E1,1.071936E1,2.4749756E0,0E0,0E0,0E0,0E0,2.831894E0,9.231323E0,1.1957409E1,8.006228E0,4.573456E0,5.985241E0,2.7432861E0,2.3658543E0,2.2612457E0,0E0,9.514956E0,7.4074097E0,1.3165554E1,1.1515575E1,5.5107307E0,4.0244045E0,8.25116E0,5.1418915E0,7.5786858E0,4.656237E0,3.0658264E0,2.4327106E0,3.5826442E-1,5.649891E-1,0E0,0E0,0E0,0E0,0E0,0E0,0E0,0E0,0E0,0E0,0E0,0E0,0E0,0E0,0E0,0E0,0E0,0E0,0E0,0E0,0E0,0E0,0E0,0E0,0E0,0E0,0E0,0E0,0E0,0E0],"parents":[2147483647,0,0,1,1,2,2,3,3,4,4,5,5,6,6,8,8,9,9,10,10,11,11,12,12,17,17,18,18,19,19,20,20,21,21,22,22,23,23,24,24,25,25,27,27,28,28,29,29,30,30,31,31,32,32,33,33,34,34,35,35,36,36,37,37,38,38,39,39,40,40],"right_children":[2,4,6,8,10,12,14,-1,16,18,20,22,24,-1,-1,-1,-1,26,28,30,32,34,36,38,40,42,-1,44,46,48,50,52,54,56,58,60,62,64,66,68,70,-1,-1,-1,-1,-1,-1,-1,-1,-1,-1,-1,-1,-1,-1,-1,-1,-1,-1,-1,-1,-1,-1,-1,-1,-1,-1,-1,-1,-1,-1],"split_conditions":[6.2396425E-1,1.5359794E-1,8.5746306E-1,1.21951655E-1,3.9588705E-1,7.5E-1,1E0,-2.0194491E-2,2.5E1,2.507653E-1,5.6097585E-1,4.2857143E1,2.0394464E0,1.3481274E-2,1.9756185E-2,-0E0,-1.4007795E-2,4.691358E1,1.5454545E0,1.2861736E0,5.4187193E0,6.6998116E1,1.9862517E0,6.75453E1,2.2222221E1,5.529954E0,-0E0,5.732484E0,3.75E-1,1.6363636E0,3.6E0,3.8333332E1,2.5454545E0,3.0666666E0,1.6043416E0,4.4692736E0,3.846154E1,5.040323E0,2.5821595E0,5E1,5.37962E1,-1.0539906E-2,-7.4512195E-3,-4.858461E-3,5.71878E-3,-7.714421E-3,-4.225459E-3,8.04272E-3,9.908335E-4,-4.2250994E-4,3.0131142E-3,-3.5781407E-4,5.030553E-3,3.5869335E-3,9.313593E-3,6.518051E-3,-3.6016738E-3,-4.450965E-3,9.000021E-3,6.89312E-3,1.5045081E-3,-9.843565E-5,6.638489E-3,1.0394545E-2,1.4177738E-2,-1.3824021E-3,8.412091E-3,-0E0,4.150219E-3,1.3157598E-3,8.833851E-3],"split_indices":[22,22,22,22,22,22,22,0,2,22,22,18,15,0,0,0,0,5,8,10,10,11,15,11,7,10,0,10,22,19,8,16,19,19,15,9,5,20,20,2,11,0,0,0,0,0,0,0,0,0,0,0,0,0,0,0,0,0,0,0,0,0,0,0,0,0,0,0,0,0,0],"split_type":[0,0,0,0,0,0,0,0,0,0,0,0,0,0,0,0,0,0,0,0,0,0,0,0,0,0,0,0,0,0,0,0,0,0,0,0,0,0,0,0,0,0,0,0,0,0,0,0,0,0,0,0,0,0,0,0,0,0,0,0,0,0,0,0,0,0,0,0,0,0,0],"sum_hessian":[1.17910205E4,7.821347E3,3.9696729E3,2.8274465E3,4.993901E3,9.721281E2,2.9975447E3,2.807449E3,1.9997543E1,9.94385E2,3.9995159E3,7.099107E2,2.6221738E2,1.974766E1,2.977797E3,1.4998419E0,1.8497702E1,2.3597217E2,7.5841284E2,3.853534E3,1.4598193E2,5.256846E2,1.8422615E2,2.1997217E2,4.224521E1,2.3297252E2,2.9996438E0,6.674314E1,6.916697E2,1.6647908E2,3.6870547E3,9.098836E1,5.499358E1,4.0844864E2,1.1723593E2,1.24983894E2,5.9242256E1,1.7997676E2,3.9995407E1,6.74916E0,3.5496048E1,1.8922763E2,4.3744896E1,5.7744087E1,8.999052E0,6.181782E2,7.349151E1,3.2246513E1,1.3423256E2,3.5878171E3,9.92376E1,6.549156E1,2.5496796E1,3.299622E1,2.199736E1,4.0094952E2,7.499133E0,2.24976E0,1.1498617E2,8.598893E1,3.899497E1,4.724379E1,1.1998465E1,1.397323E2,4.0244457E1,2.2497296E0,3.7745678E1,4.499452E0,2.2497077E0,1.7497916E0,3.3746258E1],"tree_param":{"num_deleted":"0","num_feature":"25","num_nodes":"71","size_leaf_vector":"1"}},{"base_weights":[-2.3596336E-3,-8.2556057E-1,1.6608647E0,-1.964375E0,-1.3645108E-1,7.326209E-1,1.9485314E0,-1.9990737E-2,-1.2272807E0,-7.0532924E-1,-1.455201E-2,6.0570365E-1,1.0766935E0,1.342898E0,1.9565057E-2,-1.2505484E0,-3.0370706E-1,-9.224387E-1,-5.850311E-1,-2.847405E-2,3.7676057E-1,6.8671215E-1,3.874762E-1,1.4325635E0,9.415963E-1,9.077706E-3,1.4894239E0,-3.0621964E-1,-1.275088E0,-4.392691E-3,-0E0,-9.9689686E-1,-5.262139E-1,-1.810264E-1,-6.3240117E-1,5.8827065E-2,-5.919403E-2,9.97744E-1,2.7725837E-1,5.857136E-1,8.7052596E-1,-7.4311686E-1,4.1077825E-1,1.466626E0,-0E0,1.8415096E-1,9.7493255E-1,1.5485556E-2,7.0026857E-3,-0E0,-4.412517E-3,-1.4518236E-2,-1.1444362E-2,-1.26168225E-2,-8.7578725E-3,-5.8398116E-3,6.387737E-4,7.847117E-3,-3.520797E-3,-7.110865E-3,-4.4305013E-3,3.7359205E-4,7.489182E-3,-1.5307784E-3,-1.9575034E-4,3.97974E-3,1.16872E-2,3.9238404E-3,-1.5659361E-3,2.0681703E-3,6.4762575E-3,-4.4200267E-3,8.912417E-3,-1.1754925E-2,-0E0,4.3484014E-3,-7.421043E-3,1.4968259E-2,4.1079368E-3,4.013979E-3,-8.914328E-5,5.405876E-3,1.0322448E-2],"categories":[],"categories_nodes":[],"categories_segments":[],"categories_sizes":[],"default_left":[0,0,0,0,0,0,0,0,0,0,0,0,0,0,0,0,0,0,0,0,0,0,0,0,0,0,0,0,0,0,0,0,0,0,0,0,0,0,0,0,0,0,0,0,0,0,0,0,0,0,0,0,0,0,0,0,0,0,0,0,0,0,0,0,0,0,0,0,0,0,0,0,0,0,0,0,0,0,0,0,0,0,0],"id":2,"left_children":[1,3,5,7,9,11,13,-1,15,17,19,21,23,25,-1,27,29,31,33,35,37,39,41,43,45,-1,47,49,51,-1,-1,53,55,57,59,61,63,65,67,69,71,73,75,77,-1,79,81,-1,-1,-1,-1,-1,-1,-1,-1,-1,-1,-1,-1,-1,-1,-1,-1,-1,-1,-1,-1,-1,-1,-1,-1,-1,-1,-1,-1,-1,-1,-1,-1,-1,-1,-1,-1],"loss_changes":[1.6004892E4,6.135971E3,1.0317227E3,7.261621E1,3.3782E2,3.923694E1,1.1308594E1,0E0,2.3711243E0,2.1763275E1,2.1843718E1,1.151712E1,1.0225494E1,1.0693893E0,0E0,2.498581E0,1.8897584E-1,8.306122E0,1.0448959E1,1.0401968E1,8.105907E0,8.420822E0,5.1384335E0,3.240509E0,4.280014E0,0E0,6.690979E-2,1.8736887E-1,1.0286102E0,0E0,0E0,6.8582916E0,1.8106756E0,1.0143879E1,6.9777527E0,1.4839757E1,1.0652724E1,1.2750149E0,6.090205E0,7.262268E0,5.087311E0,1.2454655E0,5.3329296E0,1.2344818E0,0E0,4.202331E-1,3.5963135E0,0E0,0E0,0E0,0E0,0E0,0E0,0E0,0E0,0E0,0E0,0E0,0E0,0E0,0E0,0E0,0E0,0E0,0E0,0E0,0E0,0E0,0E0,0E0,0E0,0E0,0E0,0E0,0E0,0E0,0E0,0E0,0E0,0E0,0E0,0E0,0E0],"parents":[2147483647,0,0,1,1,2,2,3,3,4,4,5,5,6,6,8,8,9,9,10,10,11,11,12,12,13,13,15,15,16,16,17,17,18,18,19,19,20,20,21,21,22,22,23,23,24,24,26,26,27,27,28,28,31,31,32,32,33,33,34,34,35,35,36,36,37,37,38,38,39,39,40,40,41,41,42,42,43,43,45,45,46,46],"right_children":[2,4,6,8,10,12,14,-1,16,18,20,22,24,26,-1,28,30,32,34,36,38,40,42,44,46,-1,48,50,52,-1,-1,54,56,58,60,62,64,66,68,70,72,74,76,78,-1,80,82,-1,-1,-1,-1,-1,-1,-1,-1,-1,-1,-1,-1,-1,-1,-1,-1,-1,-1,-1,-1,-1,-1,-1,-1,-1,-1,-1,-1,-1,-1,-1,-1,-1,-1,-1,-1],"split_conditions":[6.314127E-1,2.312239E-1,8.333333E-1,1.21951655E-1,3.9588705E-1,7.3616385E-1,1E0,-1.9990737E-2,3.3E0,3.1758925E-1,5.769911E-1,4.1935482E1,2.9310345E1,5E1,1.9565057E-2,1E0,6.5462234E1,6.1728396E0,2.3076923E1,2.8571428E1,2.2222221E1,6.2630417E1,8.064516E-1,1.011236E1,3.0434782E1,9.077706E-3,6.3942818E1,5.011599E1,5.474491E1,-4.392691E-3,-0E0,3.3333332E1,7.6666664E1,1.7252622E0,6.3630486E1,5.2361614E-1,5.3679157E1,3.2876713E1,7E1,1.6363636E0,1.6043416E0,2.6666666E1,8.878505E0,7.300813E1,-0E0,3.6666668E1,4.9942978E1,1.5485556E-2,7.0026857E-3,-0E0,-4.412517E-3,-1.4518236E-2,-1.1444362E-2,-1.26168225E-2,-8.7578725E-3,-5.8398116E-3,6.387737E-4,7.847117E-3,-3.520797E-3,-7.110865E-3,-4.4305013E-3,3.7359205E-4,7.489182E-3,-1.5307784E-3,-1.9575034E-4,3.97974E-3,1.16872E-2,3.9238404E-3,-1.5659361E-3,2.0681703E-3,6.4762575E-3,-4.4200267E-3,8.912417E-3,-1.1754925E-2,-0E0,4.3484014E-3,-7.421043E-3,1.4968259E-2,4.1079368E-3,4.013979E-3,-8.914328E-5,5.405876E-3,1.0322448E-2],"split_indices":[22,22,22,22,22,22,22,0,19,22,22,18,7,14,0,24,0,21,7,5,14,12,10,9,7,0,0,0,0,0,0,3,3,15,12,22,12,7,3,19,15,3,9,12,0,3,0,0,0,0,0,0,0,0,0,0,0,0,0,0,0,0,0,0,0,0,0,0,0,0,0,0,0,0,0,0,0,0,0,0,0,0,0],"split_type":[0,0,0,0,0,0,0,0,0,0,0,0,0,0,0,0,0,0,0,0,0,0,0,0,0,0,0,0,0,0,0,0,0,0,0,0,0,0,0,0,0,0,0,0,0,0,0,0,0,0,0,0,0,0,0,0,0,0,0,0,0,0,0,0,0,0,0,0,0,0,0,0,0,0,0,0,0,0,0,0,0,0,0],"sum_hessian":[1.1687563E4,7.8184443E3,3.8691194E3,2.9467249E3,4.8717197E3,9.162986E2,2.9528208E3,2.8124797E3,1.3424504E2,8.587061E2,4.0130134E3,6.716132E2,2.4468535E2,4.0738773E1,2.912082E3,1.3049516E2,3.749878E0,3.0348636E2,5.552198E2,3.8762864E3,1.3672693E2,4.8789575E2,1.8371748E2,6.448256E1,1.8020279E2,1.2247131E1,2.8491642E1,3.7498016E0,1.2674537E2,2.2499154E0,1.4999626E0,2.5398868E2,4.9497673E1,5.8995758E1,4.9622403E2,1.00788196E3,2.8684045E3,1.7497072E1,1.1922986E2,3.179339E2,1.6996184E2,2.9995635E0,1.8071793E2,6.2982716E1,1.4998419E0,7.998116E0,1.7220467E2,2.5492466E1,2.999175E0,1.4999301E0,2.2498717E0,4.9248367E1,7.7497E1,7.649723E1,1.7749146E2,4.5247925E1,4.249747E0,8.249324E0,5.0746433E1,3.4823187E2,1.4799216E2,9.7863684E2,2.9245106E1,8.496438E2,2.0187607E3,4.7493343E0,1.2747739E1,9.448395E1,2.4745907E1,4.5490723E1,2.7244318E2,2.2498522E0,1.6771199E2,1.4997528E0,1.4998107E0,1.777183E2,2.9996128E0,6.073319E1,2.249529E0,3.4993498E0,4.4987664E0,2.1493313E1,1.5071136E2],"tree_param":{"num_deleted":"0","num_feature":"25","num_nodes":"83","size_leaf_vector":"1"}},{"base_weights":[9.127234E-3,-3.282234E-1,1.1082089E-1,-1.2600843E0,-2.2992621E-1,6.947816E-2,8.8196427E-1,-1.6027714E0,-6.873959E-1,-1.1711752E0,-1.968941E-1,5.0977457E-1,4.910855E-2,1.3908833E0,4.9232855E-1,-3.5858163E-1,-1.8889727E-2,-2.4040005E-1,-1.0352019E0,-1.4454722E0,-6.2596583E-1,-3.3162928E-1,-8.111625E-2,1.5166304E-1,1.4838878E0,6.9634006E-3,2.147084E-1,1.7925891E0,1.1073092E0,1.1503007E0,1.8578175E-1,-7.4752E-1,9.173196E-1,1.047041E-1,-7.8945684E-1,-5.568625E-1,-1.529348E0,-1.8966893E-2,-8.6415416E-1,-1.2124106E0,4.733945E-3,2.7843568E-1,-3.7886426E-1,2.1413903E-1,-1.3935652E-1,1.1895812E0,-1.318444E-2,1.535837E0,-1.15030985E-2,-1.7994855E-1,3.5721913E-2,4.0068433E-1,8.560682E-2,1.8598782E0,8.764714E-1,1.5969644E0,8.838371E-1,1.5620294E0,6.8814725E-1,4.8769456E-3,1.5155953E0,2.3933647E-3,-9.686075E-3,-0E0,1.5140842E-2,1.4393985E-2,-1.0683247E-3,-1.4617341E-2,3.8415793E-4,-9.718807E-3,4.57343E-3,-1.6560357E-2,1.3061912E-3,1.3078933E-2,-1.13183055E-2,4.193243E-3,-1.5286995E-2,1.0565657E-2,-3.8988842E-3,3.9005834E-3,-1.5387163E-2,-8.624877E-3,-3.3493612E-3,-2.2947052E-3,3.3771964E-3,-1.2469314E-2,-1.1809929E-3,-9.63626E-5,1.5104971E-2,1.4908732E-2,-8.68364E-4,1.7870251E-2,8.8507E-3,-4.748635E-3,-8.7174197E-4,-2.4630108E-3,5.324352E-4,2.8912544E-3,6.9814273E-3,4.361109E-3,-1.5455455E-5,1.5342569E-3,1.8857278E-2,1.5926424E-2,-1.1511693E-2,-0E0,1.6676342E-2,2.8389667E-3,1.0930051E-2,1.6100496E-2,6.035029E-3,2.7674574E-3,1.7435227E-2,1.3925639E-2,-9.654058E-4,1.8104782E-2,2.3934983E-3],"categories":[],"categories_nodes":[],"categories_segments":[],"categories_sizes":[],"default_left":[0,0,0,0,0,0,0,0,0,0,0,0,0,0,0,0,0,0,0,0,0,0,0,0,0,0,0,0,0,0,0,0,0,0,0,0,0,0,0,0,0,0,0,0,0,0,0,0,0,0,0,0,0,0,0,0,0,0,0,0,0,0,0,0,0,0,0,0,0,0,0,0,0,0,0,0,0,0,0,0,0,0,0,0,0,0,0,0,0,0,0,0,0,0,0,0,0,0,0,0,0,0,0,0,0,0,0,0,0,0,0,0,0,0,0,0,0],"id":3,"left_children":[1,3,5,7,9,11,13,15,17,19,21,23,25,27,29,31,-1,33,35,37,39,41,43,45,47,49,51,53,55,57,59,61,63,65,67,69,71,-1,73,75,77,79,81,83,85,87,89,91,-1,93,95,97,99,101,103,105,107,109,111,113,115,-1,-1,-1,-1,-1,-1,-1,-1,-1,-1,-1,-1,-1,-1,-1,-1,-1,-1,-1,-1,-1,-1,-1,-1,-1,-1,-1,-1,-1,-1,-1,-1,-1,-1,-1,-1,-1,-1,-1,-1,-1,-1,-1,-1,-1,-1,-1,-1,-1,-1,-1,-1,-1,-1,-1,-1],"loss_changes":[4.032043E2,2.4891489E2,2.8777457E2,4.958371E1,7.623537E1,7.680775E1,9.02121E1,5.6588165E1,1.5012321E1,1.1334702E1,3.7082626E1,1.3173724E2,5.7173073E1,2.033963E1,5.2461884E1,1.6296843E1,0E0,8.62922E0,1.199678E1,1.23762665E1,1.1127581E1,3.1812035E1,2.2077885E1,4.7721363E1,1.5711884E1,3.511546E1,3.982273E1,3.0518188E0,1.137677E1,1.4477631E1,4.3120193E1,5.7039566E0,4.3639836E0,8.261828E0,9.937083E0,1.3015741E1,5.9408035E0,0E0,1.6430174E1,8.75062E0,6.806344E0,1.6604395E1,2.1292313E1,1.167918E1,2.4959751E1,1.4871281E1,2.6677265E1,1.4517853E1,0E0,2.3733587E1,2.7983503E1,2.2278946E1,3.0060667E1,2.766449E0,1.2759211E1,4.1240845E0,1.0115837E1,7.83844E-1,1.7103085E1,2.2701693E1,7.443165E0,0E0,0E0,0E0,0E0,0E0,0E0,0E0,0E0,0E0,0E0,0E0,0E0,0E0,0E0,0E0,0E0,0E0,0E0,0E0,0E0,0E0,0E0,0E0,0E0,0E0,0E0,0E0,0E0,0E0,0E0,0E0,0E0,0E0,0E0,0E0,0E0,0E0,0E0,0E0,0E0,0E0,0E0,0E0,0E0,0E0,0E0,0E0,0E0,0E0,0E0,0E0,0E0,0E0,0E0,0E0,0E0],"parents":[2147483647,0,0,1,1,2,2,3,3,4,4,5,5,6,6,7,7,8,8,9,9,10,10,11,11,12,12,13,13,14,14,15,15,17,17,18,18,19,19,20,20,21,21,22,22,23,23,24,24,25,25,26,26,27,27,28,28,29,29,30,30,31,31,32,32,33,33,34,34,35,35,36,36,38,38,39,39,40,40,41,41,42,42,43,43,44,44,45,45,46,46,47,47,49,49,50,50,51,51,52,52,53,53,54,54,55,55,56,56,57,57,58,58,59,59,60,60],"right_children":[2,4,6,8,10,12,14,16,18,20,22,24,26,28,30,32,-1,34,36,38,40,42,44,46,48,50,52,54,56,58,60,62,64,66,68,70,72,-1,74,76,78,80,82,84,86,88,90,92,-1,94,96,98,100,102,104,106,108,110,112,114,116,-1,-1,-1,-1,-1,-1,-1,-1,-1,-1,-1,-1,-1,-1,-1,-1,-1,-1,-1,-1,-1,-1,-1,-1,-1,-1,-1,-1,-1,-1,-1,-1,-1,-1,-1,-1,-1,-1,-1,-1,-1,-1,-1,-1,-1,-1,-1,-1,-1,-1,-1,-1,-1,-1,-1,-1],"split_conditions":[4E1,2.1052632E-1,1E2,2E1,1.2222222E0,2E1,2.991453E0,1E1,3.7344398E0,2E1,3.2967033E0,4.3939392E1,6.6666664E1,1.3550136E0,3.6153847E1,6.6666664E1,-1.8889727E-2,6E1,5.1569505E0,1.1666666E0,2.952381E1,1.6258197E0,3.8560412E0,1.6680287E0,6.716418E1,5.018013E1,1.8702803E0,2.1250246E0,2.0666666E0,3.6206898E1,4.1149426E1,1.686583E0,1.8759396E0,2.03125E1,1.8759396E0,4.2105265E0,2.332559E0,-1.8966893E-2,2E1,2.1052632E-1,1.686583E0,2.5E1,2.063492E1,2.888889E1,1.5359793E0,1.0245901E0,1.754386E0,2.7906976E0,-1.15030985E-2,3.3419023E0,1.9178082E1,5.8685446E0,3.125E0,1.25E1,2.0666666E0,1.4319808E0,3.6842106E1,5.965909E0,5.194805E0,1.6515298E0,9.736308E0,2.3933647E-3,-9.686075E-3,-0E0,1.5140842E-2,1.4393985E-2,-1.0683247E-3,-1.4617341E-2,3.8415793E-4,-9.718807E-3,4.57343E-3,-1.6560357E-2,1.3061912E-3,1.3078933E-2,-1.13183055E-2,4.193243E-3,-1.5286995E-2,1.0565657E-2,-3.8988842E-3,3.9005834E-3,-1.5387163E-2,-8.624877E-3,-3.3493612E-3,-2.2947052E-3,3.3771964E-3,-1.2469314E-2,-1.1809929E-3,-9.63626E-5,1.5104971E-2,1.4908732E-2,-8.68364E-4,1.7870251E-2,8.8507E-3,-4.748635E-3,-8.7174197E-4,-2.4630108E-3,5.324352E-4,2.8912544E-3,6.9814273E-3,4.361109E-3,-1.5455455E-5,1.5342569E-3,1.8857278E-2,1.5926424E-2,-1.1511693E-2,-0E0,1.6676342E-2,2.8389667E-3,1.0930051E-2,1.6100496E-2,6.035029E-3,2.7674574E-3,1.7435227E-2,1.3925639E-2,-9.654058E-4,1.8104782E-2,2.3934983E-3],"split_indices":[2,9,2,2,8,13,20,7,21,2,20,18,2,9,5,14,0,13,10,8,5,15,20,15,18,1,15,15,8,18,5,15,15,7,15,10,15,0,13,20,15,2,18,7,15,9,21,20,0,10,18,10,10,18,8,9,7,21,10,15,9,0,0,0,0,0,0,0,0,0,0,0,0,0,0,0,0,0,0,0,0,0,0,0,0,0,0,0,0,0,0,0,0,0,0,0,0,0,0,0,0,0,0,0,0,0,0,0,0,0,0,0,0,0,0,0,0],"split_type":[0,0,0,0,0,0,0,0,0,0,0,0,0,0,0,0,0,0,0,0,0,0,0,0,0,0,0,0,0,0,0,0,0,0,0,0,0,0,0,0,0,0,0,0,0,0,0,0,0,0,0,0,0,0,0,0,0,0,0,0,0,0,0,0,0,0,0,0,0,0,0,0,0,0,0,0,0,0,0,0,0,0,0,0,0,0,0,0,0,0,0,0,0,0,0,0,0,0,0,0,0,0,0,0,0,0,0,0,0,0,0,0,0,0,0,0,0],"sum_hessian":[1.1751602E4,2.7212214E3,9.03038E3,2.584328E2,2.4627888E3,8.572034E3,4.5834622E2,1.6044933E2,9.7983475E1,8.22278E1,2.380561E3,3.7775644E2,8.194277E3,1.9752473E2,2.6082147E2,3.0492598E1,1.2995674E2,4.3743538E1,5.4239933E1,5.3484764E1,2.8743034E1,1.0989463E3,1.2816146E3,2.771329E2,1.00623535E2,6.5332197E3,1.661058E3,7.938932E1,1.1813542E2,8.191673E1,1.7890475E2,2.3746386E1,6.7462125E0,2.7245699E1,1.6497839E1,2.8744349E1,2.5495584E1,2.8741192E1,2.4743572E1,1.4498289E1,1.4244744E1,7.846875E1,1.0204776E3,2.1042892E2,1.0711857E3,3.7214172E1,2.3991875E2,9.9123634E1,1.4999014E0,8.700055E2,5.663214E3,6.794317E2,9.816263E2,7.2895775E1,6.4935474E0,3.4953754E1,8.318166E1,4.1948704E1,3.996803E1,1.5843103E2,2.0473728E1,4.2483597E0,1.9498026E1,2.9992275E0,3.746985E0,2.9979997E0,2.42477E1,8.748625E0,7.7492137E0,2.049714E1,8.247208E0,2.374592E1,1.7496645E0,2.247408E0,2.2496164E1,2.2497733E0,1.2248516E1,3.4977612E0,1.0746984E1,7.471932E1,3.749426E0,8.323181E1,9.372458E2,4.5485706E1,1.6494322E2,1.8997307E1,1.0521884E3,7.9952855E0,2.9218887E1,1.0238428E1,2.2968031E2,7.014776E1,2.8975872E1,2.0694951E2,6.6305597E2,3.3016736E2,5.333047E3,4.9579633E2,1.8363536E2,1.9490652E2,7.867198E2,1.2489787E0,7.164679E1,4.9936295E0,1.499918E0,1.4997355E0,3.3454018E1,2.223684E1,6.0944824E1,3.9200787E1,2.7479196E0,2.9734173E1,1.0233857E1,9.990256E0,1.4844077E2,1.6227362E1,4.2463665E0],"tree_param":{"num_deleted":"0","num_feature":"25","num_nodes":"117","size_leaf_vector":"1"}},{"base_weights":[9.583432E-3,-8.242519E-1,1.6429837E0,-1.9473312E0,-1.433522E-1,7.787767E-1,1.9347493E-2,-1.9773176E-2,-1.1731591E0,-6.567398E-1,-2.075986E-2,6.808094E-1,1.071656E0,-8.1582606E-1,-1.3008938E0,-9.2428976E-1,-5.881331E-1,-2.9265035E-2,3.2591808E-1,6.44693E-1,9.1208965E-1,7.930942E-1,1.1522524E0,-9.194564E-1,-2.2160293E-1,-1.3448228E0,-2.9847732E-1,-1.2959136E0,-8.082607E-1,-5.212496E-1,-7.600942E-1,8.862924E-3,-1.2252382E-1,7.592746E-3,5.667778E-1,1.523208E-1,6.665185E-1,9.9001527E-1,-2.0031447E-2,8.939841E-1,3.248922E-1,1.2114277E0,6.401201E-1,-1.1399815E-2,-5.1440326E-3,-0E0,-4.2304043E-3,-8.408018E-3,-1.4574711E-2,-1.16081E-2,4.259334E-3,-1.4254709E-2,-4.1632364E-3,-9.820334E-3,-5.1461086E-3,-8.053094E-3,-4.5711054E-3,-0E0,-7.947558E-3,-3.2774537E-4,1.4663377E-3,-2.2588267E-4,-1.831067E-3,7.545053E-3,-2.4436403E-3,6.7811417E-3,-4.4383775E-3,3.3430438E-3,-1.3754688E-2,6.773296E-3,4.884157E-4,6.0060183E-3,1.1072634E-2,-1.1819082E-2,3.835313E-3,1.1946312E-2,6.3296803E-3,5.3691566E-3,-1.4788078E-4,1.316626E-2,8.747462E-3,1.478341E-3,8.417656E-3],"categories":[],"categories_nodes":[],"categories_segments":[],"categories_sizes":[],"default_left":[0,0,0,0,0,0,0,0,0,0,0,0,0,0,0,0,0,0,0,0,0,0,0,0,0,0,0,0,0,0,0,0,0,0,0,0,0,0,0,0,0,0,0,0,0,0,0,0,0,0,0,0,0,0,0,0,0,0,0,0,0,0,0,0,0,0,0,0,0,0,0,0,0,0,0,0,0,0,0,0,0,0,0],"id":4,"left_children":[1,3,5,7,9,11,-1,-1,13,15,17,19,21,23,25,27,29,31,33,35,37,39,41,43,45,47,49,51,53,55,57,59,61,63,65,67,69,71,73,75,77,79,81,-1,-1,-1,-1,-1,-1,-1,-1,-1,-1,-1,-1,-1,-1,-1,-1,-1,-1,-1,-1,-1,-1,-1,-1,-1,-1,-1,-1,-1,-1,-1,-1,-1,-1,-1,-1,-1,-1,-1,-1],"loss_changes":[1.592105E4,5.9174478E3,9.943662E2,6.5171875E1,3.0321454E2,2.7756287E1,0E0,0E0,3.8162842E0,1.635263E1,1.1453537E1,5.533722E0,4.4680176E0,1.6680508E0,2.9680786E0,6.8269196E0,8.012329E0,1.3521881E1,7.06728E0,6.8425293E0,7.287506E0,2.385231E0,4.8022156E0,1.6598778E0,2.7470073E-1,2.8881378E0,3.5351362E0,4.0940094E0,6.782295E0,9.307388E0,5.3769073E0,1.5486933E1,6.655533E0,7.9967933E0,6.2584534E0,8.485871E0,4.0716248E0,3.3292465E0,4.5175295E0,2.826107E0,9.421133E-1,4.620697E0,1.959652E0,0E0,0E0,0E0,0E0,0E0,0E0,0E0,0E0,0E0,0E0,0E0,0E0,0E0,0E0,0E0,0E0,0E0,0E0,0E0,0E0,0E0,0E0,0E0,0E0,0E0,0E0,0E0,0E0,0E0,0E0,0E0,0E0,0E0,0E0,0E0,0E0,0E0,0E0,0E0,0E0],"parents":[2147483647,0,0,1,1,2,2,3,3,4,4,5,5,8,8,9,9,10,10,11,11,12,12,13,13,14,14,15,15,16,16,17,17,18,18,19,19,20,20,21,21,22,22,23,23,24,24,25,25,26,26,27,27,28,28,29,29,30,30,31,31,32,32,33,33,34,34,35,35,36,36,37,37,38,38,39,39,40,40,41,41,42,42],"right_children":[2,4,6,8,10,12,-1,-1,14,16,18,20,22,24,26,28,30,32,34,36,38,40,42,44,46,48,50,52,54,56,58,60,62,64,66,68,70,72,74,76,78,80,82,-1,-1,-1,-1,-1,-1,-1,-1,-1,-1,-1,-1,-1,-1,-1,-1,-1,-1,-1,-1,-1,-1,-1,-1,-1,-1,-1,-1,-1,-1,-1,-1,-1,-1,-1,-1,-1,-1,-1,-1],"split_conditions":[6.1181885E-1,2.1511292E-1,8.5746306E-1,1.4024438E-1,4.0035775E-1,7.4675983E-1,1.9347493E-2,-1.9773176E-2,3.6666668E1,2.7211007E-1,5.6097585E-1,6.702413E0,2.612745E1,5.2884617E0,4.025641E1,3.030303E1,2.0518947E0,5.3892217E0,4.4585986E0,2.0877193E1,4.3666668E1,6.8195885E1,2.154797E0,3.611111E1,5.1132004E1,1.6095126E-1,5.299816E1,3.857143E1,1.9140958E0,2.5380712E0,1.4545455E0,6.6666664E1,1.8468665E0,5.7611686E-1,6.821429E1,4.376344E1,7.1595024E1,5.2477417E1,5E1,2.5E0,4.4444443E1,6.3942818E1,5.9407063E1,-1.1399815E-2,-5.1440326E-3,-0E0,-4.2304043E-3,-8.408018E-3,-1.4574711E-2,-1.16081E-2,4.259334E-3,-1.4254709E-2,-4.1632364E-3,-9.820334E-3,-5.1461086E-3,-8.053094E-3,-4.5711054E-3,-0E0,-7.947558E-3,-3.2774537E-4,1.4663377E-3,-2.2588267E-4,-1.831067E-3,7.545053E-3,-2.4436403E-3,6.7811417E-3,-4.4383775E-3,3.3430438E-3,-1.3754688E-2,6.773296E-3,4.884157E-4,6.0060183E-3,1.1072634E-2,-1.1819082E-2,3.835313E-3,1.1946312E-2,6.3296803E-3,5.3691566E-3,-1.4788078E-4,1.316626E-2,8.747462E-3,1.478341E-3,8.417656E-3],"split_indices":[22,22,22,22,22,22,0,0,3,22,22,10,16,20,5,18,15,10,10,16,16,11,15,16,0,22,11,5,15,10,8,3,15,22,11,5,11,0,2,8,3,0,0,0,0,0,0,0,0,0,0,0,0,0,0,0,0,0,0,0,0,0,0,0,0,0,0,0,0,0,0,0,0,0,0,0,0,0,0,0,0,0,0],"split_type":[0,0,0,0,0,0,0,0,0,0,0,0,0,0,0,0,0,0,0,0,0,0,0,0,0,0,0,0,0,0,0,0,0,0,0,0,0,0,0,0,0,0,0,0,0,0,0,0,0,0,0,0,0,0,0,0,0,0,0,0,0,0,0,0,0,0,0,0,0,0,0,0,0,0,0,0,0,0,0,0,0,0,0],"sum_hessian":[1.1687521E4,7.7378545E3,3.949667E3,2.9198435E3,4.818011E3,9.979023E2,2.951765E3,2.8093445E3,1.104991E2,9.277291E2,3.890282E3,7.5052106E2,2.4738123E2,3.1249525E1,7.924957E1,1.8649849E2,7.4123065E2,3.798301E3,9.198104E1,6.528006E2,9.772047E1,5.822426E1,1.8915698E2,2.5999664E1,5.2498593E0,7.549961E1,3.7499628E0,4.1749706E1,1.4474878E2,5.3698535E2,2.0424533E2,2.695929E3,1.102372E3,4.024246E1,5.1738583E1,2.8241755E1,6.2455884E2,9.022297E1,7.497498E0,4.6978237E1,1.124602E1,1.681653E2,2.0991682E1,1.5499769E1,1.0499896E1,2.9999294E0,2.24993E0,1.5499973E1,5.9999638E1,1.4999993E0,2.2499635E0,3.5749725E1,5.9999814E0,8.9249146E1,5.5499638E1,9.649814E1,4.4048718E2,8.999616E0,1.9524571E2,2.07028E3,6.2564905E2,4.1719843E2,6.851735E2,9.747832E0,3.0494627E1,4.698982E1,4.748763E0,2.5992302E1,2.2494507E0,6.1356134E2,1.0997493E1,2.2492973E1,6.7729996E1,1.4994929E0,5.998005E0,1.9991442E1,2.6986795E1,6.7478533E0,4.4981666E0,1.25686165E2,4.247913E1,6.7475786E0,1.4244104E1],"tree_param":{"num_deleted":"0","num_feature":"25","num_nodes":"83","size_leaf_vector":"1"}},{"base_weights":[8.044864E-3,-3.2194075E-1,1.0770787E-1,-1.361494E0,-2.231723E-1,6.5307826E-2,8.726732E-1,-1.6607682E0,-8.043531E-1,-1.2250543E0,-1.8762198E-1,4.4055364E-1,4.7925804E-2,1.7370942E0,6.259455E-1,-1.836615E-2,-1.0357269E0,-4.2935783E-1,-1.3485525E0,-1.3493916E0,-2.540665E-1,-1.813508E-2,-1.7732768E-1,1.7579523E0,8.574127E-3,7.4673295E-3,2.0288542E-1,1.8338319E-2,1.3352004E0,1.0337015E0,2.5790444E-1,-1.2757137E0,5.0942296E-1,9.031149E-3,-5.543811E-1,-1.4903934E0,4.205376E-3,-1.443616E0,-6.299242E-2,-9.88011E-1,1.4014176E-2,-4.3252707E-1,-1.3603519E-1,1.786864E0,1.1676756E-3,-9.48435E-2,1.3442034E0,2.1679172E-2,-3.6667585E-1,1.0793798E0,1.7224112E-1,6.648975E-1,1.7522614E-2,6.9361675E-1,1.5647186E0,7.074666E-1,-8.299811E-3,-1.6214106E-2,-2.2006386E-3,-1.1218971E-2,1.4269672E-2,-2.4141807E-3,-1.0457648E-2,-1.5634935E-2,-0E0,-5.267489E-3,-1.5729142E-2,3.7509429E-3,-1.0530511E-2,-1.602404E-2,4.1936515E-3,-3.8001519E-3,-1.7139362E-2,-2.6387833E-3,-5.0580566E-4,4.7115525E-3,1.8060667E-2,1.1088449E-2,-1.9585975E-3,-3.6682896E-3,1.5019717E-2,-8.848234E-4,6.200092E-4,7.414815E-4,-5.0444244E-3,1.4626324E-2,6.3412455E-3,1.2139344E-3,4.40607E-3,-9.126117E-3,1.6225478E-2,9.393732E-3,-1.9897693E-3,9.5582183E-4,1.6007336E-2,-3.4779196E-3,9.536041E-3,6.323532E-3,-3.070349E-3],"categories":[],"categories_nodes":[],"categories_segments":[],"categories_sizes":[],"default_left":[0,0,0,0,0,0,0,0,0,0,0,0,0,0,0,0,0,0,0,0,0,0,0,0,0,0,0,0,0,0,0,0,0,0,0,0,0,0,0,0,0,0,0,0,0,0,0,0,0,0,0,0,0,0,0,0,0,0,0,0,0,0,0,0,0,0,0,0,0,0,0,0,0,0,0,0,0,0,0,0,0,0,0,0,0,0,0,0,0,0,0,0,0,0,0,0,0,0,0],"id":5,"left_children":[1,3,5,7,9,11,13,15,17,19,21,23,25,27,29,-1,31,33,35,37,39,-1,41,43,45,47,49,-1,51,53,55,57,59,-1,61,63,-1,65,67,69,-1,71,73,75,-1,77,79,81,83,85,87,89,-1,91,93,95,97,-1,-1,-1,-1,-1,-1,-1,-1,-1,-1,-1,-1,-1,-1,-1,-1,-1,-1,-1,-1,-1,-1,-1,-1,-1,-1,-1,-1,-1,-1,-1,-1,-1,-1,-1,-1,-1,-1,-1,-1,-1,-1],"loss_changes":[3.8694333E2,2.79753E2,2.9296582E2,3.785367E1,8.844516E1,5.5787483E1,9.985394E1,1.4606018E1,1.652938E1,9.779793E0,3.9807304E1,2.1535071E2,5.1299133E1,1.3045654E0,5.5237183E1,0E0,1.4064594E1,9.082719E0,9.260559E0,8.871201E0,1.4698731E1,0E0,2.5127312E1,4.035797E0,3.979642E1,3.4497246E1,4.5195625E1,0E0,5.3551064E0,3.0365479E1,2.3568733E1,1.0945503E1,9.855221E0,0E0,6.99689E0,3.4205856E0,0E0,7.2519836E0,3.1731944E0,7.918659E0,0E0,2.153455E1,2.2500114E1,1.2385559E0,0E0,3.2539474E1,6.2549286E0,2.7793053E1,1.4497999E1,8.5783E0,2.2246376E1,1.8140419E1,0E0,2.4135471E1,3.2524872E0,1.9394814E1,2.3921246E1,0E0,0E0,0E0,0E0,0E0,0E0,0E0,0E0,0E0,0E0,0E0,0E0,0E0,0E0,0E0,0E0,0E0,0E0,0E0,0E0,0E0,0E0,0E0,0E0,0E0,0E0,0E0,0E0,0E0,0E0,0E0,0E0,0E0,0E0,0E0,0E0,0E0,0E0,0E0,0E0,0E0,0E0],"parents":[2147483647,0,0,1,1,2,2,3,3,4,4,5,5,6,6,7,7,8,8,9,9,10,10,11,11,12,12,13,13,14,14,16,16,17,17,18,18,19,19,20,20,22,22,23,23,24,24,25,25,26,26,28,28,29,29,30,30,31,31,32,32,34,34,35,35,37,37,38,38,39,39,41,41,42,42,43,43,45,45,46,46,47,47,48,48,49,49,50,50,51,51,53,53,54,54,55,55,56,56],"right_children":[2,4,6,8,10,12,14,16,18,20,22,24,26,28,30,-1,32,34,36,38,40,-1,42,44,46,48,50,-1,52,54,56,58,60,-1,62,64,-1,66,68,70,-1,72,74,76,-1,78,80,82,84,86,88,90,-1,92,94,96,98,-1,-1,-1,-1,-1,-1,-1,-1,-1,-1,-1,-1,-1,-1,-1,-1,-1,-1,-1,-1,-1,-1,-1,-1,-1,-1,-1,-1,-1,-1,-1,-1,-1,-1,-1,-1,-1,-1,-1,-1,-1,-1],"split_conditions":[3.3333332E1,2.1052632E-1,1E2,2E1,1.2857143E0,2E1,9.661836E-1,6.3796402E1,1.9736842E0,4.968944E0,1.3893261E0,1.0666667E0,6.6666664E1,2.8E0,2.357143E0,-1.836615E-2,2.625E0,2E1,7.1469E1,6.695464E0,6.3333332E1,-1.813508E-2,1.8004228E0,6.941956E1,2.857143E0,7.209821E1,2.1052632E-1,1.8338319E-2,1E0,5.590631E1,3.846154E1,4.4927536E1,5.7182625E1,9.031149E-3,5.965909E0,7.5514874E0,4.205376E-3,8.333333E-1,8.058608E0,1.2E0,1.4014176E-2,4E0,3.065134E0,1.6981133E1,1.1676756E-3,1.754386E0,1.2727273E0,1.7864647E0,1.6923077E0,1.8902555E0,6.338028E0,3.6666668E1,1.7522614E-2,5.376344E0,1E0,1.4319808E0,2.771855E0,-1.6214106E-2,-2.2006386E-3,-1.1218971E-2,1.4269672E-2,-2.4141807E-3,-1.0457648E-2,-1.5634935E-2,-0E0,-5.267489E-3,-1.5729142E-2,3.7509429E-3,-1.0530511E-2,-1.602404E-2,4.1936515E-3,-3.8001519E-3,-1.7139362E-2,-2.6387833E-3,-5.0580566E-4,4.7115525E-3,1.8060667E-2,1.1088449E-2,-1.9585975E-3,-3.6682896E-3,1.5019717E-2,-8.848234E-4,6.200092E-4,7.414815E-4,-5.0444244E-3,1.4626324E-2,6.3412455E-3,1.2139344E-3,4.40607E-3,-9.126117E-3,1.6225478E-2,9.393732E-3,-1.9897693E-3,9.5582183E-4,1.6007336E-2,-3.4779196E-3,9.536041E-3,6.323532E-3,-3.070349E-3],"split_indices":[2,9,2,2,8,13,9,0,20,20,4,19,2,19,19,0,19,13,11,21,14,0,4,11,19,11,9,0,23,0,18,18,11,0,21,21,0,21,21,8,0,23,20,18,0,21,8,4,8,4,10,14,0,20,23,9,20,0,0,0,0,0,0,0,0,0,0,0,0,0,0,0,0,0,0,0,0,0,0,0,0,0,0,0,0,0,0,0,0,0,0,0,0,0,0,0,0,0,0],"split_type":[0,0,0,0,0,0,0,0,0,0,0,0,0,0,0,0,0,0,0,0,0,0,0,0,0,0,0,0,0,0,0,0,0,0,0,0,0,0,0,0,0,0,0,0,0,0,0,0,0,0,0,0,0,0,0,0,0,0,0,0,0,0,0,0,0,0,0,0,0,0,0,0,0,0,0,0,0,0,0,0,0,0,0,0,0,0,0,0,0,0,0,0,0,0,0,0,0,0,0],"sum_hessian":[1.1764313E4,2.728147E3,9.036167E3,2.3551526E2,2.4926318E3,8.5627705E3,4.7339612E2,1.5180904E2,8.3706215E1,8.417355E1,2.4084583E3,3.7774976E2,8.185021E3,1.0368511E2,3.69711E2,1.1683944E2,3.4969593E1,5.0725304E1,3.2980915E1,7.418172E1,9.991842E0,1.3990014E1,2.3944683E3,9.246381E1,2.8528595E2,6.4917744E3,1.6932467E3,8.0497215E1,2.3187899E1,1.7440535E2,1.9530563E2,3.0475367E1,4.494225E0,3.7487247E0,4.6976578E1,3.0731045E1,2.2498698E0,6.893268E1,5.2490377E0,7.2439113E0,2.747931E0,3.3182126E2,2.062647E3,9.071603E1,1.7477878E0,2.655765E2,1.9709442E1,6.255373E3,2.3640123E2,5.5933685E1,1.6373131E3,9.980766E0,1.3207133E1,1.0783681E2,6.656854E1,7.216032E1,1.23145325E2,2.248234E1,7.9930263E0,1.4984312E0,2.9957938E0,2.9733854E1,1.7242725E1,2.923257E1,1.4984746E0,9.242257E0,5.969042E1,3.9994667E0,1.2495712E0,4.9955654E0,2.2483459E0,3.200791E2,1.174217E1,8.2506396E2,1.237583E3,1.747205E0,8.896882E1,1.9713057E1,2.4586345E2,1.4985363E0,1.8210905E1,1.6751326E3,4.58024E3,5.622595E1,1.801753E2,2.871112E1,2.7222565E1,1.378039E3,2.5927414E2,3.7485304E0,6.2322354E0,8.460285E1,2.3233952E1,1.7467138E0,6.482183E1,1.3492979E1,5.8667336E1,3.8699883E1,8.444544E1],"tree_param":{"num_deleted":"0","num_feature":"25","num_nodes":"99","size_leaf_vector":"1"}},{"base_weights":[-1.7499401E-3,-3.0140063E-1,1.2020284E-1,-8.176099E-1,-2.0924835E-1,7.833099E-2,8.333176E-1,-1.855883E-2,-5.479582E-1,-3.1008872E-1,-1.0962428E-1,4.781612E-1,6.076381E-2,1.3478012E0,4.4316164E-1,-2.5072095E-1,-1.045663E0,6.74612E-2,-3.460142E-1,-9.111255E-2,-1.0450897E0,1.7318805E0,3.1863093E-2,-3.5309203E-2,1.2744032E-1,1.0057844E0,1.8006645E-2,1.6524642E0,2.3613074E-1,1.3839966E0,-3.8623556E-1,-5.428943E-1,-1.3940766E0,-8.444914E-1,2.519624E-1,-4.003634E-1,-9.8890126E-2,-1.3799359E-1,2.6953638E-1,-1.2438365E0,-0E0,1.7619579E0,3.9022665E-3,-4.658843E-1,3.741092E-1,-2.8219932E-1,3.3466637E-2,1.5938707E-1,-3.298899E-2,1.5672545E0,6.181695E-1,1.7234785E-2,-2.0282024E-3,5.8000386E-1,-1.4714164E-1,1.4968813E-2,-0E0,-1.7638244E-2,-3.1256697E-3,3.6317995E-3,-9.381042E-3,7.6359743E-3,-1.4862629E-2,-1.3388493E-2,1.6042895E-3,1.6223378E-2,9.623259E-4,-2.0911195E-3,-5.1641082E-3,3.0844265E-3,-3.3056706E-3,-1.835561E-3,1.5957286E-3,3.3237408E-3,-1.5695782E-2,-1.5107883E-2,-3.5253598E-3,1.11413635E-2,-7.1598915E-3,3.2576344E-3,1.782893E-2,7.840459E-3,-7.6223146E-3,1.6525423E-2,2.5923987E-4,6.6710776E-4,-3.8227132E-3,7.670655E-4,-1.7504967E-3,1.1640462E-3,3.8934737E-3,-6.732861E-3,2.61094E-4,3.7052354E-3,1.6177667E-2,1.4092489E-2,2.9248479E-3,7.574007E-3,-6.4840047E-3,5.2112998E-3,-3.497789E-3],"categories":[],"categories_nodes":[],"categories_segments":[],"categories_sizes":[],"default_left":[0,0,0,0,0,0,0,0,0,0,0,0,0,0,0,0,0,0,0,0,0,0,0,0,0,0,0,0,0,0,0,0,0,0,0,0,0,0,0,0,0,0,0,0,0,0,0,0,0,0,0,0,0,0,0,0,0,0,0,0,0,0,0,0,0,0,0,0,0,0,0,0,0,0,0,0,0,0,0,0,0,0,0,0,0,0,0,0,0,0,0,0,0,0,0,0,0,0,0,0,0],"id":6,"left_children":[1,3,5,7,9,11,13,-1,15,17,19,21,23,25,27,29,31,33,35,37,39,41,43,45,47,49,-1,51,53,55,57,59,61,63,65,67,69,71,73,75,77,79,-1,81,83,85,87,89,91,93,95,-1,-1,97,99,-1,-1,-1,-1,-1,-1,-1,-1,-1,-1,-1,-1,-1,-1,-1,-1,-1,-1,-1,-1,-1,-1,-1,-1,-1,-1,-1,-1,-1,-1,-1,-1,-1,-1,-1,-1,-1,-1,-1,-1,-1,-1,-1,-1,-1,-1],"loss_changes":[4.2528464E2,1.5986777E2,2.4680826E2,1.4136844E2,2.8636108E1,5.479779E1,9.1252106E1,0E0,5.9655045E1,1.9302017E1,2.4723022E1,1.8355386E2,4.7967476E1,2.8441284E1,6.510142E1,5.7050392E1,2.555777E1,2.1002611E1,1.7322174E1,2.3914293E1,5.661228E0,2.573761E0,4.161352E1,5.2113617E1,2.2670708E1,2.3775612E1,0E0,5.5226974E0,2.98134E1,3.0556145E0,2.3277039E1,2.3207825E1,1.8836288E1,1.0760001E1,2.1850082E1,2.339E1,2.2315908E1,1.6997335E1,1.91935E1,4.810791E0,5.1504326E0,1.7311401E0,0E0,3.7436897E1,6.426654E1,2.340424E1,2.1637295E1,3.6343407E1,2.786838E1,1.9877853E0,1.7352928E1,0E0,0E0,2.6446358E1,1.4678253E1,0E0,0E0,0E0,0E0,0E0,0E0,0E0,0E0,0E0,0E0,0E0,0E0,0E0,0E0,0E0,0E0,0E0,0E0,0E0,0E0,0E0,0E0,0E0,0E0,0E0,0E0,0E0,0E0,0E0,0E0,0E0,0E0,0E0,0E0,0E0,0E0,0E0,0E0,0E0,0E0,0E0,0E0,0E0,0E0,0E0,0E0],"parents":[2147483647,0,0,1,1,2,2,3,3,4,4,5,5,6,6,8,8,9,9,10,10,11,11,12,12,13,13,14,14,15,15,16,16,17,17,18,18,19,19,20,20,21,21,22,22,23,23,24,24,25,25,27,27,28,28,29,29,30,30,31,31,32,32,33,33,34,34,35,35,36,36,37,37,38,38,39,39,40,40,41,41,43,43,44,44,45,45,46,46,47,47,48,48,49,49,50,50,53,53,54,54],"right_children":[2,4,6,8,10,12,14,-1,16,18,20,22,24,26,28,30,32,34,36,38,40,42,44,46,48,50,-1,52,54,56,58,60,62,64,66,68,70,72,74,76,78,80,-1,82,84,86,88,90,92,94,96,-1,-1,98,100,-1,-1,-1,-1,-1,-1,-1,-1,-1,-1,-1,-1,-1,-1,-1,-1,-1,-1,-1,-1,-1,-1,-1,-1,-1,-1,-1,-1,-1,-1,-1,-1,-1,-1,-1,-1,-1,-1,-1,-1,-1,-1,-1,-1,-1,-1],"split_conditions":[3.6666668E1,1.3333333E1,1E2,1.0666667E0,3.2994924E0,2E1,2.4444444E0,-1.855883E-2,3E0,1.6372864E0,3.8E0,1.0666667E0,5.6666668E1,3.8636364E1,1.7792362E0,2.3015873E1,1.5E0,5.011599E1,8E1,6.695464E0,1.83474E0,7.141778E1,1.8571428E0,2E0,3.0666666E0,2.771855E0,1.8006645E-2,6.735407E1,4.0169134E0,2.4285715E0,1.8333334E1,1E0,4.036866E1,2.75E0,2.2222221E1,5.411642E1,1.8617953E0,3.090909E0,5E1,4.2105263E1,3.9473682E1,1.6981133E1,3.9022665E-3,2.5352112E1,3.1363636E1,2.4896266E0,4.716981E1,8.3333336E1,3.6764706E1,1.4716972E0,2.6666666E1,1.7234785E-2,-2.0282024E-3,4.060606E1,2.9736841E1,1.4968813E-2,-0E0,-1.7638244E-2,-3.1256697E-3,3.6317995E-3,-9.381042E-3,7.6359743E-3,-1.4862629E-2,-1.3388493E-2,1.6042895E-3,1.6223378E-2,9.623259E-4,-2.0911195E-3,-5.1641082E-3,3.0844265E-3,-3.3056706E-3,-1.835561E-3,1.5957286E-3,3.3237408E-3,-1.5695782E-2,-1.5107883E-2,-3.5253598E-3,1.11413635E-2,-7.1598915E-3,3.2576344E-3,1.782893E-2,7.840459E-3,-7.6223146E-3,1.6525423E-2,2.5923987E-4,6.6710776E-4,-3.8227132E-3,7.670655E-4,-1.7504967E-3,1.1640462E-3,3.8934737E-3,-6.732861E-3,2.61094E-4,3.7052354E-3,1.6177667E-2,1.4092489E-2,2.9248479E-3,7.574007E-3,-6.4840047E-3,5.2112998E-3,-3.497789E-3],"split_indices":[3,3,3,8,20,13,8,0,23,15,19,19,3,7,4,16,8,1,13,21,15,12,19,19,8,20,0,12,20,8,7,24,12,8,14,12,15,8,16,7,7,18,0,7,16,21,7,3,7,15,14,0,0,16,16,0,0,0,0,0,0,0,0,0,0,0,0,0,0,0,0,0,0,0,0,0,0,0,0,0,0,0,0,0,0,0,0,0,0,0,0,0,0,0,0,0,0,0,0,0,0],"split_type":[0,0,0,0,0,0,0,0,0,0,0,0,0,0,0,0,0,0,0,0,0,0,0,0,0,0,0,0,0,0,0,0,0,0,0,0,0,0,0,0,0,0,0,0,0,0,0,0,0,0,0,0,0,0,0,0,0,0,0,0,0,0,0,0,0,0,0,0,0,0,0,0,0,0,0,0,0,0,0,0,0,0,0,0,0,0,0,0,0,0,0,0,0,0,0,0,0,0,0,0,0],"sum_hessian":[1.163536E4,3.3654492E3,8.269911E3,5.084286E2,2.8570208E3,7.8124395E3,4.5747177E2,1.0353227E2,4.0489633E2,1.4182942E3,1.4387266E3,3.2746243E2,7.484977E3,1.961308E2,2.6134097E2,2.545686E2,1.5032773E2,1.2291263E2,1.2953816E3,1.4119893E3,2.6737265E1,8.515223E1,2.4231021E2,3.0660828E3,4.4188945E3,1.1370153E2,8.242926E1,3.711006E1,2.242309E2,1.872595E1,2.3584265E2,6.2698124E1,8.76296E1,1.9989475E1,1.0292316E2,1.061012E3,2.3436961E2,1.25035E3,1.6163931E2,2.2240597E1,4.496667E0,8.290583E1,2.2463963E0,9.846039E1,1.4384982E2,6.676646E2,2.3984182E3,3.6856E3,7.332942E2,4.5088455E1,6.8613075E1,3.586231E1,1.2477536E0,1.1805723E2,1.06173676E2,1.7226652E1,1.4992981E0,1.0738303E1,2.2510434E2,1.8989666E1,4.3708458E1,3.2476842E0,8.438192E1,1.3242306E1,6.7471685E0,9.476145E0,9.3447014E1,4.0206097E2,6.58951E2,8.4695526E1,1.4967409E2,1.0849454E3,1.6540454E2,1.5714377E2,4.4955406E0,1.6493444E1,5.7471533E0,1.4977081E0,2.998959E0,1.4977052E0,8.140813E1,1.8490059E1,7.997033E1,2.9928362E1,1.13921455E2,1.4866493E2,5.189997E2,1.9874032E3,4.1101498E2,3.1068352E3,5.787649E2,6.122762E1,6.720666E2,2.2437928E0,4.284466E1,1.8949986E1,4.966309E1,1.03565865E2,1.4491363E1,2.4223257E1,8.195042E1],"tree_param":{"num_deleted":"0","num_feature":"25","num_nodes":"101","size_leaf_vector":"1"}},{"base_weights":[1.2684499E-2,-1.6360506E0,8.1330585E-1,-1.9530252E0,-7.325734E-1,1.5273494E-1,1.9012104E0,-1.955381E-2,-1.2704803E-2,-1.0145799E0,-6.1787087E-1,1.1078047E-2,7.450872E-1,1.1717812E0,1.9144822E-2,-1.0483191E0,-2.1703538E-1,-4.447877E-1,-6.822245E-1,-2.560421E-1,2.458977E-2,6.942111E-1,1.0409045E0,4.2421943E-1,1.2551744E0,-1.109239E0,-5.663308E-1,4.2862594E-3,-4.013701E-1,-3.1450573E-1,-8.298039E-1,-8.1869686E-1,-6.142891E-1,-4.3010363E-1,-1.3130832E-1,4.349326E-2,-8.768347E-2,6.199105E-1,9.232537E-1,7.3522705E-1,1.1733707E0,-0E0,5.4769837E-3,1.3440834E0,7.717031E-3,-8.909476E-3,-1.2583128E-2,-7.952733E-3,-1.0543609E-3,-5.5357562E-3,-0E0,1.1501659E-2,-3.3799442E-3,-2.3106681E-3,-1.0555614E-2,-1.2787099E-2,-7.3715327E-3,-1.9695533E-3,-6.518929E-3,-1.05815285E-4,-5.857272E-3,-2.128782E-3,5.3191045E-3,6.672966E-5,8.890183E-4,8.001528E-3,-1.1200708E-3,3.9867964E-3,6.819654E-3,1.6565831E-2,8.9092655E-3,8.12834E-3,-4.6311915E-3,3.3357234E-3,1.2631942E-2,8.949327E-3,1.4496477E-2],"categories":[],"categories_nodes":[],"categories_segments":[],"categories_sizes":[],"default_left":[0,0,0,0,0,0,0,0,0,0,0,0,0,0,0,0,0,0,0,0,0,0,0,0,0,0,0,0,0,0,0,0,0,0,0,0,0,0,0,0,0,0,0,0,0,0,0,0,0,0,0,0,0,0,0,0,0,0,0,0,0,0,0,0,0,0,0,0,0,0,0,0,0,0,0,0,0],"id":7,"left_children":[1,3,5,7,9,11,13,-1,-1,15,17,19,21,23,-1,25,27,29,31,33,35,37,39,41,43,45,47,-1,49,51,53,55,57,59,61,63,65,67,69,71,73,-1,-1,75,-1,-1,-1,-1,-1,-1,-1,-1,-1,-1,-1,-1,-1,-1,-1,-1,-1,-1,-1,-1,-1,-1,-1,-1,-1,-1,-1,-1,-1,-1,-1,-1,-1],"loss_changes":[1.5464064E4,1.0949316E3,5.6665767E3,1.75E0,3.1434631E1,4.117279E2,2.6289062E1,0E0,0E0,7.348114E0,7.503235E0,1.428207E1,1.3356201E1,2.7874908E0,0E0,7.2564697E0,1.7163892E0,9.455959E0,4.1376953E0,4.0229416E0,8.005474E0,1.3080383E1,4.480789E0,4.198805E-1,8.876419E-1,6.5467224E0,3.3081121E0,0E0,6.429943E-1,5.407751E0,6.216854E0,5.1575546E0,5.263611E0,5.0750723E0,6.180234E0,5.3904057E0,1.17509575E1,8.07634E0,2.924118E0,4.524681E0,6.468155E0,0E0,0E0,3.865509E-1,0E0,0E0,0E0,0E0,0E0,0E0,0E0,0E0,0E0,0E0,0E0,0E0,0E0,0E0,0E0,0E0,0E0,0E0,0E0,0E0,0E0,0E0,0E0,0E0,0E0,0E0,0E0,0E0,0E0,0E0,0E0,0E0,0E0],"parents":[2147483647,0,0,1,1,2,2,3,3,4,4,5,5,6,6,9,9,10,10,11,11,12,12,13,13,15,15,16,16,17,17,18,18,19,19,20,20,21,21,22,22,23,23,24,24,25,25,26,26,28,28,29,29,30,30,31,31,32,32,33,33,34,34,35,35,36,36,37,37,38,38,39,39,40,40,43,43],"right_children":[2,4,6,8,10,12,14,-1,-1,16,18,20,22,24,-1,26,28,30,32,34,36,38,40,42,44,46,48,-1,50,52,54,56,58,60,62,64,66,68,70,72,74,-1,-1,76,-1,-1,-1,-1,-1,-1,-1,-1,-1,-1,-1,-1,-1,-1,-1,-1,-1,-1,-1,-1,-1,-1,-1,-1,-1,-1,-1,-1,-1,-1,-1,-1,-1],"split_conditions":[3.878094E-1,1.4396435E-1,8.136763E-1,1.21951655E-1,2.7211007E-1,6.2245935E-1,1E0,-1.955381E-2,-1.2704803E-2,4.3666668E1,5.39694E1,4.639591E-1,6.25E0,1.7400694E0,1.9144822E-2,4.3666668E1,3.3030304E1,2.001803E0,3.2786884E0,6.2630417E1,6.398104E0,7.381919E-1,1.8246454E0,3.8637993E1,6.743935E1,3.125E1,5E1,4.2862594E-3,3.5714287E1,1.5783658E0,1.1061947E0,5.5873554E1,1.6991092E0,2.9285715E1,4.6753244E0,3.4529507E1,1.5327003E0,1.7864647E0,1.6214442E0,6.779661E0,2.4464831E0,-0E0,5.4769837E-3,3.0769231E0,7.717031E-3,-8.909476E-3,-1.2583128E-2,-7.952733E-3,-1.0543609E-3,-5.5357562E-3,-0E0,1.1501659E-2,-3.3799442E-3,-2.3106681E-3,-1.0555614E-2,-1.2787099E-2,-7.3715327E-3,-1.9695533E-3,-6.518929E-3,-1.05815285E-4,-5.857272E-3,-2.128782E-3,5.3191045E-3,6.672966E-5,8.890183E-4,8.001528E-3,-1.1200708E-3,3.9867964E-3,6.819654E-3,1.6565831E-2,8.9092655E-3,8.12834E-3,-4.6311915E-3,3.3357234E-3,1.2631942E-2,8.949327E-3,1.4496477E-2],"split_indices":[22,22,22,22,22,22,22,0,0,5,11,22,20,4,0,16,16,15,10,1,21,22,4,1,11,16,13,0,16,15,20,11,15,5,9,5,4,4,15,9,10,0,0,20,0,0,0,0,0,0,0,0,0,0,0,0,0,0,0,0,0,0,0,0,0,0,0,0,0,0,0,0,0,0,0,0,0],"split_type":[0,0,0,0,0,0,0,0,0,0,0,0,0,0,0,0,0,0,0,0,0,0,0,0,0,0,0,0,0,0,0,0,0,0,0,0,0,0,0,0,0,0,0,0,0,0,0,0,0,0,0,0,0,0,0,0,0,0,0,0,0,0,0,0,0,0,0,0,0,0,0,0,0,0,0,0,0],"sum_hessian":[1.1713144E4,3.8282947E3,7.8848496E3,2.8330713E3,9.9522327E2,4.9067344E3,2.9781152E3,2.8213223E3,1.1749004E1,2.852336E2,7.099897E2,3.9607388E3,9.4599536E2,5.494817E1,2.923167E3,2.732349E2,1.1998701E1,1.9499754E2,5.149921E2,1.894791E2,3.7712598E3,8.103178E2,1.3567754E2,6.245726E0,4.8702442E1,2.412356E2,3.1999304E1,2.249994E0,9.748708E0,1.472482E2,4.774934E1,1.6699692E2,3.479952E2,7.774243E1,1.1173666E2,3.2290813E3,5.421784E2,6.1496747E2,1.9535036E2,4.3228683E1,9.244885E1,1.4990962E0,4.7466297E0,3.9459114E1,9.243328E0,1.0099469E2,1.402409E2,2.0749723E1,1.124958E1,6.7488017E0,2.9999056E0,1.4998338E0,1.4574837E2,1.3749755E1,3.3999584E1,2.2749884E1,1.4424702E2,2.9499657E1,3.1849557E2,2.149849E1,5.6243946E1,1.0023808E2,1.1498573E1,1.7850186E3,1.4440627E3,1.3497537E1,5.286809E2,1.3669067E2,4.7827676E2,5.9959683E0,1.8935439E2,4.0979904E1,2.2487774E0,9.495769E0,8.295309E1,9.493111E0,2.9966003E1],"tree_param":{"num_deleted":"0","num_feature":"25","num_nodes":"77","size_leaf_vector":"1"}},{"base_weights":[8.413272E-4,-8.2090056E-1,1.5756428E0,-1.9075652E0,-1.5611519E-1,6.8380797E-1,1.8972607E-2,-1.9367766E-2,-1.1059513E0,-7.230237E-1,-2.4181066E-2,5.3359574E-1,9.1015804E-1,3.128249E-1,-1.1625795E0,-9.668666E-1,-6.456405E-1,-1.1094847E-2,-1.6972898E-1,6.3831437E-1,4.1757005E-1,8.6247534E-1,1.2993288E0,-4.086664E-3,1.16547765E-2,-8.4794545E-1,-1.2832699E0,-1.051551E0,-4.022689E-1,-6.254296E-1,-1.0065697E0,-1.904903E-2,3.722742E-1,-5.940827E-2,-3.2190418E-1,6.875026E-1,5.875358E-2,-3.310599E-1,4.553226E-1,1.143241E0,8.106615E-1,1.76949E-1,1.444291E0,-0E0,-9.406704E-3,-1.3673928E-2,-8.452688E-3,-1.0813981E-2,2.9228122E-3,4.4943052E-3,-4.919249E-3,-7.703483E-3,-5.7333694E-3,-1.10274535E-2,-0E0,-8.451643E-4,1.0244425E-4,7.6046046E-3,1.2731509E-3,1.0512341E-2,-9.323985E-4,-6.0635307E-3,2.8515857E-4,9.059136E-3,5.7779136E-3,-1.3923524E-2,2.4717348E-3,3.0110548E-3,-9.945505E-3,2.45621E-3,5.801705E-3,9.810875E-3,1.3483253E-2,8.511481E-3,4.567475E-3,-9.7995435E-5,3.831946E-3,6.6780206E-3,1.687774E-2],"categories":[],"categories_nodes":[],"categories_segments":[],"categories_sizes":[],"default_left":[0,0,0,0,0,0,0,0,0,0,0,0,0,0,0,0,0,0,0,0,0,0,0,0,0,0,0,0,0,0,0,0,0,0,0,0,0,0,0,0,0,0,0,0,0,0,0,0,0,0,0,0,0,0,0,0,0,0,0,0,0,0,0,0,0,0,0,0,0,0,0,0,0,0,0,0,0,0,0],"id":8,"left_children":[1,3,5,7,9,11,-1,-1,13,15,17,19,21,23,25,27,29,31,33,35,37,39,41,-1,-1,43,45,47,49,51,53,55,57,59,61,63,65,67,69,71,73,75,77,-1,-1,-1,-1,-1,-1,-1,-1,-1,-1,-1,-1,-1,-1,-1,-1,-1,-1,-1,-1,-1,-1,-1,-1,-1,-1,-1,-1,-1,-1,-1,-1,-1,-1,-1,-1],"loss_changes":[1.5130588E4,5.549682E3,1.148375E3,6.5836914E1,3.565255E2,3.5554474E1,0E0,0E0,8.882858E0,1.6196228E1,7.349209E0,7.4329224E0,6.5097656E0,3.4737108E0,2.542694E0,9.686478E0,4.2149353E0,1.0801771E1,5.2891665E0,9.443619E0,8.870529E0,4.404358E0,6.733139E0,0E0,0E0,2.5275135E0,1.2384644E0,7.844574E0,2.4968667E0,4.353485E0,3.350544E0,6.6831756E0,6.6592455E0,6.999746E0,1.335559E1,6.728134E0,7.7441807E0,6.7620287E0,7.467987E0,3.2138824E-1,4.1293793E0,2.8165412E-1,5.954918E0,0E0,0E0,0E0,0E0,0E0,0E0,0E0,0E0,0E0,0E0,0E0,0E0,0E0,0E0,0E0,0E0,0E0,0E0,0E0,0E0,0E0,0E0,0E0,0E0,0E0,0E0,0E0,0E0,0E0,0E0,0E0,0E0,0E0,0E0,0E0,0E0],"parents":[2147483647,0,0,1,1,2,2,3,3,4,4,5,5,8,8,9,9,10,10,11,11,12,12,13,13,14,14,15,15,16,16,17,17,18,18,19,19,20,20,21,21,22,22,25,25,26,26,27,27,28,28,29,29,30,30,31,31,32,32,33,33,34,34,35,35,36,36,37,37,38,38,39,39,40,40,41,41,42,42],"right_children":[2,4,6,8,10,12,-1,-1,14,16,18,20,22,24,26,28,30,32,34,36,38,40,42,-1,-1,44,46,48,50,52,54,56,58,60,62,64,66,68,70,72,74,76,78,-1,-1,-1,-1,-1,-1,-1,-1,-1,-1,-1,-1,-1,-1,-1,-1,-1,-1,-1,-1,-1,-1,-1,-1,-1,-1,-1,-1,-1,-1,-1,-1,-1,-1,-1,-1],"split_conditions":[5.931619E-1,2.111594E-1,1E0,1.21951655E-1,3.9588705E-1,6.8877035E-1,1.8972607E-2,-1.9367766E-2,2E1,2.9692274E-1,6.941956E1,3.3333332E1,7.5098815E0,5.299816E1,2.5E1,6.821429E1,4.2692307E1,5.280974E-1,3.5714287E1,4.3666668E1,1.661584E0,2.452381E1,5.153777E1,-4.086664E-3,1.16547765E-2,5.1786842E1,6.6666664E1,4.3666668E1,2.5E1,2.5E1,7.696064E1,2.247191E0,2.6086956E1,8.333333E-1,3.6607143E1,2.1406727E0,1.3550136E0,2.8169014E0,5.5128212E1,3.5E1,6.779661E0,5.7232292E1,5.1900135E1,-0E0,-9.406704E-3,-1.3673928E-2,-8.452688E-3,-1.0813981E-2,2.9228122E-3,4.4943052E-3,-4.919249E-3,-7.703483E-3,-5.7333694E-3,-1.10274535E-2,-0E0,-8.451643E-4,1.0244425E-4,7.6046046E-3,1.2731509E-3,1.0512341E-2,-9.323985E-4,-6.0635307E-3,2.8515857E-4,9.059136E-3,5.7779136E-3,-1.3923524E-2,2.4717348E-3,3.0110548E-3,-9.945505E-3,2.45621E-3,5.801705E-3,9.810875E-3,1.3483253E-2,8.511481E-3,4.567475E-3,-9.7995435E-5,3.831946E-3,6.6780206E-3,1.687774E-2],"split_indices":[22,22,22,22,22,22,0,0,5,22,12,16,20,12,13,12,5,22,5,5,15,16,12,0,0,12,13,5,2,2,12,9,5,21,16,20,9,9,1,5,9,1,1,0,0,0,0,0,0,0,0,0,0,0,0,0,0,0,0,0,0,0,0,0,0,0,0,0,0,0,0,0,0,0,0,0,0,0,0],"split_type":[0,0,0,0,0,0,0,0,0,0,0,0,0,0,0,0,0,0,0,0,0,0,0,0,0,0,0,0,0,0,0,0,0,0,0,0,0,0,0,0,0,0,0,0,0,0,0,0,0,0,0,0,0,0,0,0,0,0,0,0,0,0,0,0,0,0,0,0,0,0,0,0,0,0,0,0,0,0,0],"sum_hessian":[1.1690097E4,7.6819956E3,4.008101E3,2.9150334E3,4.766962E3,1.0632325E3,2.9448687E3,2.8110557E3,1.03977715E2,8.9896326E2,3.8679988E3,6.413884E2,4.218441E2,3.7493916E0,1.0022832E2,2.1347955E2,6.854837E2,3.5505334E3,3.174654E2,3.3430188E2,3.0708655E2,3.7889374E2,4.295035E1,2.2494228E0,1.4999688E0,3.0242334E1,6.9985985E1,1.8473187E2,2.874767E1,6.5198456E2,3.349919E1,3.4795505E3,7.098294E1,1.8522934E2,1.3223604E2,3.0781808E2,2.6483807E1,1.4242426E1,2.9284412E2,5.5446945E1,3.234468E2,5.245691E0,3.7704662E1,2.9993503E0,2.7242985E1,5.6738518E1,1.3247468E1,1.8098189E2,3.7499828E0,2.2495503E0,2.649812E1,1.6824072E2,4.837438E2,3.0499203E1,2.999987E0,1.0761072E3,2.4034434E3,2.6490625E1,4.4492317E1,4.499184E0,1.8073016E2,7.274293E1,5.949311E1,1.00191E2,2.0762708E2,2.2482982E0,2.4235508E1,7.4958944E0,6.746531E0,1.1069046E2,1.8215364E2,3.4466682E1,2.098026E1,2.8872952E2,3.4717266E1,2.9983828E0,2.2473083E0,9.992169E0,2.7712492E1],"tree_param":{"num_deleted":"0","num_feature":"25","num_nodes":"79","size_leaf_vector":"1"}},{"base_weights":[4.151359E-3,-8.0734193E-1,1.5599129E0,-1.9132531E0,-1.7055045E-1,6.5186805E-1,1.8726602E0,-1.9186033E-2,-1.2092944E0,-7.0595556E-1,-3.504436E-2,5.771342E-1,8.975032E-1,1.3244714E0,1.8804342E-2,-1.3649769E0,-2.700334E-1,-9.7770524E-1,-6.262581E-1,-2.6144105E-1,-1.8182991E-2,-2.1746602E-2,5.954303E-1,7.980945E-1,1.084076E0,1.3623458E0,3.8518156E-3,-1.6118796E-3,-1.4304357E-2,-0E0,-4.10218E-3,-5.6200194E-1,-1.0854303E0,-3.1290874E-1,-6.51793E-1,6.044289E-1,-3.1807283E-1,-2.2480012E-1,-1.5161455E-3,1.030126E-1,-1.1881378E-2,6.3440293E-1,2.9000524E-1,9.0164113E-1,6.228997E-1,9.033222E-1,1.4175489E0,1.4320515E0,7.85053E-3,7.413695E-3,-6.6820513E-3,-1.1086282E-2,4.4527734E-3,-4.1586035E-3,1.1204372E-3,-5.6080306E-3,-7.161624E-3,1.5456176E-2,2.0633317E-3,-1.4636433E-2,-2.7311454E-3,-2.7434796E-3,4.778599E-3,-1.14151E-3,1.7708892E-4,4.800571E-3,-9.779535E-4,6.4870245E-3,-1.1184643E-3,5.941016E-3,-6.198281E-4,1.0637873E-2,7.7611124E-3,8.5706E-3,4.1926E-3,-2.0132768E-4,9.594683E-3,1.6898802E-2,7.795384E-3,8.970032E-3,1.5185068E-2],"categories":[],"categories_nodes":[],"categories_segments":[],"categories_sizes":[],"default_left":[0,0,0,0,0,0,0,0,0,0,0,0,0,0,0,0,0,0,0,0,0,0,0,0,0,0,0,0,0,0,0,0,0,0,0,0,0,0,0,0,0,0,0,0,0,0,0,0,0,0,0,0,0,0,0,0,0,0,0,0,0,0,0,0,0,0,0,0,0,0,0,0,0,0,0,0,0,0,0,0,0],"id":9,"left_children":[1,3,5,7,9,11,13,-1,15,17,19,21,23,25,-1,27,29,31,33,35,37,39,41,43,45,47,-1,-1,-1,-1,-1,49,51,53,55,57,59,61,63,65,-1,67,69,71,73,75,77,79,-1,-1,-1,-1,-1,-1,-1,-1,-1,-1,-1,-1,-1,-1,-1,-1,-1,-1,-1,-1,-1,-1,-1,-1,-1,-1,-1,-1,-1,-1,-1,-1,-1],"loss_changes":[1.4738533E4,5.402496E3,1.1350273E3,7.9248047E0,3.5321548E2,1.81846E1,9.87207E0,0E0,2.9760437E0,2.05253E1,1.4807303E1,8.73114E0,3.3500366E0,9.076462E-1,0E0,1.2053108E0,2.005291E-1,9.119125E0,5.8082275E0,1.3353054E1,1.2441461E1,3.7574797E0,8.85553E0,2.170929E0,3.2726974E0,3.8153076E-1,0E0,0E0,0E0,0E0,0E0,7.0956287E0,6.745758E0,2.6907735E0,3.598114E0,5.7813325E0,1.2468523E1,9.501208E0,7.2675457E0,1.8065726E0,0E0,7.37442E0,9.610937E0,9.721222E-1,2.5014706E0,2.935585E0,2.9453468E0,1.04911804E-1,0E0,0E0,0E0,0E0,0E0,0E0,0E0,0E0,0E0,0E0,0E0,0E0,0E0,0E0,0E0,0E0,0E0,0E0,0E0,0E0,0E0,0E0,0E0,0E0,0E0,0E0,0E0,0E0,0E0,0E0,0E0,0E0,0E0],"parents":[2147483647,0,0,1,1,2,2,3,3,4,4,5,5,6,6,8,8,9,9,10,10,11,11,12,12,13,13,15,15,16,16,17,17,18,18,19,19,20,20,21,21,22,22,23,23,24,24,25,25,31,31,32,32,33,33,34,34,35,35,36,36,37,37,38,38,39,39,41,41,42,42,43,43,44,44,45,45,46,46,47,47],"right_children":[2,4,6,8,10,12,14,-1,16,18,20,22,24,26,-1,28,30,32,34,36,38,40,42,44,46,48,-1,-1,-1,-1,-1,50,52,54,56,58,60,62,64,66,-1,68,70,72,74,76,78,80,-1,-1,-1,-1,-1,-1,-1,-1,-1,-1,-1,-1,-1,-1,-1,-1,-1,-1,-1,-1,-1,-1,-1,-1,-1,-1,-1,-1,-1,-1,-1,-1,-1],"split_conditions":[5.931619E-1,1.6095126E-1,8.2565516E-1,1.21951655E-1,3.9588705E-1,7.3616385E-1,1E0,-1.9186033E-2,6.6666664E1,2.507653E-1,1.9178082E1,4.0776863E1,5.5555557E1,5.2884617E0,1.8804342E-2,4.575E1,5.635341E1,2.6666666E1,1.5333333E0,1.7006803E0,5E-1,7.034969E1,3.142857E0,4.3333332E1,6E1,6.3942818E1,3.8518156E-3,-1.6118796E-3,-1.4304357E-2,-0E0,-4.10218E-3,2.0231214E0,4.574074E1,5.732484E0,4.4444443E1,4.4444443E1,1.0666667E0,6.812569E1,8.9686096E-1,3.111111E1,-1.1881378E-2,7.246524E1,4.116223E0,3.3419023E0,3.2941177E0,2.1794872E1,8.020766E-1,5.0444973E1,7.85053E-3,7.413695E-3,-6.6820513E-3,-1.1086282E-2,4.4527734E-3,-4.1586035E-3,1.1204372E-3,-5.6080306E-3,-7.161624E-3,1.5456176E-2,2.0633317E-3,-1.4636433E-2,-2.7311454E-3,-2.7434796E-3,4.778599E-3,-1.14151E-3,1.7708892E-4,4.800571E-3,-9.779535E-4,6.4870245E-3,-1.1184643E-3,5.941016E-3,-6.198281E-4,1.0637873E-2,7.7611124E-3,8.5706E-3,4.1926E-3,-2.0132768E-4,9.594683E-3,1.6898802E-2,7.795384E-3,8.970032E-3,1.5185068E-2],"split_indices":[22,22,22,22,22,22,22,0,3,22,18,0,14,9,0,11,0,14,8,10,22,11,19,14,3,0,0,0,0,0,0,10,16,10,14,14,19,11,9,16,0,0,9,10,9,16,22,0,0,0,0,0,0,0,0,0,0,0,0,0,0,0,0,0,0,0,0,0,0,0,0,0,0,0,0,0,0,0,0,0,0],"split_type":[0,0,0,0,0,0,0,0,0,0,0,0,0,0,0,0,0,0,0,0,0,0,0,0,0,0,0,0,0,0,0,0,0,0,0,0,0,0,0,0,0,0,0,0,0,0,0,0,0,0,0,0,0,0,0,0,0,0,0,0,0,0,0,0,0,0,0,0,0,0,0,0,0,0,0,0,0,0,0,0,0],"sum_hessian":[1.1672121E4,7.6711997E3,4.000921E3,2.8023015E3,4.8688984E3,1.0258435E3,2.9750774E3,2.7793103E3,2.2991089E1,9.823877E2,3.8865107E3,7.894209E2,2.3642256E2,4.4176266E1,2.9309011E3,1.9242014E1,3.749075E0,2.1993594E2,7.624517E2,2.6797595E2,3.6185347E3,2.3234621E1,7.661863E2,1.5803363E2,7.838895E1,4.1928738E1,2.2475295E0,1.2497207E0,1.7992292E1,1.4995733E0,2.2495015E0,4.6734825E1,1.7320111E2,5.8744553E1,7.0370715E2,1.5748651E1,2.5222731E2,2.6872247E2,3.3498123E3,2.1735683E1,1.4989378E0,6.7823773E2,8.794856E1,9.6362495E1,6.1671127E1,5.3434376E1,2.495457E1,3.593578E1,5.992958E0,2.9996436E0,4.3735184E1,1.709514E2,2.2497244E0,4.7494865E1,1.1249686E1,2.9623166E2,4.074755E2,3.7497249E0,1.1998926E1,8.249296E0,2.4397801E2,2.5172412E2,1.6998362E1,4.8843768E2,2.8613745E3,7.243109E0,1.4492574E1,6.6574554E2,1.2492187E1,4.696763E1,4.0980938E1,3.8439465E1,5.7923035E1,2.6964981E1,3.4706146E1,2.9972856E0,5.0437088E1,1.6224022E1,8.730549E0,6.742194E0,2.9193584E1],"tree_param":{"num_deleted":"0","num_feature":"25","num_nodes":"81","size_leaf_vector":"1"}},{"base_weights":[-9.491871E-4,-6.1076034E-2,4.9499536E-1,-7.737764E-1,-2.4505787E-2,1.7698029E-2,4.2065477E-1,-1.3738142E0,-2.8939116E-1,-1.628816E-1,3.178042E-2,1.245784E0,3.5013613E-1,-1.8200047E-2,-1.1134013E0,1.0657009E0,-4.24084E-1,5.5795852E-2,-2.0019381E-1,4.4645658E-1,1.2957025E-2,1.6147172E0,9.813358E-1,7.1127445E-1,2.3724672E-1,-5.49188E-1,-1.6531535E0,1.4604307E0,-5.4347146E-1,-1.6461202E0,-2.9859248E-1,7.9524714E-1,-4.265938E-2,-4.5957005E-1,-1.5712827E-1,1.2148187E0,7.2360836E-2,-2.8966363E-3,2.565636E-1,3.7421286E-3,1.6808685E-2,4.5685267E-1,1.4321126E0,1.6172911E0,5.416344E-1,3.2607442E-1,-1.664235E-1,2.6084697E-3,-8.22487E-3,1.1247532E-2,-1.7278789E-2,1.6053088E-2,4.18908E-3,-1.2269799E-2,1.0182997E-2,1.8910805E-3,-1.761318E-2,-5.5960775E-3,2.9025174E-4,1.1235316E-2,-6.35946E-3,-1.689655E-3,3.9300937E-3,-5.6830314E-3,-6.9930893E-4,-4.138323E-3,-1.1807734E-3,1.6061561E-2,2.5699844E-3,-3.337395E-4,1.0268334E-2,-1.8062524E-4,1.6882154E-3,2.6049244E-4,4.590951E-3,1.734389E-4,1.4973888E-2,1.690086E-2,8.909885E-3,-1.585845E-3,1.7039081E-2,4.2856764E-3,1.3380949E-2,1.0826022E-2,2.826242E-3,1.3803317E-2,-2.740133E-3],"categories":[],"categories_nodes":[],"categories_segments":[],"categories_sizes":[],"default_left":[0,0,0,0,0,0,0,0,0,0,0,0,0,0,0,0,0,0,0,0,0,0,0,0,0,0,0,0,0,0,0,0,0,0,0,0,0,0,0,0,0,0,0,0,0,0,0,0,0,0,0,0,0,0,0,0,0,0,0,0,0,0,0,0,0,0,0,0,0,0,0,0,0,0,0,0,0,0,0,0,0,0,0,0,0,0,0],"id":10,"left_children":[1,3,5,7,9,-1,11,13,15,17,19,21,23,-1,25,27,29,31,33,35,37,39,41,43,45,47,49,51,53,55,57,59,61,63,65,67,69,71,73,-1,-1,75,77,79,81,83,85,-1,-1,-1,-1,-1,-1,-1,-1,-1,-1,-1,-1,-1,-1,-1,-1,-1,-1,-1,-1,-1,-1,-1,-1,-1,-1,-1,-1,-1,-1,-1,-1,-1,-1,-1,-1,-1,-1,-1,-1],"loss_changes":[3.4657172E2,2.7010434E2,1.18131165E2,1.4645444E2,7.683173E1,0E0,6.857764E1,2.3891449E1,5.1721058E1,2.3298698E1,5.467269E1,7.2388306E0,4.4448013E1,0E0,4.307898E1,1.7174932E1,3.8665012E1,3.040513E1,2.7089943E1,8.721333E1,2.5931772E1,2.215126E0,1.2617767E1,3.894156E1,3.0091347E1,1.6334406E1,1.728189E1,2.281002E0,7.3875175E0,5.4798164E0,2.0079361E1,2.3816807E1,2.0298016E1,1.4563255E1,2.0869263E1,3.6677063E1,2.0894941E1,1.6390852E1,1.9092907E1,0E0,0E0,1.257605E1,2.4306374E0,6.651703E0,1.9150589E1,2.2132782E1,2.5473764E1,0E0,0E0,0E0,0E0,0E0,0E0,0E0,0E0,0E0,0E0,0E0,0E0,0E0,0E0,0E0,0E0,0E0,0E0,0E0,0E0,0E0,0E0,0E0,0E0,0E0,0E0,0E0,0E0,0E0,0E0,0E0,0E0,0E0,0E0,0E0,0E0,0E0,0E0,0E0,0E0],"parents":[2147483647,0,0,1,1,2,2,3,3,4,4,6,6,7,7,8,8,9,9,10,10,11,11,12,12,14,14,15,15,16,16,17,17,18,18,19,19,20,20,21,21,22,22,23,23,24,24,25,25,26,26,27,27,28,28,29,29,30,30,31,31,32,32,33,33,34,34,35,35,36,36,37,37,38,38,41,41,42,42,43,43,44,44,45,45,46,46],"right_children":[2,4,6,8,10,-1,12,14,16,18,20,22,24,-1,26,28,30,32,34,36,38,40,42,44,46,48,50,52,54,56,58,60,62,64,66,68,70,72,74,-1,-1,76,78,80,82,84,86,-1,-1,-1,-1,-1,-1,-1,-1,-1,-1,-1,-1,-1,-1,-1,-1,-1,-1,-1,-1,-1,-1,-1,-1,-1,-1,-1,-1,-1,-1,-1,-1,-1,-1,-1,-1,-1,-1,-1,-1],"split_conditions":[8.3333336E1,2E1,1.0666667E0,3.1363636E1,3.6666668E1,1.7698029E-2,2.6E1,1.0666667E0,2.3015873E1,5.0444973E1,2E1,2.0930233E1,1.7729231E0,-1.8200047E-2,1.4545455E0,1.8902555E0,1.1666666E0,1.6666666E1,2.3809524E0,2.1052632E-1,4.4444443E1,8E1,2.3214285E1,1.6043416E0,3.3636363E0,1E0,3.1138458E1,6.1728396E0,2.090666E0,3.283582E1,2.142857E0,2.090666E0,6.4688E1,3.9166668E1,5.072109E1,6.2150394E1,3.9634705E1,6.878701E1,1.905537E0,3.7421286E-3,1.6808685E-2,6.111111E1,3.8461537E0,2.7E1,3.9411766E1,1.6666666E1,2.6634383E0,2.6084697E-3,-8.22487E-3,1.1247532E-2,-1.7278789E-2,1.6053088E-2,4.18908E-3,-1.2269799E-2,1.0182997E-2,1.8910805E-3,-1.761318E-2,-5.5960775E-3,2.9025174E-4,1.1235316E-2,-6.35946E-3,-1.689655E-3,3.9300937E-3,-5.6830314E-3,-6.9930893E-4,-4.138323E-3,-1.1807734E-3,1.6061561E-2,2.5699844E-3,-3.337395E-4,1.0268334E-2,-1.8062524E-4,1.6882154E-3,2.6049244E-4,4.590951E-3,1.734389E-4,1.4973888E-2,1.690086E-2,8.909885E-3,-1.585845E-3,1.7039081E-2,4.2856764E-3,1.3380949E-2,1.0826022E-2,2.826242E-3,1.3803317E-2,-2.740133E-3],"split_indices":[3,2,8,5,3,0,5,8,16,11,13,5,15,0,8,15,8,14,21,20,5,2,5,4,8,24,11,21,15,5,8,4,0,16,0,11,16,0,15,0,0,14,21,5,16,14,10,0,0,0,0,0,0,0,0,0,0,0,0,0,0,0,0,0,0,0,0,0,0,0,0,0,0,0,0,0,0,0,0,0,0,0,0,0,0,0,0],"split_type":[0,0,0,0,0,0,0,0,0,0,0,0,0,0,0,0,0,0,0,0,0,0,0,0,0,0,0,0,0,0,0,0,0,0,0,0,0,0,0,0,0,0,0,0,0,0,0,0,0,0,0,0,0,0,0,0,0,0,0,0,0,0,0,0,0,0,0,0,0,0,0,0,0,0,0,0,0,0,0,0,0,0,0,0,0,0,0],"sum_hessian":[1.1621728E4,1.0366057E4,1.2556714E3,5.04827E2,9.8612295E3,6.7859024E1,1.1878124E3,2.2458147E2,2.802455E2,2.8513247E3,7.009905E3,9.209831E1,1.0957141E3,8.041895E1,1.441625E2,2.464521E1,2.5560031E2,4.151368E2,2.4361877E3,3.031666E2,6.7067383E3,3.6162983E1,5.5935333E1,2.5947037E2,8.362437E2,7.156109E1,7.260142E1,1.9914711E1,4.7305E0,2.2600683E1,2.3299963E2,4.8066936E1,3.670699E2,3.4518784E2,2.091E3,9.844793E1,2.0471867E2,6.2974824E3,4.0925595E2,2.244347E0,3.3918633E1,2.6887167E1,2.9048164E1,3.9481846E1,2.1998853E2,6.8577814E2,1.5046562E2,1.7972319E1,5.3588768E1,1.4986613E0,7.110276E1,1.6923319E1,2.991392E0,3.4840872E0,1.2464128E0,1.2456956E0,2.1354988E1,1.2945726E2,1.0354238E2,3.933027E1,8.736668E0,2.8522195E2,8.1847916E1,2.6931683E2,7.587102E1,2.744864E2,1.8165137E3,6.93374E1,2.9110523E1,1.8507649E2,1.9642181E1,5.7877905E3,5.0969168E2,1.9216396E2,2.17092E2,1.9685179E1,7.2019877E0,1.8107553E1,1.0940612E1,1.7438073E0,3.773804E1,1.9409776E2,2.5890762E1,3.582353E1,6.499546E2,8.955705E0,1.4150992E2],"tree_param":{"num_deleted":"0","num_feature":"25","num_nodes":"87","size_leaf_vector":"1"}},{"base_weights":[1.0056514E-2,-7.7465767E-1,1.5961508E0,-1.8946235E0,-1.459665E-1,7.396905E-1,1.8578138E0,-1.8999696E-2,-1.1216305E-2,-6.740666E-1,-1.4857282E-2,5.943079E-1,9.397693E-1,1.3842536E0,1.8629946E-2,-9.5379555E-1,-5.64207E-1,-2.9950963E-2,3.304989E-1,4.138831E-1,6.439592E-1,8.7343293E-1,1.1890814E0,1.0513207E-2,1.606721E0,-9.810215E-1,-2.9070348E-1,-4.6035612E-1,-7.052174E-1,9.6573286E-2,-5.5479884E-2,9.249416E-1,2.1718012E-1,-2.6650724E-1,4.9552798E-1,3.5489237E-1,6.9692844E-1,8.870084E-1,-1.4231992E-1,1.2148741E0,-1.8277699E-4,6.7687887E-3,1.7287761E-2,-1.149357E-2,-8.824081E-3,-4.400655E-3,2.9542344E-3,-3.409123E-3,-6.8645263E-3,-4.4503594E-3,-7.846204E-3,-4.652368E-3,1.2076861E-3,-5.6914595E-4,1.3334715E-2,3.941216E-3,1.2475385E-2,3.2627827E-3,-3.403186E-3,8.583935E-4,-1.3803431E-2,5.324703E-3,-1.1842077E-2,1.4292074E-2,2.7913454E-3,-2.769644E-3,7.131001E-3,5.4409527E-3,9.379608E-3,3.1217176E-3,-4.788466E-3,1.2921433E-2,7.185443E-3],"categories":[],"categories_nodes":[],"categories_segments":[],"categories_sizes":[],"default_left":[0,0,0,0,0,0,0,0,0,0,0,0,0,0,0,0,0,0,0,0,0,0,0,0,0,0,0,0,0,0,0,0,0,0,0,0,0,0,0,0,0,0,0,0,0,0,0,0,0,0,0,0,0,0,0,0,0,0,0,0,0,0,0,0,0,0,0,0,0,0,0,0,0],"id":11,"left_children":[1,3,5,7,9,11,13,-1,-1,15,17,19,21,23,-1,25,27,29,31,33,35,37,39,-1,41,43,45,47,49,51,53,55,57,59,61,63,65,67,69,71,-1,-1,-1,-1,-1,-1,-1,-1,-1,-1,-1,-1,-1,-1,-1,-1,-1,-1,-1,-1,-1,-1,-1,-1,-1,-1,-1,-1,-1,-1,-1,-1,-1],"loss_changes":[1.4440575E4,5.4648228E3,8.589844E2,9.098633E0,3.4420874E2,2.5480316E1,4.3115234E0,0E0,0E0,2.9696503E1,2.0750742E1,4.326477E0,4.9890747E0,7.058945E-1,0E0,4.5906525E0,9.995178E0,1.2336763E1,1.0911524E1,6.6224976E0,5.9113617E0,4.3623047E0,2.51268E0,0E0,7.980957E-1,3.1921082E0,1.238405E0,1.0835533E1,5.724991E0,8.733595E0,6.2834167E0,3.8368168E0,8.711472E0,5.3471355E0,7.045826E0,4.7760706E0,5.6653595E0,4.5491333E0,8.918779E-1,1.7328033E0,0E0,0E0,0E0,0E0,0E0,0E0,0E0,0E0,0E0,0E0,0E0,0E0,0E0,0E0,0E0,0E0,0E0,0E0,0E0,0E0,0E0,0E0,0E0,0E0,0E0,0E0,0E0,0E0,0E0,0E0,0E0,0E0,0E0],"parents":[2147483647,0,0,1,1,2,2,3,3,4,4,5,5,6,6,9,9,10,10,11,11,12,12,13,13,15,15,16,16,17,17,18,18,19,19,20,20,21,21,22,22,24,24,25,25,26,26,27,27,28,28,29,29,30,30,31,31,32,32,33,33,34,34,35,35,36,36,37,37,38,38,39,39],"right_children":[2,4,6,8,10,12,14,-1,-1,16,18,20,22,24,-1,26,28,30,32,34,36,38,40,-1,42,44,46,48,50,52,54,56,58,60,62,64,66,68,70,72,-1,-1,-1,-1,-1,-1,-1,-1,-1,-1,-1,-1,-1,-1,-1,-1,-1,-1,-1,-1,-1,-1,-1,-1,-1,-1,-1,-1,-1,-1,-1,-1,-1],"split_conditions":[6.3384163E-1,1.5359794E-1,8.333333E-1,1.21951655E-1,3.9588705E-1,6.8877035E-1,9.133686E-1,-1.8999696E-2,-1.1216305E-2,2.7211007E-1,5.6097585E-1,3.3333332E1,2.8666666E0,3.846154E1,1.8629946E-2,4.3666668E1,6.1000156E1,2.5210085E0,4.9942978E1,2.4263432E0,4.854369E-1,5.4545456E1,1E2,1.0513207E-2,3.8637993E1,3.25E1,4.861111E0,2.0070693E0,5.39694E1,1.5384615E1,4.111111E0,2.2307692E0,2.10801E0,3.1458334E1,6.941956E1,1.5783658E0,1.6393442E1,1.8888888E0,2.7777779E1,7.8805846E-1,-1.8277699E-4,6.7687887E-3,1.7287761E-2,-1.149357E-2,-8.824081E-3,-4.400655E-3,2.9542344E-3,-3.409123E-3,-6.8645263E-3,-4.4503594E-3,-7.846204E-3,-4.652368E-3,1.2076861E-3,-5.6914595E-4,1.3334715E-2,3.941216E-3,1.2475385E-2,3.2627827E-3,-3.403186E-3,8.583935E-4,-1.3803431E-2,5.324703E-3,-1.1842077E-2,1.4292074E-2,2.7913454E-3,-2.769644E-3,7.131001E-3,5.4409527E-3,9.379608E-3,3.1217176E-3,-4.788466E-3,1.2921433E-2,7.185443E-3],"split_indices":[22,22,22,22,22,22,22,0,0,22,22,3,19,18,0,5,0,10,0,10,9,7,3,0,0,18,21,15,11,18,8,19,15,5,11,15,7,8,14,22,0,0,0,0,0,0,0,0,0,0,0,0,0,0,0,0,0,0,0,0,0,0,0,0,0,0,0,0,0,0,0,0,0],"split_type":[0,0,0,0,0,0,0,0,0,0,0,0,0,0,0,0,0,0,0,0,0,0,0,0,0,0,0,0,0,0,0,0,0,0,0,0,0,0,0,0,0,0,0,0,0,0,0,0,0,0,0,0,0,0,0,0,0,0,0,0,0,0,0,0,0,0,0,0,0,0,0,0,0],"sum_hessian":[1.1600237E4,7.760973E3,3.839264E3,2.789506E3,4.9714673E3,8.9944904E2,2.939815E3,2.7687695E3,2.0736626E1,9.877928E2,3.9836743E3,5.2351764E2,3.7593143E2,3.4925472E1,2.9048894E3,2.7612357E2,7.1166925E2,3.8180122E3,1.6566217E2,1.1542643E2,4.0809122E2,3.0079974E2,7.513166E1,1.6463018E1,1.8462454E1,2.646279E2,1.1495677E1,4.1269952E2,2.9896973E2,6.398991E2,3.178113E3,2.5235922E1,1.4042624E2,1.1993034E1,1.03433395E2,6.468364E1,3.4340756E2,2.9705484E2,3.7449155E0,7.36352E1,1.4964653E0,2.9968436E0,1.54656105E1,9.344526E1,1.7118263E2,9.495707E0,1.9999706E0,2.7197092E2,1.4072859E2,7.174511E1,2.2722461E2,2.5497252E1,6.1440186E2,3.1758635E3,2.2494843E0,1.0496335E1,1.4739586E1,1.1794036E2,2.2485888E1,9.7438545E0,2.2491803E0,1.01934105E2,1.4992958E0,2.9970646E0,6.1686577E1,5.244786E0,3.3816278E2,4.0193142E1,2.568617E2,1.497587E0,2.2473283E0,6.21541E1,1.1481098E1],"tree_param":{"num_deleted":"0","num_feature":"25","num_nodes":"73","size_leaf_vector":"1"}},{"base_weights":[1.4045589E-4,-7.9765797E-1,1.5300903E0,-1.8133278E0,-1.24994E-1,6.6265523E-1,1.8458283E-2,-1.8826684E-2,-1.0176084E0,-6.530611E-1,-2.5524322E-2,5.765237E-1,9.203364E-1,-1.3812097E0,-8.32398E-1,-3.4289896E-1,-7.025121E-1,-2.3335566E-1,-1.3114782E-2,8.8486284E-1,5.4346937E-1,9.87515E-1,6.618777E-1,-0E0,-1.4082416E0,-4.4619647E-1,-9.2110366E-1,-4.0800872E-1,2.917094E-1,-1.206279E0,-6.7221844E-1,-4.4137493E-1,5.8078225E-4,2.7452342E-2,-7.1435004E-2,9.634537E-1,1.10426456E-1,5.855127E-1,3.1109568E-1,1.3593667E0,9.2550975E-1,5.561707E-1,1.0053451E-2,-1.0670006E-2,-1.6131213E-2,-8.008639E-3,-4.31432E-4,-6.277937E-3,-1.054832E-2,1.5118703E-3,-4.7590784E-3,-0E0,1.1513579E-2,-2.6442148E-3,-1.4456976E-2,-5.8308444E-3,-7.918035E-3,1.1522808E-2,-4.732601E-3,1.9964615E-3,-1.9657707E-3,4.9747126E-3,1.5755014E-4,-3.311646E-3,-5.2144757E-4,7.283233E-3,1.3182193E-2,3.1917356E-3,-1.374787E-3,-1.6453661E-3,6.01797E-3,-9.668754E-3,3.641436E-3,1.667814E-2,1.0268881E-2,8.419314E-3,1.3399552E-2,6.2251394E-3,-3.9146628E-4],"categories":[],"categories_nodes":[],"categories_segments":[],"categories_sizes":[],"default_left":[0,0,0,0,0,0,0,0,0,0,0,0,0,0,0,0,0,0,0,0,0,0,0,0,0,0,0,0,0,0,0,0,0,0,0,0,0,0,0,0,0,0,0,0,0,0,0,0,0,0,0,0,0,0,0,0,0,0,0,0,0,0,0,0,0,0,0,0,0,0,0,0,0,0,0,0,0,0,0],"id":12,"left_children":[1,3,5,7,9,11,-1,-1,13,15,17,19,21,23,25,27,29,31,33,35,37,39,41,-1,43,45,47,49,51,53,55,57,59,61,63,65,67,69,71,73,75,77,-1,-1,-1,-1,-1,-1,-1,-1,-1,-1,-1,-1,-1,-1,-1,-1,-1,-1,-1,-1,-1,-1,-1,-1,-1,-1,-1,-1,-1,-1,-1,-1,-1,-1,-1,-1,-1],"loss_changes":[1.4234203E4,5.236187E3,1.0932021E3,1.6628125E2,2.4217459E2,2.3028778E1,0E0,0E0,1.5266846E1,1.0864319E1,9.984991E0,7.5664673E0,3.7938538E0,3.1873627E0,5.152321E0,4.375499E0,8.602325E0,1.0664293E1,8.677382E0,4.407036E0,6.847168E0,3.3208618E0,1.3956718E0,0E0,3.6164856E0,4.6310368E0,4.4316483E0,3.6633759E0,2.4628768E0,7.1677856E0,5.752411E0,6.358801E0,4.1012692E0,1.1823108E1,7.4838886E0,4.564228E0,4.8853713E-1,7.6609344E0,8.029648E0,8.313904E-1,4.960312E0,1.9358301E0,0E0,0E0,0E0,0E0,0E0,0E0,0E0,0E0,0E0,0E0,0E0,0E0,0E0,0E0,0E0,0E0,0E0,0E0,0E0,0E0,0E0,0E0,0E0,0E0,0E0,0E0,0E0,0E0,0E0,0E0,0E0,0E0,0E0,0E0,0E0,0E0,0E0],"parents":[2147483647,0,0,1,1,2,2,3,3,4,4,5,5,8,8,9,9,10,10,11,11,12,12,13,13,14,14,15,15,16,16,17,17,18,18,19,19,20,20,21,21,22,22,24,24,25,25,26,26,27,27,28,28,29,29,30,30,31,31,32,32,33,33,34,34,35,35,36,36,37,37,38,38,39,39,40,40,41,41],"right_children":[2,4,6,8,10,12,-1,-1,14,16,18,20,22,24,26,28,30,32,34,36,38,40,42,-1,44,46,48,50,52,54,56,58,60,62,64,66,68,70,72,74,76,78,-1,-1,-1,-1,-1,-1,-1,-1,-1,-1,-1,-1,-1,-1,-1,-1,-1,-1,-1,-1,-1,-1,-1,-1,-1,-1,-1,-1,-1,-1,-1,-1,-1,-1,-1,-1,-1],"split_conditions":[6E-1,2.507653E-1,9.133686E-1,1.2256066E-1,3.9588705E-1,7.4923474E-1,1.8458283E-2,-1.8826684E-2,3.0828516E0,1.8181819E0,4.6890634E-1,4.793867E1,5.9241705E0,1.5359794E-1,2.6666666E1,6.338028E0,1.7391304E1,3.196347E0,4.854369E0,7.5757575E0,4.7692307E1,1.6997813E0,3.6190475E1,-0E0,3.0487804E0,2.1511292E-1,3.888889E1,2E1,2.4285715E0,2.0714285E0,6.130666E1,9.13242E-1,1.9489516E0,1E1,1.9178082E1,3.5248226E1,2.6666666E1,5.011599E1,1.6258197E0,2.142857E0,4.958678E0,1.9940165E0,1.0053451E-2,-1.0670006E-2,-1.6131213E-2,-8.008639E-3,-4.31432E-4,-6.277937E-3,-1.054832E-2,1.5118703E-3,-4.7590784E-3,-0E0,1.1513579E-2,-2.6442148E-3,-1.4456976E-2,-5.8308444E-3,-7.918035E-3,1.1522808E-2,-4.732601E-3,1.9964615E-3,-1.9657707E-3,4.9747126E-3,1.5755014E-4,-3.311646E-3,-5.2144757E-4,7.283233E-3,1.3182193E-2,3.1917356E-3,-1.374787E-3,-1.6453661E-3,6.01797E-3,-9.668754E-3,3.641436E-3,1.667814E-2,1.0268881E-2,8.419314E-3,1.3399552E-2,6.2251394E-3,-3.9146628E-4],"split_indices":[22,22,22,22,22,22,0,0,20,8,22,0,9,22,14,10,18,20,10,20,18,15,5,0,9,22,3,14,19,8,0,9,15,7,18,5,14,0,15,8,9,15,0,0,0,0,0,0,0,0,0,0,0,0,0,0,0,0,0,0,0,0,0,0,0,0,0,0,0,0,0,0,0,0,0,0,0,0,0],"split_type":[0,0,0,0,0,0,0,0,0,0,0,0,0,0,0,0,0,0,0,0,0,0,0,0,0,0,0,0,0,0,0,0,0,0,0,0,0,0,0,0,0,0,0,0,0,0,0,0,0,0,0,0,0,0,0,0,0,0,0,0,0,0,0,0,0,0,0,0,0,0,0,0,0,0,0,0,0,0,0],"sum_hessian":[1.1659664E4,7.663773E3,3.9958914E3,3.0526565E3,4.611116E3,1.0672427E3,2.9286487E3,2.8065928E3,2.4606372E2,7.2985785E2,3.8812585E3,8.025957E2,2.6464703E2,8.0678955E1,1.6538477E2,1.0173308E2,6.281248E2,2.1723346E2,3.664025E3,7.4920815E1,7.2767487E2,2.0750475E2,5.714228E1,1.4984055E0,7.918055E1,3.2228344E1,1.3315643E2,9.273343E1,8.999649E0,3.324007E1,5.948847E2,1.1474313E2,1.0249033E2,2.160212E3,1.5038131E3,6.767942E1,7.241399E0,6.1453687E2,1.1313801E2,2.6435022E1,1.8106972E2,4.592013E1,1.1222151E1,3.221701E1,4.696354E1,1.6486189E1,1.5742154E1,4.3715755E1,8.944067E1,9.748493E0,8.298494E1,7.499854E0,1.4997947E0,7.248205E0,2.5991867E1,3.4468335E2,2.5020137E2,1.4999375E0,1.13243195E2,5.124456E1,5.1245773E1,5.1239563E1,2.1089724E3,1.0249111E2,1.401322E3,4.2708233E1,2.4971184E1,3.9940932E0,3.2473059E0,1.2734731E1,6.018021E2,3.7474358E0,1.0939057E2,1.1473625E1,1.4961397E1,1.5340614E2,2.766358E1,4.142585E1,4.4942803E0],"tree_param":{"num_deleted":"0","num_feature":"25","num_nodes":"79","size_leaf_vector":"1"}},{"base_weights":[6.686554E-3,-7.6759964E-1,1.5512295E0,-1.8564409E0,-1.447356E-1,6.8040675E-1,1.8289922E-2,-1.865917E-2,-1.0150311E0,-6.606918E-1,-1.917701E-2,5.6955886E-1,9.9159217E-1,-1.119757E0,1.8549753E-4,-8.613915E-1,-5.594876E-1,-3.2997288E-2,3.199255E-1,8.8622886E-1,5.3751934E-1,1.2994698E0,8.9732456E-1,-3.9114845E-3,-1.1600445E-2,-7.366432E-1,-1.0222452E0,-1.3090812E-1,-5.9591377E-1,-1.1226047E-1,-2.729001E-3,6.791596E-1,1.3671905E-1,1.1413772E0,5.75229E-1,6.102106E-1,3.5944292E-1,3.9627886E-1,1.4475683E0,1.5600075E0,8.2554144E-1,-9.5006395E-3,-5.343608E-3,-1.0659705E-2,-1.3988254E-3,-4.7387742E-4,-1.3382096E-2,-1.4694964E-2,-5.7940427E-3,-5.558992E-3,-9.110576E-4,1.228577E-3,-2.903466E-4,9.400591E-3,2.18729E-3,3.8707294E-3,-1.3281831E-3,2.3449531E-3,1.2461674E-2,-1.1709393E-3,8.028073E-3,8.801082E-3,5.6127035E-3,5.616065E-3,1.9392725E-3,-1.3970974E-4,4.9039624E-3,4.298361E-3,1.542747E-2,5.49312E-3,1.703987E-2,7.769842E-3,1.4426599E-2],"categories":[],"categories_nodes":[],"categories_segments":[],"categories_sizes":[],"default_left":[0,0,0,0,0,0,0,0,0,0,0,0,0,0,0,0,0,0,0,0,0,0,0,0,0,0,0,0,0,0,0,0,0,0,0,0,0,0,0,0,0,0,0,0,0,0,0,0,0,0,0,0,0,0,0,0,0,0,0,0,0,0,0,0,0,0,0,0,0,0,0,0,0],"id":13,"left_children":[1,3,5,7,9,11,-1,-1,13,15,17,19,21,23,-1,25,27,29,31,33,35,37,39,-1,-1,41,43,45,47,49,51,53,55,57,59,61,63,65,67,69,71,-1,-1,-1,-1,-1,-1,-1,-1,-1,-1,-1,-1,-1,-1,-1,-1,-1,-1,-1,-1,-1,-1,-1,-1,-1,-1,-1,-1,-1,-1,-1,-1],"loss_changes":[1.3913252E4,5.255003E3,9.381543E2,2.0300781E1,3.1933002E2,3.1742615E1,0E0,0E0,3.7800293E0,1.8973083E1,1.8571629E1,6.448181E0,5.7423553E0,2.9273987E-1,0E0,5.5171967E0,9.912155E0,9.13506E0,1.0036138E1,4.104931E0,7.9081116E0,6.6111603E0,7.5836487E0,0E0,0E0,7.3243637E0,5.030884E0,5.0403447E0,7.5046234E0,9.763626E0,9.115206E0,5.920538E0,7.106918E0,2.6918068E0,4.9224653E0,5.2972717E0,6.072983E0,4.1099787E-1,3.6786728E0,1.3790054E0,3.9026794E0,0E0,0E0,0E0,0E0,0E0,0E0,0E0,0E0,0E0,0E0,0E0,0E0,0E0,0E0,0E0,0E0,0E0,0E0,0E0,0E0,0E0,0E0,0E0,0E0,0E0,0E0,0E0,0E0,0E0,0E0,0E0,0E0],"parents":[2147483647,0,0,1,1,2,2,3,3,4,4,5,5,8,8,9,9,10,10,11,11,12,12,13,13,15,15,16,16,17,17,18,18,19,19,20,20,21,21,22,22,25,25,26,26,27,27,28,28,29,29,30,30,31,31,32,32,33,33,34,34,35,35,36,36,37,37,38,38,39,39,40,40],"right_children":[2,4,6,8,10,12,-1,-1,14,16,18,20,22,24,-1,26,28,30,32,34,36,38,40,-1,-1,42,44,46,48,50,52,54,56,58,60,62,64,66,68,70,72,-1,-1,-1,-1,-1,-1,-1,-1,-1,-1,-1,-1,-1,-1,-1,-1,-1,-1,-1,-1,-1,-1,-1,-1,-1,-1,-1,-1,-1,-1,-1,-1],"split_conditions":[6.2396425E-1,1.8242553E-1,8.5603565E-1,1.4024438E-1,3.878094E-1,7.4923474E-1,1.8289922E-2,-1.865917E-2,3.142857E0,3.0856153E-1,5.6097585E-1,1.6991092E0,1.7681541E0,2.6229507E1,1.8549753E-4,5E1,1.5454545E0,5.411642E1,3.25E1,3.9170506E0,2.6363637E0,2.5735294E1,2.2564102E1,-3.9114845E-3,-1.1600445E-2,1.8706923E0,7.5757575E0,5.970149E0,3.9233334E1,4.8285377E-1,1.2406948E0,2.5454545E0,1.905537E0,1.0666667E0,1.744186E0,2.3952096E0,3.3589745E1,1.8888888E0,4.7203186E1,4.9942978E1,7.5757575E0,-9.5006395E-3,-5.343608E-3,-1.0659705E-2,-1.3988254E-3,-4.7387742E-4,-1.3382096E-2,-1.4694964E-2,-5.7940427E-3,-5.558992E-3,-9.110576E-4,1.228577E-3,-2.903466E-4,9.400591E-3,2.18729E-3,3.8707294E-3,-1.3281831E-3,2.3449531E-3,1.2461674E-2,-1.1709393E-3,8.028073E-3,8.801082E-3,5.6127035E-3,5.616065E-3,1.9392725E-3,-1.3970974E-4,4.9039624E-3,4.298361E-3,1.542747E-2,5.49312E-3,1.703987E-2,7.769842E-3,1.4426599E-2],"split_indices":[22,22,22,22,22,22,0,0,8,22,22,15,15,7,0,13,8,1,16,9,19,16,16,0,0,15,20,20,1,22,20,8,4,8,20,10,16,8,1,1,20,0,0,0,0,0,0,0,0,0,0,0,0,0,0,0,0,0,0,0,0,0,0,0,0,0,0,0,0,0,0,0,0],"split_type":[0,0,0,0,0,0,0,0,0,0,0,0,0,0,0,0,0,0,0,0,0,0,0,0,0,0,0,0,0,0,0,0,0,0,0,0,0,0,0,0,0,0,0,0,0,0,0,0,0,0,0,0,0,0,0,0,0,0,0,0,0,0,0,0,0,0,0,0,0,0,0,0,0],"sum_hessian":[1.1631889E4,7.748147E3,3.883742E3,2.818656E3,4.9294907E3,9.401274E2,2.9436145E3,2.7859434E3,3.2712536E1,9.6382E2,3.965671E3,6.9552484E2,2.4460251E2,2.9715076E1,2.99746E0,3.2024255E2,6.4357745E2,3.8115278E3,1.5414297E2,6.116862E1,6.343562E2,5.4092094E1,1.9051042E2,2.2481368E0,2.746694E1,1.8385625E2,1.3638632E2,5.0989464E1,5.9258795E2,1.0516287E3,2.7598992E3,5.096233E1,1.0318065E2,3.1958162E1,2.9210459E1,4.483503E2,1.8600592E2,8.233067E0,4.5859028E1,1.6457146E1,1.7405327E2,8.742559E1,9.643065E1,1.2964058E2,6.745735E0,4.8739758E1,2.249706E0,9.246591E0,5.833414E2,4.6498405E1,1.0051302E3,4.7668243E2,2.2832168E3,3.172609E1,1.923624E1,5.3460224E1,4.9720425E1,3.7444832E0,2.821368E1,7.2378983E0,2.197256E1,6.5899345E1,3.8245096E2,8.2383766E1,1.03622154E2,1.4969677E0,6.7360992E0,4.4835744E0,4.1375454E1,2.7391129E0,1.3718032E1,1.6360158E2,1.0451689E1],"tree_param":{"num_deleted":"0","num_feature":"25","num_nodes":"73","size_leaf_vector":"1"}},{"base_weights":[-3.112818E-4,-7.572152E-1,1.5496862E0,-1.8226088E0,-1.4048839E-1,7.0304286E-1,1.8162115E-2,-1.850624E-2,-1.038155E0,-6.8111706E-1,-2.0643512E-2,5.735053E-1,1.0135344E0,-7.7674174E-1,-1.2678751E0,-9.2523116E-1,-6.1318505E-1,-3.563634E-2,2.7448893E-1,-5.853506E-1,5.8264345E-1,1.3060477E0,9.173968E-1,-3.3697686E-1,-9.470718E-1,-1.3451006E0,-6.38194E-1,-1.1379102E0,-7.8497994E-1,-4.981933E-1,-7.532599E-1,-2.4694185E-1,-2.3614744E-2,8.245523E-1,1.7163143E-1,-1.4057268E-2,3.8435515E-3,7.162423E-1,5.163005E-1,-3.0020956E-4,1.34021E0,9.6365553E-1,5.3961533E-1,-5.1367194E-3,4.692379E-3,-1.0374946E-2,-0E0,-1.47629045E-2,-9.559158E-3,3.4334539E-3,-1.0567632E-2,-1.2029266E-2,-2.9212895E-3,-6.9499006E-3,-1.0628365E-2,-1.5398525E-3,-5.706854E-3,-9.264884E-3,-6.2979097E-3,3.9774168E-4,-4.4406597E-3,7.146401E-4,-4.3665624E-4,5.7003433E-3,1.6212884E-2,5.80657E-3,7.415906E-4,6.2702373E-3,1.0857583E-2,6.713714E-3,4.445096E-3,4.507227E-3,1.3997929E-2,5.3111706E-3,1.0008076E-2,7.048198E-3,-0E0],"categories":[],"categories_nodes":[],"categories_segments":[],"categories_sizes":[],"default_left":[0,0,0,0,0,0,0,0,0,0,0,0,0,0,0,0,0,0,0,0,0,0,0,0,0,0,0,0,0,0,0,0,0,0,0,0,0,0,0,0,0,0,0,0,0,0,0,0,0,0,0,0,0,0,0,0,0,0,0,0,0,0,0,0,0,0,0,0,0,0,0,0,0,0,0,0,0],"id":14,"left_children":[1,3,5,7,9,11,-1,-1,13,15,17,19,21,23,25,27,29,31,33,35,37,39,41,43,45,47,49,51,53,55,57,59,61,63,65,-1,-1,67,69,-1,71,73,75,-1,-1,-1,-1,-1,-1,-1,-1,-1,-1,-1,-1,-1,-1,-1,-1,-1,-1,-1,-1,-1,-1,-1,-1,-1,-1,-1,-1,-1,-1,-1,-1,-1,-1],"loss_changes":[1.3666282E4,5.1422153E3,8.609072E2,6.084961E1,3.2117618E2,3.6134583E1,0E0,0E0,4.8966064E0,1.4195801E1,1.7950155E1,7.2183228E0,6.1263733E0,3.3117275E0,1.4794769E0,4.6874695E0,1.088736E1,9.784533E0,1.0851744E1,5.01334E0,5.223404E0,3.0817184E0,2.922638E0,2.4859686E0,3.1348095E0,6.6431427E-1,3.6149497E0,3.5905228E0,2.0894928E0,9.611038E0,6.0278625E0,1.1784899E1,6.974552E0,5.0356274E0,6.53328E0,0E0,0E0,6.1015015E0,4.4330826E0,0E0,2.4842758E0,2.2345276E0,2.2776752E0,0E0,0E0,0E0,0E0,0E0,0E0,0E0,0E0,0E0,0E0,0E0,0E0,0E0,0E0,0E0,0E0,0E0,0E0,0E0,0E0,0E0,0E0,0E0,0E0,0E0,0E0,0E0,0E0,0E0,0E0,0E0,0E0,0E0,0E0],"parents":[2147483647,0,0,1,1,2,2,3,3,4,4,5,5,8,8,9,9,10,10,11,11,12,12,13,13,14,14,15,15,16,16,17,17,18,18,19,19,20,20,21,21,22,22,23,23,24,24,25,25,26,26,27,27,28,28,29,29,30,30,31,31,32,32,33,33,34,34,37,37,38,38,40,40,41,41,42,42],"right_children":[2,4,6,8,10,12,-1,-1,14,16,18,20,22,24,26,28,30,32,34,36,38,40,42,44,46,48,50,52,54,56,58,60,62,64,66,-1,-1,68,70,-1,72,74,76,-1,-1,-1,-1,-1,-1,-1,-1,-1,-1,-1,-1,-1,-1,-1,-1,-1,-1,-1,-1,-1,-1,-1,-1,-1,-1,-1,-1,-1,-1,-1,-1,-1,-1],"split_conditions":[6.365307E-1,2.111594E-1,1E0,1.21951655E-1,3.8365173E-1,7.4923474E-1,1.8162115E-2,-1.850624E-2,3.902439E0,2.7211007E-1,5.6097585E-1,1.6666666E1,1.7681541E0,2E0,4.6153847E1,1.8428984E0,3.5874438E0,1.8333334E1,2.5E1,5.39694E1,2.415459E0,1.6666666E1,5.9375E0,3.611111E1,2.3930535E0,5.3892217E0,6.75453E1,7.2186837E0,6.6666664E1,1.8333334E0,3.4090908E1,3.0980392E1,2.5380712E0,6.081227E-1,4.9531628E1,-1.4057268E-2,3.8435515E-3,6.074766E0,2.9333334E1,-3.0020956E-4,2.1190475E1,2.036199E0,3.6666668E1,-5.1367194E-3,4.692379E-3,-1.0374946E-2,-0E0,-1.47629045E-2,-9.559158E-3,3.4334539E-3,-1.0567632E-2,-1.2029266E-2,-2.9212895E-3,-6.9499006E-3,-1.0628365E-2,-1.5398525E-3,-5.706854E-3,-9.264884E-3,-6.2979097E-3,3.9774168E-4,-4.4406597E-3,7.146401E-4,-4.3665624E-4,5.7003433E-3,1.6212884E-2,5.80657E-3,7.415906E-4,6.2702373E-3,1.0857583E-2,6.713714E-3,4.445096E-3,4.507227E-3,1.3997929E-2,5.3111706E-3,1.0008076E-2,7.048198E-3,-0E0],"split_indices":[22,22,22,22,22,22,0,0,10,22,22,16,15,24,18,15,20,18,13,0,20,14,21,18,15,21,12,21,2,8,7,16,10,22,0,0,0,10,18,0,16,10,18,0,0,0,0,0,0,0,0,0,0,0,0,0,0,0,0,0,0,0,0,0,0,0,0,0,0,0,0,0,0,0,0,0,0],"split_type":[0,0,0,0,0,0,0,0,0,0,0,0,0,0,0,0,0,0,0,0,0,0,0,0,0,0,0,0,0,0,0,0,0,0,0,0,0,0,0,0,0,0,0,0,0,0,0,0,0,0,0,0,0,0,0,0,0,0,0,0,0,0,0,0,0,0,0,0,0,0,0,0,0,0,0,0,0],"sum_hessian":[1.1646799E4,7.8258228E3,3.820976E3,2.868456E3,4.9573667E3,9.1581494E2,2.9051611E3,2.7681123E3,1.00343796E2,8.985276E2,4.0588389E3,6.484498E2,2.6736514E2,4.9187157E1,5.115664E1,1.9254042E2,7.059872E2,3.863776E3,1.9506306E2,4.4943743E0,6.4395544E2,6.2765694E1,2.0459943E2,1.4727801E1,3.445936E1,4.4414555E1,6.742083E0,7.340364E1,1.1913679E2,3.9060117E2,3.1538602E2,2.0648564E2,3.6572903E3,2.9470648E1,1.6559242E2,2.2469358E0,2.2474387E0,2.0992105E2,4.3403436E2,1.4949018E0,6.1270794E1,1.8066214E2,2.39373E1,1.2479592E1,2.248209E0,3.1460108E1,2.9992495E0,3.0936113E1,1.3478441E1,1.9978821E0,4.744201E0,6.766187E1,5.741761E0,9.290775E1,2.6229038E1,6.873527E1,3.218659E2,1.2820253E2,1.8718347E2,8.424406E1,1.2224159E2,6.3563556E2,3.0216548E3,2.3730799E1,5.739848E0,3.071582E1,1.3487659E2,1.7148422E2,3.8436836E1,1.342674E2,2.9976697E2,4.489656E0,5.6781136E1,1.5713007E1,1.6494913E2,1.8202078E1,5.735221E0],"tree_param":{"num_deleted":"0","num_feature":"25","num_nodes":"77","size_leaf_vector":"1"}},{"base_weights":[2.7074162E-3,-2.5668618E-1,1.0816771E-1,-7.613563E-1,-1.6488685E-1,5.633282E-2,5.871026E-1,-1.7338417E-2,-5.209845E-1,-3.5646936E-1,-1.3406712E-1,4.2567435E-1,3.938104E-2,1.613812E0,4.685959E-1,6.1473364E-1,-6.0239065E-1,3.3488545E-1,-4.5799568E-1,-1.9979218E-1,3.296958E-2,1.5684984E0,5.0490644E-2,2.6434537E-2,3.560728E-1,1.1029531E0,1.6966255E-2,1.2273756E0,4.049291E-1,-2.773028E-1,1.3893242E0,-3.7367842E-1,-9.7094154E-1,8.7972456E-1,-2.6119646E-1,-3.683234E-1,-9.345149E-1,-1.696801E-1,-6.225383E-1,4.6478257E-2,-1.3957296E-2,-1.6711084E-3,1.6100698E0,3.692186E-1,-4.4208643E-1,-1.9015212E-3,1.5298834E-1,2.8979293E-1,1.13028E0,1.599295E-2,3.6997452E-2,6.0170996E-1,1.4600389E0,1.1372132E-1,5.678452E-1,-1.3551241E-2,1.9898724E-3,1.5895536E-2,-7.615643E-4,-1.1757259E-2,-2.4269244E-3,-5.4106177E-3,-1.3323776E-2,-4.195026E-3,1.1292866E-2,1.0940073E-3,-1.1996011E-2,-4.0052296E-3,1.4525627E-2,3.7357613E-4,-1.0656284E-2,-4.5836414E-3,-1.3275009E-3,-1.078575E-2,-3.314438E-3,1.8330845E-4,7.7559827E-3,1.6413055E-2,1.0248583E-3,9.448624E-3,3.7617452E-4,-5.6836815E-3,8.231077E-3,-7.470602E-4,5.49626E-4,5.486617E-3,5.9401157E-4,4.030618E-3,-2.9745954E-3,1.34170065E-2,-4.5227283E-3,7.0229406E-3,-1.0684724E-2,8.826345E-3,-1.1322525E-2,1.5719725E-2,6.60152E-3,1.7588282E-3,-1.2057273E-2,2.7835767E-3,7.1747247E-3],"categories":[],"categories_nodes":[],"categories_segments":[],"categories_sizes":[],"default_left":[0,0,0,0,0,0,0,0,0,0,0,0,0,0,0,0,0,0,0,0,0,0,0,0,0,0,0,0,0,0,0,0,0,0,0,0,0,0,0,0,0,0,0,0,0,0,0,0,0,0,0,0,0,0,0,0,0,0,0,0,0,0,0,0,0,0,0,0,0,0,0,0,0,0,0,0,0,0,0,0,0,0,0,0,0,0,0,0,0,0,0,0,0,0,0,0,0,0,0,0,0],"id":15,"left_children":[1,3,5,7,9,11,13,-1,15,17,19,21,23,25,27,29,31,33,35,37,39,41,43,45,47,49,-1,51,53,55,57,59,61,63,65,67,69,71,73,75,-1,-1,77,79,81,83,85,87,89,-1,91,93,95,97,99,-1,-1,-1,-1,-1,-1,-1,-1,-1,-1,-1,-1,-1,-1,-1,-1,-1,-1,-1,-1,-1,-1,-1,-1,-1,-1,-1,-1,-1,-1,-1,-1,-1,-1,-1,-1,-1,-1,-1,-1,-1,-1,-1,-1,-1,-1],"loss_changes":[3.1765298E2,1.5527345E2,2.0486652E2,1.1951486E2,1.6679016E1,4.6588478E1,9.710339E1,0E0,3.876834E1,2.7727444E1,2.6915306E1,1.3980354E2,2.9167456E1,1.3562622E0,3.4320053E1,1.9975973E1,3.2219833E1,1.676774E1,1.4179443E1,2.2199402E1,1.3287375E1,6.230728E0,3.8933437E1,2.4569271E1,1.3871357E1,7.4972496E0,0E0,6.9855423E0,3.1637299E1,7.50869E0,4.7664967E0,2.4923172E1,2.2062073E1,9.241348E0,8.903229E0,1.7506264E1,6.95821E0,1.739721E1,1.4943989E1,1.3998505E1,0E0,0E0,3.3724213E0,2.8618738E1,1.5998495E1,2.3168327E1,4.6315685E1,1.735158E1,7.9144344E0,0E0,4.9231334E0,9.179905E0,2.2840729E0,1.9933693E1,1.828061E1,0E0,0E0,0E0,0E0,0E0,0E0,0E0,0E0,0E0,0E0,0E0,0E0,0E0,0E0,0E0,0E0,0E0,0E0,0E0,0E0,0E0,0E0,0E0,0E0,0E0,0E0,0E0,0E0,0E0,0E0,0E0,0E0,0E0,0E0,0E0,0E0,0E0,0E0,0E0,0E0,0E0,0E0,0E0,0E0,0E0,0E0],"parents":[2147483647,0,0,1,1,2,2,3,3,4,4,5,5,6,6,8,8,9,9,10,10,11,11,12,12,13,13,14,14,15,15,16,16,17,17,18,18,19,19,20,20,21,21,22,22,23,23,24,24,25,25,27,27,28,28,29,29,30,30,31,31,32,32,33,33,34,34,35,35,36,36,37,37,38,38,39,39,42,42,43,43,44,44,45,45,46,46,47,47,48,48,50,50,51,51,52,52,53,53,54,54],"right_children":[2,4,6,8,10,12,14,-1,16,18,20,22,24,26,28,30,32,34,36,38,40,42,44,46,48,50,-1,52,54,56,58,60,62,64,66,68,70,72,74,76,-1,-1,78,80,82,84,86,88,90,-1,92,94,96,98,100,-1,-1,-1,-1,-1,-1,-1,-1,-1,-1,-1,-1,-1,-1,-1,-1,-1,-1,-1,-1,-1,-1,-1,-1,-1,-1,-1,-1,-1,-1,-1,-1,-1,-1,-1,-1,-1,-1,-1,-1,-1,-1,-1,-1,-1,-1],"split_conditions":[3.6666668E1,2E1,8.6666664E1,1.0666667E0,2.3809524E0,2E1,1.5333333E0,-1.7338417E-2,2.1794872E1,4.8920944E1,6.3485508E1,1.0666667E0,4.574074E1,1E2,1.6666666E1,1.8018245E0,3E0,3E0,6.686118E1,8.6666664E1,5.681818E1,5.3333336E-1,6.3630486E1,6.6666664E1,6.504065E0,4E0,1.6966255E-2,1E2,3.6199095E0,5.4519814E1,6.387417E1,2.3529413E0,1.5E0,1.6923077E0,1.9779359E0,6.670075E1,5.2223545E1,1.8571428E0,5.3348213E1,1E2,-1.3957296E-2,-1.6711084E-3,7.141778E1,3.1363636E1,6.8041534E1,5.7386383E1,1.7400694E0,6.514658E0,9.523809E0,1.599295E-2,4.0579712E1,2.7692308E0,2E1,3.5447762E0,1E0,-1.3551241E-2,1.9898724E-3,1.5895536E-2,-7.615643E-4,-1.1757259E-2,-2.4269244E-3,-5.4106177E-3,-1.3323776E-2,-4.195026E-3,1.1292866E-2,1.0940073E-3,-1.1996011E-2,-4.0052296E-3,1.4525627E-2,3.7357613E-4,-1.0656284E-2,-4.5836414E-3,-1.3275009E-3,-1.078575E-2,-3.314438E-3,1.8330845E-4,7.7559827E-3,1.6413055E-2,1.0248583E-3,9.448624E-3,3.7617452E-4,-5.6836815E-3,8.231077E-3,-7.470602E-4,5.49626E-4,5.486617E-3,5.9401157E-4,4.030618E-3,-2.9745954E-3,1.34170065E-2,-4.5227283E-3,7.0229406E-3,-1.0684724E-2,8.826345E-3,-1.1322525E-2,1.5719725E-2,6.60152E-3,1.7588282E-3,-1.2057273E-2,2.7835767E-3,7.1747247E-3],"split_indices":[3,2,3,8,21,13,8,0,16,12,0,19,16,2,14,4,23,23,0,14,16,8,12,2,10,23,0,2,21,0,12,21,8,8,4,0,12,19,0,13,0,0,12,16,0,0,4,21,10,0,18,8,13,21,23,0,0,0,0,0,0,0,0,0,0,0,0,0,0,0,0,0,0,0,0,0,0,0,0,0,0,0,0,0,0,0,0,0,0,0,0,0,0,0,0,0,0,0,0,0,0],"split_type":[0,0,0,0,0,0,0,0,0,0,0,0,0,0,0,0,0,0,0,0,0,0,0,0,0,0,0,0,0,0,0,0,0,0,0,0,0,0,0,0,0,0,0,0,0,0,0,0,0,0,0,0,0,0,0,0,0,0,0,0,0,0,0,0,0,0,0,0,0,0,0,0,0,0,0,0,0,0,0,0,0,0,0,0,0,0,0,0,0,0,0,0,0,0,0,0,0,0,0,0,0],"sum_hessian":[1.1610466E4,3.3552937E3,8.255173E3,5.1510455E2,2.8401892E3,7.4501704E3,8.050019E2,1.0077291E2,4.1433167E2,3.9166962E2,2.4485195E3,3.2562027E2,7.1245503E3,8.190841E1,7.2309344E2,2.7191824E1,3.8713983E2,4.973181E1,3.419378E2,1.7574188E3,6.911008E2,7.96268E1,2.4599345E2,6.8460786E3,2.7847156E2,1.3591499E1,6.831691E1,5.4439198E1,6.6865424E2,1.2876198E1,1.4315626E1,2.4030104E2,1.4683878E2,2.582176E1,2.391005E1,2.8945114E2,5.248667E1,1.6420912E3,1.1532767E2,6.856552E2,5.4455643E0,1.7357014E0,7.78911E1,1.4962817E2,9.636528E1,5.593794E3,1.2522849E3,2.5789648E2,2.0575052E1,8.86809E0,4.7234106E0,1.584518E1,3.859402E1,2.4070786E2,4.279464E2,3.4450366E0,9.431161E0,1.258034E1,1.7352864E0,3.250829E1,2.0779276E2,6.833597E1,7.8502815E1,3.9864638E0,2.1835297E1,1.769769E1,6.2123613E0,2.85242E2,4.2091155E0,6.233504E0,4.6253166E1,1.8463889E2,1.4574523E3,4.3745686E1,7.158198E1,6.6128876E2,2.4366512E1,7.615814E1,1.7329588E0,5.3903427E1,9.572475E1,8.819241E1,8.172867E0,2.4537034E3,3.1400903E3,2.3840619E2,1.0138787E3,2.1660231E2,4.1294178E1,1.8340271E1,2.234781E0,3.2329297E0,1.4904807E0,1.4108123E1,1.7370565E0,3.2899857E1,5.6941648E0,2.30778E2,9.929858E0,1.4702405E2,2.8092236E2],"tree_param":{"num_deleted":"0","num_feature":"25","num_nodes":"101","size_leaf_vector":"1"}},{"base_weights":[-1.3743442E-2,-7.5480324E-1,1.5331448E0,-1.8066885E0,-1.4091793E-1,6.804588E-1,1.8004766E-2,-1.8340208E-2,-1.1019111E0,-6.606675E-1,-2.3607224E-2,5.823991E-1,9.251302E-1,-1.1269528E0,-6.092151E-4,-8.656714E-1,-5.8180165E-1,-3.8596854E-2,2.7991346E-1,4.9584574E-1,6.971935E-1,1.0032231E0,6.198986E-1,1.4194642E-4,-1.1441E0,-1.039491E0,-7.3922974E-1,-5.671138E-1,-1.6994944E-2,-2.2251028E-1,-2.2838978E-2,7.619023E-1,2.0849064E-1,4.6343452E-1,1.0455039E0,1.631468E-1,7.5502884E-1,7.850411E-1,1.1565458E0,2.923343E-1,7.9944885E-1,-6.494272E-3,-1.2032539E-2,-7.2284564E-3,-1.1990897E-2,-7.970951E-3,2.1181405E-3,-3.998516E-3,-6.323551E-3,-4.8725097E-3,-1.2103111E-3,-1.2705268E-3,-4.287527E-5,8.17417E-3,-2.3949047E-5,4.9648304E-3,1.0244021E-3,4.9756626E-3,3.7620115E-4,4.882034E-3,1.2895461E-2,6.5623075E-3,-1.3748675E-3,3.8393724E-3,8.190661E-3,8.894888E-3,3.606709E-3,9.368609E-3,1.3369418E-2,-3.7709423E-3,4.6314583E-3,8.601973E-3,2.1354891E-3],"categories":[],"categories_nodes":[],"categories_segments":[],"categories_sizes":[],"default_left":[0,0,0,0,0,0,0,0,0,0,0,0,0,0,0,0,0,0,0,0,0,0,0,0,0,0,0,0,0,0,0,0,0,0,0,0,0,0,0,0,0,0,0,0,0,0,0,0,0,0,0,0,0,0,0,0,0,0,0,0,0,0,0,0,0,0,0,0,0,0,0,0,0],"id":16,"left_children":[1,3,5,7,9,11,-1,-1,13,15,17,19,21,23,-1,25,27,29,31,33,35,37,39,-1,41,43,45,47,-1,49,51,53,55,57,59,61,63,65,67,69,71,-1,-1,-1,-1,-1,-1,-1,-1,-1,-1,-1,-1,-1,-1,-1,-1,-1,-1,-1,-1,-1,-1,-1,-1,-1,-1,-1,-1,-1,-1,-1,-1],"loss_changes":[1.3295382E4,5.0631724E3,8.548418E2,5.3351562E1,3.0190485E2,2.086377E1,0E0,0E0,2.6937714E0,1.4094238E1,1.837661E1,5.9367065E0,5.294922E0,2.2381744E0,0E0,4.568695E0,9.675919E0,1.1136738E1,6.285985E0,5.9792557E0,8.248215E0,5.6285095E0,2.8822021E0,0E0,2.1432953E0,4.139908E0,8.430412E0,6.7907257E0,0E0,8.032878E0,6.8506575E0,1.1004171E0,4.9916873E0,5.0522385E0,1.8728886E0,4.325221E0,5.42984E0,3.3846512E0,3.1085205E0,2.606104E0,9.4208527E-1,0E0,0E0,0E0,0E0,0E0,0E0,0E0,0E0,0E0,0E0,0E0,0E0,0E0,0E0,0E0,0E0,0E0,0E0,0E0,0E0,0E0,0E0,0E0,0E0,0E0,0E0,0E0,0E0,0E0,0E0,0E0,0E0],"parents":[2147483647,0,0,1,1,2,2,3,3,4,4,5,5,8,8,9,9,10,10,11,11,12,12,13,13,15,15,16,16,17,17,18,18,19,19,20,20,21,21,22,22,24,24,25,25,26,26,27,27,29,29,30,30,31,31,32,32,33,33,34,34,35,35,36,36,37,37,38,38,39,39,40,40],"right_children":[2,4,6,8,10,12,-1,-1,14,16,18,20,22,24,-1,26,28,30,32,34,36,38,40,-1,42,44,46,48,-1,50,52,54,56,58,60,62,64,66,68,70,72,-1,-1,-1,-1,-1,-1,-1,-1,-1,-1,-1,-1,-1,-1,-1,-1,-1,-1,-1,-1,-1,-1,-1,-1,-1,-1,-1,-1,-1,-1,-1,-1],"split_conditions":[6.365307E-1,2.111594E-1,8.5746306E-1,1.21951655E-1,3.9588705E-1,7.4675983E-1,1.8004766E-2,-1.8340208E-2,2.19923E0,3.0856153E-1,5.769911E-1,5.3333332E1,5.9241705E0,1E0,-6.092151E-4,1.8438076E0,2.441702E0,1.5E0,2.5380712E0,3.5E0,2.2222221E1,3.0241935E0,5.529514E1,1.4194642E-4,1.375E0,2.948403E0,6.716418E0,5.4519814E1,-1.6994944E-2,5.2211872E1,1.0964912E0,6.87E1,3.0701754E0,3.142857E0,2.6338799E1,1.8851633E0,4.9420555E1,6.55056E1,4.5454545E0,6.581741E0,9.736308E0,-6.494272E-3,-1.2032539E-2,-7.2284564E-3,-1.1990897E-2,-7.970951E-3,2.1181405E-3,-3.998516E-3,-6.323551E-3,-4.8725097E-3,-1.2103111E-3,-1.2705268E-3,-4.287527E-5,8.17417E-3,-2.3949047E-5,4.9648304E-3,1.0244021E-3,4.9756626E-3,3.7620115E-4,4.882034E-3,1.2895461E-2,6.5623075E-3,-1.3748675E-3,3.8393724E-3,8.190661E-3,8.894888E-3,3.606709E-3,9.368609E-3,1.3369418E-2,-3.7709423E-3,4.6314583E-3,8.601973E-3,2.1354891E-3],"split_indices":[22,22,22,22,22,22,0,0,4,22,22,14,9,21,0,4,15,19,21,8,3,9,11,0,8,10,21,11,0,11,9,1,9,19,16,4,11,11,21,9,9,0,0,0,0,0,0,0,0,0,0,0,0,0,0,0,0,0,0,0,0,0,0,0,0,0,0,0,0,0,0,0,0],"split_type":[0,0,0,0,0,0,0,0,0,0,0,0,0,0,0,0,0,0,0,0,0,0,0,0,0,0,0,0,0,0,0,0,0,0,0,0,0,0,0,0,0,0,0,0,0,0,0,0,0,0,0,0,0,0,0,0,0,0,0,0,0,0,0,0,0,0,0,0,0,0,0,0,0],"sum_hessian":[1.1596205E4,7.8406177E3,3.7555876E3,2.8887214E3,4.951896E3,8.9733923E2,2.8582483E3,2.7791958E3,1.0952567E2,9.1085114E2,4.0410452E3,6.433041E2,2.5403519E2,1.067784E2,2.7472744E0,2.4993231E2,6.609188E2,3.8520125E3,1.8903262E2,3.702965E2,2.7300757E2,2.0020001E2,5.383517E1,1.4969425E0,1.05281456E2,1.0187399E2,1.4805833E2,6.5392236E2,6.996467E0,3.0246097E2,3.5495515E3,2.296801E1,1.660646E2,3.515897E2,1.8706818E1,2.721905E1,2.4578851E2,8.5419014E1,1.14781E2,2.0188738E1,3.3646435E1,1.2705035E1,9.257642E1,3.620286E1,6.567113E1,1.3981824E2,8.240087E0,1.8592337E2,4.6799896E2,8.248519E1,2.1997578E2,5.3468616E2,3.0148652E3,2.1469881E1,1.4981279E0,4.344906E1,1.22615555E2,3.2512543E2,2.646424E1,6.7355685E0,1.1971248E1,9.987637E0,1.7231413E1,3.743166E1,2.0835686E2,6.7479126E1,1.7939886E1,5.4797157E1,5.9983837E1,3.7396293E0,1.644911E1,2.9906742E1,3.7396913E0],"tree_param":{"num_deleted":"0","num_feature":"25","num_nodes":"73","size_leaf_vector":"1"}},{"base_weights":[3.5581146E-3,-7.6164E-1,1.4701827E0,-1.8127576E0,-1.607268E-1,5.9124726E-1,1.7776257E0,-1.818581E-2,-1.0791732E0,-6.708567E-1,-4.2256333E-2,4.9569497E-1,7.5561464E-1,1.2144768E0,1.7860027E-2,-1.1298432E-2,-3.6950754E-3,-9.2742324E-1,-5.559637E-1,-2.1175222E-1,-2.5430638E-2,5.129866E-1,-4.1029254E-1,3.5299012E-1,8.116788E-1,3.4309754E-3,1.2485993E-2,-9.777008E-1,-2.068156E-1,3.9006472E-1,-5.7190025E-1,-1.6643274E-1,-7.5791776E-1,-2.0895083E-2,-5.8218926E-1,3.9596277E-1,6.2920266E-1,-2.365529E-1,-9.192641E-3,-5.003845E-3,4.6011698E-1,4.5048296E-1,8.3904356E-1,-1.1599618E-2,-7.714798E-3,3.1059482E-3,-5.758049E-3,