{"learner":{"attributes":{"scikit_learn":"{\"_estimator_type\": \"classifier\"}"},"feature_names":["P1 First serve Win %","P2 First serve Win %","P1 Second serve Win %","P2 Second serve Win %","P1 First serve return Win %","P2 First serve return Win %","P1 Second serve return Win %","P2 Second serve return Win %","P1 Tiebreak Wins","P2 Tiebreak Wins","P1 Fatigue","P2 Fatigue","P1 Clutch %","P2 Clutch %","P1 Momentum","P2 Momentum","P1 Surface Strength","P2 Surface Strength","P1 H2H Strength"],"feature_types":["float","float","float","float","float","float","float","float","float","float","float","float","int","int","int","int","int","int","float"],"gradient_booster":{"model":{"gbtree_model_param":{"num_parallel_tree":"1","num_trees":"300"},"iteration_indptr":[0,1,2,3,4,5,6,7,8,9,10,11,12,13,14,15,16,17,18,19,20,21,22,23,24,25,26,27,28,29,30,31,32,33,34,35,36,37,38,39,40,41,42,43,44,45,46,47,48,49,50,51,52,53,54,55,56,57,58,59,60,61,62,63,64,65,66,67,68,69,70,71,72,73,74,75,76,77,78,79,80,81,82,83,84,85,86,87,88,89,90,91,92,93,94,95,96,97,98,99,100,101,102,103,104,105,106,107,108,109,110,111,112,113,114,115,116,117,118,119,120,121,122,123,124,125,126,127,128,129,130,131,132,133,134,135,136,137,138,139,140,141,142,143,144,145,146,147,148,149,150,151,152,153,154,155,156,157,158,159,160,161,162,163,164,165,166,167,168,169,170,171,172,173,174,175,176,177,178,179,180,181,182,183,184,185,186,187,188,189,190,191,192,193,194,195,196,197,198,199,200,201,202,203,204,205,206,207,208,209,210,211,212,213,214,215,216,217,218,219,220,221,222,223,224,225,226,227,228,229,230,231,232,233,234,235,236,237,238,239,240,241,242,243,244,245,246,247,248,249,250,251,252,253,254,255,256,257,258,259,260,261,262,263,264,265,266,267,268,269,270,271,272,273,274,275,276,277,278,279,280,281,282,283,284,285,286,287,288,289,290,291,292,293,294,295,296,297,298,299,300],"tree_info":[0,0,0,0,0,0,0,0,0,0,0,0,0,0,0,0,0,0,0,0,0,0,0,0,0,0,0,0,0,0,0,0,0,0,0,0,0,0,0,0,0,0,0,0,0,0,0,0,0,0,0,0,0,0,0,0,0,0,0,0,0,0,0,0,0,0,0,0,0,0,0,0,0,0,0,0,0,0,0,0,0,0,0,0,0,0,0,0,0,0,0,0,0,0,0,0,0,0,0,0,0,0,0,0,0,0,0,0,0,0,0,0,0,0,0,0,0,0,0,0,0,0,0,0,0,0,0,0,0,0,0,0,0,0,0,0,0,0,0,0,0,0,0,0,0,0,0,0,0,0,0,0,0,0,0,0,0,0,0,0,0,0,0,0,0,0,0,0,0,0,0,0,0,0,0,0,0,0,0,0,0,0,0,0,0,0,0,0,0,0,0,0,0,0,0,0,0,0,0,0,0,0,0,0,0,0,0,0,0,0,0,0,0,0,0,0,0,0,0,0,0,0,0,0,0,0,0,0,0,0,0,0,0,0,0,0,0,0,0,0,0,0,0,0,0,0,0,0,0,0,0,0,0,0,0,0,0,0,0,0,0,0,0,0,0,0,0,0,0,0,0,0,0,0,0,0,0,0,0,0,0,0,0,0,0,0,0,0,0,0,0,0,0,0,0,0,0,0,0,0],"trees":[{"base_weights":[-6.770027E-3,-1.1691866E0,1.2161824E0,-1.4182684E0,-2.655395E-1,1.1508329E0,1.5600107E0,-1.5195502E0,-1.3875369E0,-5.775569E-1,-7.20366E-2,1.1841416E0,5.039701E-1,1.6195716E0,1.3931901E0,-4.2441558E-2,-7.641172E-2,-4.724958E-2,-6.9621615E-2,-2.9845566E-2,-1.2039907E-2,-6.8008865E-4,-8.844643E-3,6.1309256E-2,5.2673906E-2,7.824431E-3,3.4018125E-2,8.293822E-2,6.867247E-2,7.092329E-2,2.5194714E-2],"categories":[],"categories_nodes":[],"categories_segments":[],"categories_sizes":[],"default_left":[0,0,0,0,0,0,0,0,0,0,0,0,0,0,0,0,0,0,0,0,0,0,0,0,0,0,0,0,0,0,0],"id":0,"left_children":[1,3,5,7,9,11,13,15,17,19,21,23,25,27,29,-1,-1,-1,-1,-1,-1,-1,-1,-1,-1,-1,-1,-1,-1,-1,-1],"loss_changes":[7.588986E3,6.1566064E2,5.6657227E1,4.569336E0,3.5739174E1,4.658545E1,1.8438721E0,1.5505371E0,2.2746582E0,1.3338699E0,2.245842E0,1.0144775E1,6.5731335E0,5.9576416E-1,1.8864746E0,0E0,0E0,0E0,0E0,0E0,0E0,0E0,0E0,0E0,0E0,0E0,0E0,0E0,0E0,0E0,0E0],"parents":[2147483647,0,0,1,1,2,2,3,3,4,4,5,5,6,6,7,7,8,8,9,9,10,10,11,11,12,12,13,13,14,14],"right_children":[2,4,6,8,10,12,14,16,18,20,22,24,26,28,30,-1,-1,-1,-1,-1,-1,-1,-1,-1,-1,-1,-1,-1,-1,-1,-1],"split_conditions":[5E-1,1.8181819E-1,6.666667E-1,5.370257E1,3.3333334E-1,5.16129E-1,6.5153595E1,4.0196007E1,1.6663246E1,2.1755555E0,4.587602E1,6.568679E1,5.714286E-1,6.873311E1,2.1522222E0,-4.2441558E-2,-7.641172E-2,-4.724958E-2,-6.9621615E-2,-2.9845566E-2,-1.2039907E-2,-6.8008865E-4,-8.844643E-3,6.1309256E-2,5.2673906E-2,7.824431E-3,3.4018125E-2,8.293822E-2,6.867247E-2,7.092329E-2,2.5194714E-2],"split_indices":[18,18,18,0,18,18,1,1,3,10,2,1,18,0,10,0,0,0,0,0,0,0,0,0,0,0,0,0,0,0,0],"split_type":[0,0,0,0,0,0,0,0,0,0,0,0,0,0,0,0,0,0,0,0,0,0,0,0,0,0,0,0,0,0,0],"sum_hessian":[5.336416E3,2.735944E3,2.6004717E3,2.1443145E3,5.916298E2,2.1888052E3,4.1166635E2,4.8790088E2,1.6564135E3,2.2570415E2,3.6592566E2,2.0808271E3,1.0797806E2,2.9693967E2,1.1472669E2,7.4984765E0,4.804024E2,2.0245886E1,1.6361676E3,2.1270679E2,1.2997359E1,2.3570212E2,1.3022354E2,1.5679314E3,5.128958E2,3.6992485E1,7.098558E1,2.5119896E2,4.5740707E1,1.10977455E2,3.7492383E0],"tree_param":{"num_deleted":"0","num_feature":"19","num_nodes":"31","size_leaf_vector":"1"}},{"base_weights":[2.107878E-3,-2.2763604E-1,4.3895252E-2,-6.076924E-1,-6.617543E-2,1.6143751E-1,-2.2798907E-2,-4.5847735E-1,-9.285941E-1,9.4715023E-1,-1.10029824E-1,4.5777792E-1,9.149202E-2,4.1269E-2,-1.5923458E-1,-2.7403304E-2,1.4183057E-2,-7.297843E-2,-3.801539E-2,-9.813731E-4,5.17496E-2,-7.569007E-3,1.0955312E-2,6.0313024E-2,1.865511E-2,5.08948E-3,-3.5580218E-2,1.5816594E-3,3.8864873E-2,-5.7290234E-2,-7.252268E-3],"categories":[],"categories_nodes":[],"categories_segments":[],"categories_sizes":[],"default_left":[0,0,0,0,0,0,0,0,0,0,0,0,0,0,0,0,0,0,0,0,0,0,0,0,0,0,0,0,0,0,0],"id":1,"left_children":[1,3,5,7,9,11,13,15,17,19,21,23,25,27,29,-1,-1,-1,-1,-1,-1,-1,-1,-1,-1,-1,-1,-1,-1,-1,-1],"loss_changes":[5.154649E1,5.0664764E1,3.561696E1,1.1365509E1,2.5925253E1,3.404802E1,2.5349012E1,1.146262E1,5.78714E0,2.0760822E0,7.625305E0,1.9438797E1,1.1086709E1,1.3972689E1,1.2805044E1,0E0,0E0,0E0,0E0,0E0,0E0,0E0,0E0,0E0,0E0,0E0,0E0,0E0,0E0,0E0,0E0],"parents":[2147483647,0,0,1,1,2,2,3,3,4,4,5,5,6,6,7,7,8,8,9,9,10,10,11,11,12,12,13,13,14,14],"right_children":[2,4,6,8,10,12,14,16,18,20,22,24,26,28,30,-1,-1,-1,-1,-1,-1,-1,-1,-1,-1,-1,-1,-1,-1,-1,-1],"split_conditions":[5.22567E1,1E0,3.8839466E1,1.9122223E0,4.6343613E1,1E0,6.554483E1,1.8833333E0,3.1188646E1,1.72E0,4E0,1.6375E0,2.4033334E0,6.6666664E1,1.7900553E1,-2.7403304E-2,1.4183057E-2,-7.297843E-2,-3.801539E-2,-9.813731E-4,5.17496E-2,-7.569007E-3,1.0955312E-2,6.0313024E-2,1.865511E-2,5.08948E-3,-3.5580218E-2,1.5816594E-3,3.8864873E-2,-5.7290234E-2,-7.252268E-3],"split_indices":[0,8,3,10,1,9,1,10,3,10,8,10,10,3,2,0,0,0,0,0,0,0,0,0,0,0,0,0,0,0,0],"split_type":[0,0,0,0,0,0,0,0,0,0,0,0,0,0,0,0,0,0,0,0,0,0,0,0,0,0,0,0,0,0,0],"sum_hessian":[5.3671646E3,8.252967E2,4.5418677E3,2.4524933E2,5.8004736E2,1.6436561E3,2.8982117E3,1.6906503E2,7.6184296E1,2.3207333E1,5.5684E2,3.1281168E2,1.3308444E3,1.9726063E3,9.2560535E2,1.5108768E2,1.797735E1,1.6488117E1,5.9696175E1,1.9976751E0,2.1209658E1,4.951704E2,6.1669624E1,3.0445564E1,2.8236612E2,1.3148582E3,1.5986297E1,1.9481449E3,2.4461422E1,1.1992904E1,9.136125E2],"tree_param":{"num_deleted":"0","num_feature":"19","num_nodes":"31","size_leaf_vector":"1"}},{"base_weights":[-5.1110366E-4,-1.1094521E0,1.1576737E0,-1.3464525E0,-2.4699682E-1,1.0957605E0,1.4818448E0,-1.3509789E0,-8.3090764E-1,-5.2965873E-1,-7.377185E-2,1.1250577E0,5.3398037E-1,7.73535E-2,1.3369823E0,-4.4937175E-2,-6.7726396E-2,-4.417992E-2,-7.755067E-3,-2.9236158E-2,-1.8732805E-2,-4.2134523E-3,2.4945987E-2,6.696022E-2,5.5158686E-2,4.1519813E-3,3.453397E-2,1.7470008E-2,6.7266785E-2],"categories":[],"categories_nodes":[],"categories_segments":[],"categories_sizes":[],"default_left":[0,0,0,0,0,0,0,0,0,0,0,0,0,0,0,0,0,0,0,0,0,0,0,0,0,0,0,0,0],"id":2,"left_children":[1,3,5,7,9,11,13,15,17,19,21,23,25,-1,27,-1,-1,-1,-1,-1,-1,-1,-1,-1,-1,-1,-1,-1,-1],"loss_changes":[6.8660957E3,5.5789526E2,5.0858887E1,3.8759766E0,2.884626E1,3.5598633E1,1.8670044E0,2.1882324E0,6.1931515E-1,1.6927605E0,2.2479203E0,8.314453E0,7.7804165E0,0E0,6.5745544E-1,0E0,0E0,0E0,0E0,0E0,0E0,0E0,0E0,0E0,0E0,0E0,0E0,0E0,0E0],"parents":[2147483647,0,0,1,1,2,2,3,3,4,4,5,5,6,6,7,7,8,8,9,9,10,10,11,11,12,12,14,14],"right_children":[2,4,6,8,10,12,14,16,18,20,22,24,26,-1,28,-1,-1,-1,-1,-1,-1,-1,-1,-1,-1,-1,-1,-1,-1],"split_conditions":[5E-1,1.8181819E-1,6.666667E-1,1.6666667E-1,3.3333334E-1,5.16129E-1,6.427367E1,4.0196007E1,6.8299416E1,2.0533333E0,6.0750443E1,1.6666666E0,5.5172414E-1,7.73535E-2,2E1,-4.4937175E-2,-6.7726396E-2,-4.417992E-2,-7.755067E-3,-2.9236158E-2,-1.8732805E-2,-4.2134523E-3,2.4945987E-2,6.696022E-2,5.5158686E-2,4.1519813E-3,3.453397E-2,1.7470008E-2,6.7266785E-2],"split_indices":[18,18,18,18,18,18,1,1,0,11,3,11,18,0,3,0,0,0,0,0,0,0,0,0,0,0,0,0,0],"split_type":[0,0,0,0,0,0,0,0,0,0,0,0,0,0,0,0,0,0,0,0,0,0,0,0,0,0,0,0,0],"sum_hessian":[5.3439336E3,2.7300256E3,2.613908E3,2.1410967E3,5.8892883E2,2.198414E3,4.1549377E2,2.1208557E3,2.0240921E1,2.2299556E2,3.6593326E2,2.0884949E3,1.09919205E2,2.7982248E2,1.3567128E2,1.8494362E1,2.1023613E3,1.8491701E1,1.7492194E0,1.6249655E2,6.0499016E1,3.6018408E2,5.749169E0,1.880575E2,1.9004375E3,2.8740664E1,8.117854E1,1.497152E0,1.3417412E2],"tree_param":{"num_deleted":"0","num_feature":"19","num_nodes":"29","size_leaf_vector":"1"}},{"base_weights":[-1.00007645E-4,-1.0586278E0,1.100949E0,-1.2808408E0,-1.9558413E-1,1.0396203E0,1.4226605E0,-1.2947443E0,-7.4402237E-1,-4.7377726E-1,-5.4756258E-2,1.0696377E0,4.653339E-1,1.4817322E0,1.2659959E0,-6.87299E-2,-6.2953256E-2,-3.866198E-2,1.992106E-3,-3.989526E-3,-2.4982821E-2,-1.3042995E-3,-1.5293662E-2,5.557859E-2,4.6943255E-2,-1.4406096E-4,3.078419E-2,7.990294E-2,6.932297E-2,2.7977085E-2,6.488582E-2],"categories":[],"categories_nodes":[],"categories_segments":[],"categories_sizes":[],"default_left":[0,0,0,0,0,0,0,0,0,0,0,0,0,0,0,0,0,0,0,0,0,0,0,0,0,0,0,0,0,0,0],"id":3,"left_children":[1,3,5,7,9,11,13,15,17,19,21,23,25,27,29,-1,-1,-1,-1,-1,-1,-1,-1,-1,-1,-1,-1,-1,-1,-1,-1],"loss_changes":[6.218273E3,5.214253E2,5.0118164E1,1.5180908E1,2.1841099E1,3.7429443E1,1.973938E0,4.272705E0,1.3352909E0,1.8714676E0,2.668085E0,1.0418213E1,7.819746E0,1.0673218E0,1.9803314E0,0E0,0E0,0E0,0E0,0E0,0E0,0E0,0E0,0E0,0E0,0E0,0E0,0E0,0E0,0E0,0E0],"parents":[2147483647,0,0,1,1,2,2,3,3,4,4,5,5,6,6,7,7,8,8,9,9,10,10,11,11,12,12,13,13,14,14],"right_children":[2,4,6,8,10,12,14,16,18,20,22,24,26,28,30,-1,-1,-1,-1,-1,-1,-1,-1,-1,-1,-1,-1,-1,-1,-1,-1],"split_conditions":[5E-1,2.5E-1,6.666667E-1,1.6666667E-1,3.3333334E-1,5.16129E-1,1.98E0,5.603395E1,5.9573128E1,4.8724194E1,2.171111E0,6.568679E1,5.5172414E-1,3.896291E1,4.9978756E1,-6.87299E-2,-6.2953256E-2,-3.866198E-2,1.992106E-3,-3.989526E-3,-2.4982821E-2,-1.3042995E-3,-1.5293662E-2,5.557859E-2,4.6943255E-2,-1.4406096E-4,3.078419E-2,7.990294E-2,6.932297E-2,2.7977085E-2,6.488582E-2],"split_indices":[18,18,18,18,18,18,10,0,3,5,10,5,18,3,0,0,0,0,0,0,0,0,0,0,0,0,0,0,0,0,0],"split_type":[0,0,0,0,0,0,0,0,0,0,0,0,0,0,0,0,0,0,0,0,0,0,0,0,0,0,0,0,0,0,0],"sum_hessian":[5.333324E3,2.7191873E3,2.614137E3,2.1620322E3,5.571552E2,2.1991401E3,4.149969E2,2.1060735E3,5.595867E1,1.8645851E2,3.706967E2,2.0890833E3,1.1005688E2,2.9522275E2,1.1977415E2,6.388142E2,1.4672593E3,5.396093E1,1.9977448E0,1.1744355E1,1.7471416E2,3.3370154E2,3.6995144E1,1.5761626E3,5.1292065E2,2.698909E1,8.306779E1,1.2582234E2,1.6940039E2,5.9478674E0,1.1382629E2],"tree_param":{"num_deleted":"0","num_feature":"19","num_nodes":"31","size_leaf_vector":"1"}},{"base_weights":[6.2074014E-3,-1.1519258E0,9.2136514E-1,-1.226827E0,-5.169476E-1,-3.4477614E-2,1.0569748E0,-1.3686808E0,-1.205017E0,-7.48823E-1,-4.4279963E-1,-4.8890315E-2,4.185099E-1,9.9585164E-1,1.3823962E0,-3.2374427E-2,-6.905269E-2,-6.519037E-2,-5.9037846E-2,-3.885755E-2,1.925649E-3,-2.1113908E-2,-4.4458933E-2,-2.1122599E-2,-1.7237694E-3,2.3010827E-3,5.214728E-2,5.1388144E-2,2.0052832E-2,7.296875E-2,6.32861E-2],"categories":[],"categories_nodes":[],"categories_segments":[],"categories_sizes":[],"default_left":[0,0,0,0,0,0,0,0,0,0,0,0,0,0,0,0,0,0,0,0,0,0,0,0,0,0,0,0,0,0,0],"id":4,"left_children":[1,3,5,7,9,11,13,15,17,19,21,23,25,27,29,-1,-1,-1,-1,-1,-1,-1,-1,-1,-1,-1,-1,-1,-1,-1,-1],"loss_changes":[5.627197E3,1.1082666E2,3.8446216E2,4.833496E0,3.9495392E0,2.4325457E0,5.0285645E1,1.5320129E0,2.8339844E0,1.3432846E0,1.3752213E0,1.918373E0,2.6261597E0,4.1158936E1,1.8184814E0,0E0,0E0,0E0,0E0,0E0,0E0,0E0,0E0,0E0,0E0,0E0,0E0,0E0,0E0,0E0,0E0],"parents":[2147483647,0,0,1,1,2,2,3,3,4,4,5,5,6,6,7,7,8,8,9,9,10,10,11,11,12,12,13,13,14,14],"right_children":[2,4,6,8,10,12,14,16,18,20,22,24,26,28,30,-1,-1,-1,-1,-1,-1,-1,-1,-1,-1,-1,-1,-1,-1,-1,-1],"split_conditions":[3.3333334E-1,1.6666667E-1,5E-1,2.9089031E1,2.5E-1,2.26E0,6.666667E-1,4.2941814E1,5.370257E1,5.9573128E1,5.500845E1,2.3336527E1,4.6030014E1,5.16129E-1,4.5014084E1,-3.2374427E-2,-6.905269E-2,-6.519037E-2,-5.9037846E-2,-3.885755E-2,1.925649E-3,-2.1113908E-2,-4.4458933E-2,-2.1122599E-2,-1.7237694E-3,2.3010827E-3,5.214728E-2,5.1388144E-2,2.0052832E-2,7.296875E-2,6.32861E-2],"split_indices":[18,18,18,2,18,11,18,1,0,3,3,2,3,18,2,0,0,0,0,0,0,0,0,0,0,0,0,0,0,0,0],"split_type":[0,0,0,0,0,0,0,0,0,0,0,0,0,0,0,0,0,0,0,0,0,0,0,0,0,0,0,0,0,0,0],"sum_hessian":[5.307303E3,2.3425476E3,2.9647554E3,2.0945457E3,2.4800195E2,3.6845447E2,2.596301E3,2.7089206E2,1.8236537E3,5.7885048E1,1.9011691E2,3.5795743E2,1.0497058E1,2.1891736E3,4.0712747E2,5.4686337E0,2.654234E2,3.491437E2,1.4745099E3,5.5887188E1,1.9978616E0,1.8362126E2,6.4956512E0,1.2247888E1,3.4570953E2,7.247489E0,3.2495687E0,2.0770122E3,1.1216133E2,2.38357E2,1.6877046E2],"tree_param":{"num_deleted":"0","num_feature":"19","num_nodes":"31","size_leaf_vector":"1"}},{"base_weights":[2.6940168E-3,1.0305084E0,-4.059797E-3,1.1586895E0,2.1409918E-1,-1.3750285E-1,4.8125476E-2,-9.294425E-3,1.2234839E0,8.0710286E-1,-3.222875E-2,-8.714931E-1,-1.1929139E-1,1.1970616E-1,-4.1590266E-2,6.595292E-2,2.2820828E-2,1.1722354E-2,5.263604E-2,2.4230888E-3,-6.0003307E-2,1.6229888E-2,-7.1671517E-3,2.0308686E-2,4.6373582E-3,-1.8029703E-2,-1.0887872E-3],"categories":[],"categories_nodes":[],"categories_segments":[],"categories_sizes":[],"default_left":[0,0,0,0,0,0,0,0,0,0,0,0,0,0,0,0,0,0,0,0,0,0,0,0,0,0,0],"id":5,"left_children":[1,3,5,7,9,11,13,-1,15,17,-1,19,21,23,25,-1,-1,-1,-1,-1,-1,-1,-1,-1,-1,-1,-1],"loss_changes":[3.6759285E1,3.3695679E0,3.6644943E1,2.8107262E0,3.5335371E0,1.9670597E1,2.4298641E1,0E0,1.4815178E0,3.0798984E-1,0E0,1.0836533E1,1.54704685E1,1.6214252E1,1.0608392E1,0E0,0E0,0E0,0E0,0E0,0E0,0E0,0E0,0E0,0E0,0E0,0E0],"parents":[2147483647,0,0,1,1,2,2,3,3,4,4,5,5,6,6,8,8,9,9,11,11,12,12,13,13,14,14],"right_children":[2,4,6,8,10,12,14,-1,16,18,-1,20,22,24,26,-1,-1,-1,-1,-1,-1,-1,-1,-1,-1,-1,-1],"split_conditions":[1.34E0,1.9677777E0,5.6830097E1,4.446168E1,5.3142017E1,1.4416667E0,6.2204395E1,-9.294425E-3,5.0032444E1,2.8600418E1,-3.222875E-2,3.669633E1,4.6989548E1,1.6911111E0,2.831597E1,6.595292E-2,2.2820828E-2,1.1722354E-2,5.263604E-2,2.4230888E-3,-6.0003307E-2,1.6229888E-2,-7.1671517E-3,2.0308686E-2,4.6373582E-3,-1.8029703E-2,-1.0887872E-3],"split_indices":[11,10,4,4,5,10,5,0,3,3,0,3,5,11,2,0,0,0,0,0,0,0,0,0,0,0,0],"split_type":[0,0,0,0,0,0,0,0,0,0,0,0,0,0,0,0,0,0,0,0,0,0,0,0,0,0,0],"sum_hessian":[5.293853E3,3.3569508E1,5.2602837E3,2.8651758E1,4.9177475E0,1.478352E3,3.7819314E3,1.2313135E0,2.7420444E1,2.9443958E0,1.973352E0,3.465783E1,1.4436942E3,2.103387E3,1.6785446E3,2.3742577E1,3.6778684E0,1.4704876E0,1.4739081E0,9.345198E0,2.5312632E1,7.356204E1,1.3701321E3,1.7971034E2,1.9236765E3,9.7157616E1,1.581387E3],"tree_param":{"num_deleted":"0","num_feature":"19","num_nodes":"27","size_leaf_vector":"1"}},{"base_weights":[-5.3344215E-3,-9.653486E-1,1.0036201E0,-1.1796414E0,-2.0683762E-1,9.4886947E-1,1.2961028E0,-1.1839528E0,-7.096764E-1,-4.2723003E-1,-7.421197E-2,9.7916144E-1,3.6403748E-1,1.3613336E0,1.1453913E0,-7.585322E-2,-5.8869865E-2,-3.6810346E-2,-7.6353066E-3,-7.0179985E-3,-2.3672095E-2,-4.5081754E-3,1.6333388E-2,5.5027187E-2,4.6962567E-2,-3.6793107E-3,3.005049E-2,7.5100824E-2,6.263133E-2,4.682351E-2,6.3746564E-2],"categories":[],"categories_nodes":[],"categories_segments":[],"categories_sizes":[],"default_left":[0,0,0,0,0,0,0,0,0,0,0,0,0,0,0,0,0,0,0,0,0,0,0,0,0,0,0,0,0,0,0],"id":6,"left_children":[1,3,5,7,9,11,13,15,17,19,21,23,25,27,29,-1,-1,-1,-1,-1,-1,-1,-1,-1,-1,-1,-1,-1,-1,-1,-1],"loss_changes":[5.102438E3,4.385193E2,3.9900146E1,3.4245605E0,1.7384445E1,3.803662E1,2.3952637E0,2.7641602E0,2.0715904E-1,2.898304E0,2.415918E0,8.945068E0,1.1277035E1,2.330841E0,2.2651672E0,0E0,0E0,0E0,0E0,0E0,0E0,0E0,0E0,0E0,0E0,0E0,0E0,0E0,0E0,0E0,0E0],"parents":[2147483647,0,0,1,1,2,2,3,3,4,4,5,5,6,6,7,7,8,8,9,9,10,10,11,11,12,12,13,13,14,14],"right_children":[2,4,6,8,10,12,14,16,18,20,22,24,26,28,30,-1,-1,-1,-1,-1,-1,-1,-1,-1,-1,-1,-1,-1,-1,-1,-1],"split_conditions":[5E-1,2E-1,6.666667E-1,1.6666667E-1,3.3333334E-1,5.16129E-1,1.971111E0,1.3916667E0,6.831265E1,1.7428571E0,5E0,1E0,5.714286E-1,3.896291E1,2.0611112E0,-7.585322E-2,-5.8869865E-2,-3.6810346E-2,-7.6353066E-3,-7.0179985E-3,-2.3672095E-2,-4.5081754E-3,1.6333388E-2,5.5027187E-2,4.6962567E-2,-3.6793107E-3,3.005049E-2,7.5100824E-2,6.263133E-2,4.682351E-2,6.3746564E-2],"split_indices":[18,18,18,18,18,18,10,10,4,10,8,9,18,3,10,0,0,0,0,0,0,0,0,0,0,0,0,0,0,0,0],"split_type":[0,0,0,0,0,0,0,0,0,0,0,0,0,0,0,0,0,0,0,0,0,0,0,0,0,0,0,0,0,0,0],"sum_hessian":[5.2657905E3,2.6983604E3,2.5674304E3,2.1035227E3,5.9483777E2,2.1661807E3,4.012496E2,2.082895E3,2.0627481E1,2.2264056E2,3.721972E2,2.0588655E3,1.073153E2,2.744358E2,1.2681382E2,3.5752544E1,2.0471426E3,1.9382421E1,1.2450597E0,3.1449343E1,1.9119122E2,3.5869916E2,1.3498029E1,5.0286877E2,1.5559966E3,3.7939957E1,6.937534E1,1.1403756E2,1.6039824E2,5.1685318E1,7.51285E1],"tree_param":{"num_deleted":"0","num_feature":"19","num_nodes":"31","size_leaf_vector":"1"}},{"base_weights":[4.7980915E-3,-9.132411E-1,9.7298634E-1,-1.1163651E0,-1.9669782E-1,9.1719824E-1,1.2670208E0,-1.2424691E0,-1.0933734E0,-4.176006E-1,-6.271284E-2,9.423792E-1,4.3357116E-1,1.4453325E0,1.2175387E0,-6.2673025E-2,-2.4096308E-2,-5.7998147E-2,-5.2697398E-2,-3.411148E-2,-1.8335566E-2,6.7813727E-3,-5.0691417E-3,5.9644062E-2,4.603104E-2,3.3899208E-3,3.178089E-2,3.410707E-2,7.407853E-2,6.3275866E-2,5.1771384E-2],"categories":[],"categories_nodes":[],"categories_segments":[],"categories_sizes":[],"default_left":[0,0,0,0,0,0,0,0,0,0,0,0,0,0,0,0,0,0,0,0,0,0,0,0,0,0,0,0,0,0,0],"id":7,"left_children":[1,3,5,7,9,11,13,15,17,19,21,23,25,27,29,-1,-1,-1,-1,-1,-1,-1,-1,-1,-1,-1,-1,-1,-1,-1,-1],"loss_changes":[4.670042E3,3.9230762E2,4.07854E1,4.7331543E0,1.76398E1,2.581128E1,1.8153076E0,2.0429993E0,3.4645996E0,2.7820969E0,2.872323E0,1.0051514E1,7.9683895E0,1.2757874E0,1.5163879E0,0E0,0E0,0E0,0E0,0E0,0E0,0E0,0E0,0E0,0E0,0E0,0E0,0E0,0E0,0E0,0E0],"parents":[2147483647,0,0,1,1,2,2,3,3,4,4,5,5,6,6,7,7,8,8,9,9,10,10,11,11,12,12,13,13,14,14],"right_children":[2,4,6,8,10,12,14,16,18,20,22,24,26,28,30,-1,-1,-1,-1,-1,-1,-1,-1,-1,-1,-1,-1,-1,-1,-1,-1],"split_conditions":[5E-1,1.8181819E-1,6.666667E-1,1.7366667E0,3.3333334E-1,5.16129E-1,1E0,7.717742E1,3.856113E1,1.7955556E0,1E0,1.6555556E0,5.714286E-1,4.9751984E1,6.781445E1,-6.2673025E-2,-2.4096308E-2,-5.7998147E-2,-5.2697398E-2,-3.411148E-2,-1.8335566E-2,6.7813727E-3,-5.0691417E-3,5.9644062E-2,4.603104E-2,3.3899208E-3,3.178089E-2,3.410707E-2,7.407853E-2,6.3275866E-2,5.1771384E-2],"split_indices":[18,18,18,11,18,18,8,1,2,11,9,10,18,4,4,0,0,0,0,0,0,0,0,0,0,0,0,0,0,0,0],"split_type":[0,0,0,0,0,0,0,0,0,0,0,0,0,0,0,0,0,0,0,0,0,0,0,0,0,0,0,0,0,0,0],"sum_hessian":[5.252118E3,2.6959072E3,2.556211E3,2.100036E3,5.958712E2,2.1520205E3,4.0419043E2,3.156619E2,1.784374E3,2.2416713E2,3.7170407E2,2.0446154E3,1.0740513E2,8.167182E1,3.2251862E2,3.1052606E2,5.1358294E0,6.530142E2,1.1313599E3,3.415448E1,1.9001265E2,6.023721E1,3.1146686E2,1.5909874E2,1.8855166E3,3.86931E1,6.871203E1,4.600796E0,7.707102E1,2.5055786E2,7.196074E1],"tree_param":{"num_deleted":"0","num_feature":"19","num_nodes":"31","size_leaf_vector":"1"}},{"base_weights":[1.9355104E-3,-8.850602E-1,9.310208E-1,-1.0822017E0,-1.9396313E-1,8.752424E-1,1.2324688E0,-1.4348704E0,-1.0757962E0,-4.200352E-1,-6.0338456E-2,9.014607E-1,3.8570106E-1,1.3374538E0,1.1539687E0,-2.146969E-2,-7.290715E-2,-5.4003756E-2,-3.630761E-2,-2.2025172E-2,-4.9106306E-3,-1.5369396E-3,-1.5967859E-2,6.4320914E-2,4.4553313E-2,-2.3195453E-3,3.0072952E-2,7.089373E-2,5.290119E-2,5.9768487E-2,4.2746533E-2],"categories":[],"categories_nodes":[],"categories_segments":[],"categories_sizes":[],"default_left":[0,0,0,0,0,0,0,0,0,0,0,0,0,0,0,0,0,0,0,0,0,0,0,0,0,0,0,0,0,0,0],"id":8,"left_children":[1,3,5,7,9,11,13,15,17,19,21,23,25,27,29,-1,-1,-1,-1,-1,-1,-1,-1,-1,-1,-1,-1,-1,-1,-1,-1],"loss_changes":[4.29604E3,3.631433E2,4.173242E1,3.1433105E0,1.789255E1,2.7273193E1,1.7128296E0,1.6985321E-1,2.2702637E0,1.407074E0,2.857265E0,7.024048E0,1.0389505E1,2.1571655E0,1.867157E0,0E0,0E0,0E0,0E0,0E0,0E0,0E0,0E0,0E0,0E0,0E0,0E0,0E0,0E0,0E0,0E0],"parents":[2147483647,0,0,1,1,2,2,3,3,4,4,5,5,6,6,7,7,8,8,9,9,10,10,11,11,12,12,13,13,14,14],"right_children":[2,4,6,8,10,12,14,16,18,20,22,24,26,28,30,-1,-1,-1,-1,-1,-1,-1,-1,-1,-1,-1,-1,-1,-1,-1,-1],"split_conditions":[5E-1,1.8181819E-1,6.666667E-1,1.3916667E0,3.3333334E-1,5.16129E-1,3.896291E1,3.3333332E1,1.4285715E-1,7.2850784E1,2.171111E0,1.5022222E0,5.714286E-1,1.9977778E0,7.038417E1,-2.146969E-2,-7.290715E-2,-5.4003756E-2,-3.630761E-2,-2.2025172E-2,-4.9106306E-3,-1.5369396E-3,-1.5967859E-2,6.4320914E-2,4.4553313E-2,-2.3195453E-3,3.0072952E-2,7.089373E-2,5.290119E-2,5.9768487E-2,4.2746533E-2],"split_indices":[18,18,18,10,18,18,3,0,18,1,10,10,18,10,1,0,0,0,0,0,0,0,0,0,0,0,0,0,0,0,0],"split_type":[0,0,0,0,0,0,0,0,0,0,0,0,0,0,0,0,0,0,0,0,0,0,0,0,0,0,0,0,0,0,0],"sum_hessian":[5.2110425E3,2.6659312E3,2.5451113E3,2.0737964E3,5.9213477E2,2.1510042E3,3.9410712E2,3.3016262E1,2.0407802E3,2.1917741E2,3.7295734E2,2.0408607E3,1.10143456E2,1.6174904E2,2.3235806E2,1.1869199E0,3.1829344E1,2.0140437E3,2.6736452E1,2.0572438E2,1.3453028E1,3.3571213E2,3.7245216E1,5.0429943E1,1.9904308E3,3.694327E1,7.320018E1,1.2243712E2,3.9311928E1,2.0146796E2,3.08901E1],"tree_param":{"num_deleted":"0","num_feature":"19","num_nodes":"31","size_leaf_vector":"1"}},{"base_weights":[3.441246E-3,-8.328174E-1,8.819897E-1,-1.0238177E0,-1.7878436E-1,8.245015E-1,1.1883439E0,-1.1987213E0,-1.0067496E0,-3.9787915E-1,-4.8080835E-2,8.502538E-1,3.6384422E-1,1.2243431E0,9.750596E-1,-6.045407E-2,-2.0828832E-2,-5.25168E-2,-4.7076494E-2,-2.8804604E-2,-1.7441921E-2,-7.713283E-4,-1.0209881E-2,4.5234337E-2,3.820145E-2,-1.1220273E-3,2.433032E-2,6.401421E-2,5.4342687E-2,3.0486489E-2,5.5227008E-2],"categories":[],"categories_nodes":[],"categories_segments":[],"categories_sizes":[],"default_left":[0,0,0,0,0,0,0,0,0,0,0,0,0,0,0,0,0,0,0,0,0,0,0,0,0,0,0,0,0,0,0],"id":9,"left_children":[1,3,5,7,9,11,13,15,17,19,21,23,25,27,29,-1,-1,-1,-1,-1,-1,-1,-1,-1,-1,-1,-1,-1,-1,-1,-1],"loss_changes":[3.791513E3,3.3010327E2,4.3343506E1,4.901367E0,1.712897E1,2.4867554E1,1.84198E0,9.279785E-1,4.328125E0,1.7533569E0,1.9147047E0,8.739136E0,5.422209E0,1.1802368E0,2.259716E0,0E0,0E0,0E0,0E0,0E0,0E0,0E0,0E0,0E0,0E0,0E0,0E0,0E0,0E0,0E0,0E0],"parents":[2147483647,0,0,1,1,2,2,3,3,4,4,5,5,6,6,7,7,8,8,9,9,10,10,11,11,12,12,13,13,14,14],"right_children":[2,4,6,8,10,12,14,16,18,20,22,24,26,28,30,-1,-1,-1,-1,-1,-1,-1,-1,-1,-1,-1,-1,-1,-1,-1,-1],"split_conditions":[5E-1,1.8181819E-1,6.666667E-1,4.923339E1,3.3333334E-1,5.16129E-1,6.878023E1,1E2,1.9766667E0,1.8333334E0,4.1666666E-1,6.237271E1,5.5172414E-1,6.462495E1,7.011348E1,-6.045407E-2,-2.0828832E-2,-5.25168E-2,-4.7076494E-2,-2.8804604E-2,-1.7441921E-2,-7.713283E-4,-1.0209881E-2,4.5234337E-2,3.820145E-2,-1.1220273E-3,2.433032E-2,6.401421E-2,5.4342687E-2,3.0486489E-2,5.5227008E-2],"split_indices":[18,18,18,0,18,18,0,2,11,11,18,5,18,5,0,0,0,0,0,0,0,0,0,0,0,0,0,0,0,0,0],"split_type":[0,0,0,0,0,0,0,0,0,0,0,0,0,0,0,0,0,0,0,0,0,0,0,0,0,0,0,0,0,0,0],"sum_hessian":[5.1586714E3,2.642973E3,2.5156985E3,2.0451523E3,5.978205E2,2.1213188E3,3.943798E2,1.7567688E2,1.8694755E3,2.2261417E2,3.752063E2,2.0082075E3,1.13111275E2,3.3337137E2,6.100841E1,1.728416E2,2.8352737E0,1.1115328E3,7.579426E2,4.572033E1,1.7689383E2,3.1121057E2,6.3995747E1,1.225235E3,7.829725E2,2.747508E1,8.563619E1,2.3105063E2,1.0232075E2,1.7458422E1,4.3549988E1],"tree_param":{"num_deleted":"0","num_feature":"19","num_nodes":"31","size_leaf_vector":"1"}},{"base_weights":[-2.653085E-3,-8.0923057E-1,8.4770435E-1,-9.8539037E-1,-1.5052046E-1,7.930688E-1,1.1408647E0,-9.965214E-1,-5.804614E-1,-3.2051852E-1,-6.727027E-2,8.200062E-1,2.9668322E-1,1.1950902E0,1.0232104E0,-5.8099885E-2,-4.9023595E-2,-3.9800752E-2,-1.7461754E-2,-1.4169461E-2,-2.86035E-2,5.660286E-3,-5.0610867E-3,4.3553445E-2,3.691649E-2,-5.510516E-3,2.1475581E-2,2.2911433E-2,6.0504835E-2,5.3679522E-2,3.7042327E-2],"categories":[],"categories_nodes":[],"categories_segments":[],"categories_sizes":[],"default_left":[0,0,0,0,0,0,0,0,0,0,0,0,0,0,0,0,0,0,0,0,0,0,0,0,0,0,0,0,0,0,0],"id":10,"left_children":[1,3,5,7,9,11,13,15,17,19,21,23,25,27,29,-1,-1,-1,-1,-1,-1,-1,-1,-1,-1,-1,-1,-1,-1,-1,-1],"loss_changes":[3.4972717E3,3.0350537E2,3.8851074E1,8.726807E0,7.8095264E0,2.7776245E1,1.2502441E0,4.1933594E0,2.594263E0,1.5343304E0,2.2951934E0,7.644043E0,5.961652E0,2.3137817E0,1.0432281E0,0E0,0E0,0E0,0E0,0E0,0E0,0E0,0E0,0E0,0E0,0E0,0E0,0E0,0E0,0E0,0E0],"parents":[2147483647,0,0,1,1,2,2,3,3,4,4,5,5,6,6,7,7,8,8,9,9,10,10,11,11,12,12,13,13,14,14],"right_children":[2,4,6,8,10,12,14,16,18,20,22,24,26,28,30,-1,-1,-1,-1,-1,-1,-1,-1,-1,-1,-1,-1,-1,-1,-1,-1],"split_conditions":[5E-1,2.5E-1,6.666667E-1,1.6666667E-1,3.3333334E-1,5.16129E-1,6.427367E1,4.923339E1,2E0,4E0,1E0,6.237271E1,5.5172414E-1,2E1,6.878023E1,-5.8099885E-2,-4.9023595E-2,-3.9800752E-2,-1.7461754E-2,-1.4169461E-2,-2.86035E-2,5.660286E-3,-5.0610867E-3,4.3553445E-2,3.691649E-2,-5.510516E-3,2.1475581E-2,2.2911433E-2,6.0504835E-2,5.3679522E-2,3.7042327E-2],"split_indices":[18,18,18,18,18,18,1,0,8,9,9,1,18,2,0,0,0,0,0,0,0,0,0,0,0,0,0,0,0,0,0],"split_type":[0,0,0,0,0,0,0,0,0,0,0,0,0,0,0,0,0,0,0,0,0,0,0,0,0,0,0,0,0,0,0],"sum_hessian":[5.0969614E3,2.615842E3,2.4811191E3,2.063501E3,5.5234106E2,2.0944817E3,3.8663763E2,2.0068734E3,5.6627697E1,1.8063394E2,3.7170712E2,1.9860526E3,1.08429054E2,2.5839084E2,1.282468E2,1.711241E2,1.8357493E3,2.804294E1,2.8584757E1,1.5925435E2,2.1379587E1,5.8484802E1,3.1322232E2,1.2161016E3,7.69951E2,2.6726868E1,8.170219E1,5.786656E0,2.5260417E2,1.0645136E2,2.1795431E1],"tree_param":{"num_deleted":"0","num_feature":"19","num_nodes":"31","size_leaf_vector":"1"}},{"base_weights":[8.163404E-3,-8.8677204E-1,7.081548E-1,-9.4949734E-1,-3.2337117E-1,-2.1359101E-2,8.1690425E-1,-1.0311322E0,-9.1377395E-1,-1.0759889E-1,-3.5913792E-1,4.119523E-3,-2.2970857E-1,7.63746E-1,1.1047013E0,-2.5234178E-2,-5.208827E-2,-3.4288574E-2,-4.6466183E-2,-1.7687796E-2,1.5379381E-2,-1.868431E-2,1.1601876E-2,1.3636262E-3,-1.0254129E-2,-5.321043E-3,-1.2409487E-2,3.9469328E-2,1.4985097E-2,5.8003247E-2,4.793772E-2],"categories":[],"categories_nodes":[],"categories_segments":[],"categories_sizes":[],"default_left":[0,0,0,0,0,0,0,0,0,0,0,0,0,0,0,0,0,0,0,0,0,0,0,0,0,0,0,0,0,0,0],"id":11,"left_children":[1,3,5,7,9,11,13,15,17,19,21,23,25,27,29,-1,-1,-1,-1,-1,-1,-1,-1,-1,-1,-1,-1,-1,-1,-1,-1],"loss_changes":[3.1688508E3,7.814978E1,2.2519641E2,4.881958E0,1.6894913E0,1.9608282E0,3.6946655E1,2.8338013E0,4.319214E0,3.5088363E0,1.7350674E0,1.6037725E0,6.5289736E-2,2.4610352E1,1.9815369E0,0E0,0E0,0E0,0E0,0E0,0E0,0E0,0E0,0E0,0E0,0E0,0E0,0E0,0E0,0E0,0E0],"parents":[2147483647,0,0,1,1,2,2,3,3,4,4,5,5,6,6,7,7,8,8,9,9,10,10,11,11,12,12,13,13,14,14],"right_children":[2,4,6,8,10,12,14,16,18,20,22,24,26,28,30,-1,-1,-1,-1,-1,-1,-1,-1,-1,-1,-1,-1,-1,-1,-1,-1],"split_conditions":[3.3333334E-1,1.8181819E-1,5E-1,5.603395E1,1.7428571E0,4.4117647E-1,6.666667E-1,4.2941814E1,5.7299675E1,1.7022222E0,7.444773E1,7.152494E1,5.9882774E1,5.16129E-1,6.5153595E1,-2.5234178E-2,-5.208827E-2,-3.4288574E-2,-4.6466183E-2,-1.7687796E-2,1.5379381E-2,-1.868431E-2,1.1601876E-2,1.3636262E-3,-1.0254129E-2,-5.321043E-3,-1.2409487E-2,3.9469328E-2,1.4985097E-2,5.8003247E-2,4.793772E-2],"split_indices":[18,18,18,0,10,18,18,1,0,10,0,1,0,18,1,0,0,0,0,0,0,0,0,0,0,0,0,0,0,0,0],"split_type":[0,0,0,0,0,0,0,0,0,0,0,0,0,0,0,0,0,0,0,0,0,0,0,0,0,0,0,0,0,0,0],"sum_hessian":[5.0564463E3,2.2190874E3,2.837359E3,1.9961627E3,2.2292471E2,3.681999E2,2.469159E3,5.991419E2,1.3970209E3,3.2267994E1,1.9065672E2,3.2895312E2,3.9246765E1,2.0872776E3,3.8188144E2,1.2821357E1,5.863205E2,9.207277E1,1.3049481E3,2.0350492E1,1.1917502E1,1.8643658E2,4.22014E0,2.9695758E2,3.1995522E1,5.997284E0,3.324948E1,1.9773208E3,1.09956764E2,2.7182016E2,1.1006127E2],"tree_param":{"num_deleted":"0","num_feature":"19","num_nodes":"31","size_leaf_vector":"1"}},{"base_weights":[1.5629492E-3,-7.456702E-1,7.850197E-1,-9.191703E-1,-1.659437E-1,7.3535514E-1,1.0580527E0,-1.0299137E0,-8.934357E-1,-3.325365E-1,-6.4928666E-2,7.5969714E-1,2.9906192E-1,1.093234E0,8.493916E-1,-5.2171726E-2,-2.83026E-2,-1.4077352E-2,-4.48446E-2,-1.770226E-2,-8.5308384E-5,-1.8518066E-3,-1.46258315E-2,6.064224E-2,3.734861E-2,1.2657241E-3,2.179722E-2,5.7791866E-2,4.7446754E-2,2.1118907E-2,4.608736E-2],"categories":[],"categories_nodes":[],"categories_segments":[],"categories_sizes":[],"default_left":[0,0,0,0,0,0,0,0,0,0,0,0,0,0,0,0,0,0,0,0,0,0,0,0,0,0,0,0,0,0,0],"id":12,"left_children":[1,3,5,7,9,11,13,15,17,19,21,23,25,27,29,-1,-1,-1,-1,-1,-1,-1,-1,-1,-1,-1,-1,-1,-1,-1,-1],"loss_changes":[2.9349058E3,2.579391E2,3.2407715E1,4.7075195E0,9.945374E0,2.1798706E1,1.8197021E0,1.7036743E0,3.1520996E0,1.5885124E0,2.3375912E0,1.0417236E1,4.157484E0,1.7657166E0,1.4180641E0,0E0,0E0,0E0,0E0,0E0,0E0,0E0,0E0,0E0,0E0,0E0,0E0,0E0,0E0,0E0,0E0],"parents":[2147483647,0,0,1,1,2,2,3,3,4,4,5,5,6,6,7,7,8,8,9,9,10,10,11,11,12,12,13,13,14,14],"right_children":[2,4,6,8,10,12,14,16,18,20,22,24,26,28,30,-1,-1,-1,-1,-1,-1,-1,-1,-1,-1,-1,-1,-1,-1,-1,-1],"split_conditions":[5E-1,1.8181819E-1,6.666667E-1,3.1970898E1,3.3333334E-1,5.16129E-1,6.878023E1,7.1941666E1,3.206414E1,7.2850784E1,4.4117647E-1,1.5022222E0,5.714286E-1,6.462495E1,6.993311E1,-5.2171726E-2,-2.83026E-2,-1.4077352E-2,-4.48446E-2,-1.770226E-2,-8.5308384E-5,-1.8518066E-3,-1.46258315E-2,6.064224E-2,3.734861E-2,1.2657241E-3,2.179722E-2,5.7791866E-2,4.7446754E-2,2.1118907E-2,4.608736E-2],"split_indices":[18,18,18,2,18,18,0,0,2,1,18,10,18,1,0,0,0,0,0,0,0,0,0,0,0,0,0,0,0,0,0],"split_type":[0,0,0,0,0,0,0,0,0,0,0,0,0,0,0,0,0,0,0,0,0,0,0,0,0,0,0,0,0,0,0],"sum_hessian":[5.0112915E3,2.5649663E3,2.4463252E3,1.9736948E3,5.912714E2,2.07295E3,3.7337534E2,3.6480698E2,1.6088878E3,2.2232451E2,3.689469E2,1.9627041E3,1.1024588E2,3.1587753E2,5.7497807E1,3.532605E2,1.1546483E1,9.499976E0,1.5993878E3,2.086867E2,1.3637791E1,3.2970224E2,3.9244644E1,5.103356E1,1.9116705E3,3.7145187E1,7.310069E1,2.1541205E2,1.0046548E2,9.321803E0,4.8176006E1],"tree_param":{"num_deleted":"0","num_feature":"19","num_nodes":"31","size_leaf_vector":"1"}},{"base_weights":[4.84343E-3,-7.120322E-1,7.619211E-1,-8.8592595E-1,-1.347595E-1,7.099126E-1,1.0479317E0,-1.0432783E0,-8.5752726E-1,-3.0598488E-1,-3.5104286E-2,7.328447E-1,2.970821E-1,1.1169139E0,8.9502627E-1,-4.867266E-2,-5.881965E-2,5.3468402E-3,-4.305293E-2,-1.4198094E-2,-3.2025233E-2,-7.3396135E-4,-1.6168667E-2,4.681731E-2,3.5443887E-2,-3.236008E-3,2.375061E-2,5.9938442E-2,4.6143178E-2,2.2353644E-2,4.6783056E-2],"categories":[],"categories_nodes":[],"categories_segments":[],"categories_sizes":[],"default_left":[0,0,0,0,0,0,0,0,0,0,0,0,0,0,0,0,0,0,0,0,0,0,0,0,0,0,0,0,0,0,0],"id":13,"left_children":[1,3,5,7,9,11,13,15,17,19,21,23,25,27,29,-1,-1,-1,-1,-1,-1,-1,-1,-1,-1,-1,-1,-1,-1,-1,-1],"loss_changes":[2.6920383E3,2.5563269E2,3.514087E1,7.853882E0,1.007337E1,1.9136353E1,2.893341E0,1.5939331E0,5.7595215E0,1.4189014E0,2.2013896E0,8.779175E0,7.0648203E0,2.8695679E0,1.7619476E0,0E0,0E0,0E0,0E0,0E0,0E0,0E0,0E0,0E0,0E0,0E0,0E0,0E0,0E0,0E0,0E0],"parents":[2147483647,0,0,1,1,2,2,3,3,4,4,5,5,6,6,7,7,8,8,9,9,10,10,11,11,12,12,13,13,14,14],"right_children":[2,4,6,8,10,12,14,16,18,20,22,24,26,28,30,-1,-1,-1,-1,-1,-1,-1,-1,-1,-1,-1,-1,-1,-1,-1,-1],"split_conditions":[5E-1,2E-1,6.666667E-1,1.7366667E0,3.3333334E-1,5.16129E-1,1.971111E0,1.6933334E0,1.7388889E0,2.1411111E0,7.328428E1,1.6911111E0,5.714286E-1,6.48972E1,2.8388002E1,-4.867266E-2,-5.881965E-2,5.3468402E-3,-4.305293E-2,-1.4198094E-2,-3.2025233E-2,-7.3396135E-4,-1.6168667E-2,4.681731E-2,3.5443887E-2,-3.236008E-3,2.375061E-2,5.9938442E-2,4.6143178E-2,2.2353644E-2,4.6783056E-2],"split_indices":[18,18,18,11,18,18,10,11,11,11,1,11,18,1,6,0,0,0,0,0,0,0,0,0,0,0,0,0,0,0,0],"split_type":[0,0,0,0,0,0,0,0,0,0,0,0,0,0,0,0,0,0,0,0,0,0,0,0,0,0,0,0,0,0,0],"sum_hessian":[4.958175E3,2.546735E3,2.41144E3,1.9567595E3,5.899755E2,2.043356E3,3.6808398E2,2.936966E2,1.6630629E3,2.1628645E2,3.7368906E2,1.9350896E3,1.08266365E2,2.4930632E2,1.18777664E2,1.9809758E2,9.559904E1,5.960213E0,1.6571027E3,2.0466148E2,1.1624974E1,3.4994495E2,2.374413E1,1.9987752E2,1.735212E3,3.5901234E1,7.2365135E1,1.7170123E2,7.760508E1,1.0876665E1,1.07901E2],"tree_param":{"num_deleted":"0","num_feature":"19","num_nodes":"31","size_leaf_vector":"1"}},{"base_weights":[-5.2936836E-3,8.295829E-1,-1.0290117E-2,9.8689055E-1,-1.1708133E-1,-1.3899614E-1,1.6057119E-2,5.241161E-1,6.0106825E-2,-4.9274903E-2,3.7750292E-1,-3.573368E-1,-3.4267683E-2,1.9118246E-1,-4.141704E-3,3.6855977E-2,-2.3022188E-2,-1.9476403E-2,4.6643525E-2,-2.334678E-2,-6.3841543E-3,3.1527378E-2,-3.0664995E-3,1.6435107E-2,-2.3324175E-3,6.0597225E-4,-8.272112E-3],"categories":[],"categories_nodes":[],"categories_segments":[],"categories_sizes":[],"default_left":[0,0,0,0,0,0,0,0,0,0,0,0,0,0,0,0,0,0,0,0,0,0,0,0,0,0,0],"id":14,"left_children":[1,3,5,7,9,11,13,15,-1,-1,17,19,21,23,25,-1,-1,-1,-1,-1,-1,-1,-1,-1,-1,-1,-1],"loss_changes":[2.0421528E1,4.4526443E0,1.6501137E1,1.8681946E0,2.5384178E0,1.8895031E1,1.4290079E1,2.3809822E0,0E0,0E0,2.0403495E0,6.684204E0,1.0112473E1,1.3678791E1,9.504397E0,0E0,0E0,0E0,0E0,0E0,0E0,0E0,0E0,0E0,0E0,0E0,0E0],"parents":[2147483647,0,0,1,1,2,2,3,3,4,4,5,5,6,6,7,7,10,10,11,11,12,12,13,13,14,14],"right_children":[2,4,6,8,10,12,14,16,-1,-1,18,20,22,24,26,-1,-1,-1,-1,-1,-1,-1,-1,-1,-1,-1,-1],"split_conditions":[1.34E0,1.95E0,5.3237617E1,3.856155E1,1.9788889E0,1E0,5.1166027E1,3.6269775E1,6.0106825E-2,-4.9274903E-2,5.915846E1,5.1848267E1,4.6343613E1,1.9922222E0,7.2348335E1,3.6855977E-2,-2.3022188E-2,-1.9476403E-2,4.6643525E-2,-2.334678E-2,-6.3841543E-3,3.1527378E-2,-3.0664995E-3,1.6435107E-2,-2.3324175E-3,6.0597225E-4,-8.272112E-3],"split_indices":[11,10,0,2,10,8,1,2,0,0,0,0,1,10,1,0,0,0,0,0,0,0,0,0,0,0,0],"split_type":[0,0,0,0,0,0,0,0,0,0,0,0,0,0,0,0,0,0,0,0,0,0,0,0,0,0,0],"sum_hessian":[4.892553E3,2.8124168E1,4.864429E3,2.408025E1,4.0439186E0,8.2585565E2,4.0385735E3,8.735044E0,1.5345205E1,1.1072221E0,2.9366965E0,2.6693356E2,5.589221E2,4.1676077E2,3.6218127E3,7.3880134E0,1.3470299E0,1.3587322E0,1.5779643E0,1.7999867E2,8.693489E1,2.0989603E1,5.379325E2,2.6382724E2,1.5293353E2,3.2909663E3,3.3084647E2],"tree_param":{"num_deleted":"0","num_feature":"19","num_nodes":"27","size_leaf_vector":"1"}},{"base_weights":[-2.9552623E-3,-7.99417E-1,6.202613E-1,-8.5753894E-1,-2.8231823E-1,-2.8071797E-2,7.2038764E-1,-1.2727594E0,-8.5021234E-1,-1.9733164E-2,-3.257634E-1,-6.0415875E-2,3.571907E-1,6.7372286E-1,9.823975E-1,-6.4883076E-2,-1.5215469E-2,-4.5204666E-2,-4.094581E-2,-1.2694314E-2,2.1415386E-2,-1.69415E-2,1.2676358E-2,-9.832842E-4,-1.1839974E-2,2.898331E-2,-1.2046023E-2,3.472882E-2,1.4839577E-2,6.0806233E-2,4.7217213E-2],"categories":[],"categories_nodes":[],"categories_segments":[],"categories_sizes":[],"default_left":[0,0,0,0,0,0,0,0,0,0,0,0,0,0,0,0,0,0,0,0,0,0,0,0,0,0,0,0,0,0,0],"id":15,"left_children":[1,3,5,7,9,11,13,15,17,19,21,23,25,27,29,-1,-1,-1,-1,-1,-1,-1,-1,-1,-1,-1,-1,-1,-1,-1,-1],"loss_changes":[2.435219E3,6.448657E1,1.7869177E2,4.8061523E0,2.4931412E0,4.6217594E0,2.8489258E1,3.6597443E-1,2.472168E0,3.4836519E0,1.5084553E0,2.4494295E0,3.9635553E0,1.5726501E1,2.0379028E0,0E0,0E0,0E0,0E0,0E0,0E0,0E0,0E0,0E0,0E0,0E0,0E0,0E0,0E0,0E0,0E0],"parents":[2147483647,0,0,1,1,2,2,3,3,4,4,5,5,6,6,7,7,8,8,9,9,10,10,11,11,12,12,13,13,14,14],"right_children":[2,4,6,8,10,12,14,16,18,20,22,24,26,28,30,-1,-1,-1,-1,-1,-1,-1,-1,-1,-1,-1,-1,-1,-1,-1,-1],"split_conditions":[3.3333334E-1,1.8181819E-1,5E-1,1.3916667E0,1.7428571E0,2.1388888E0,6.666667E-1,7.2375694E1,3.8526783E1,1.72E0,7.444773E1,2.062963E0,5.081103E1,5.16129E-1,1.6933334E0,-6.4883076E-2,-1.5215469E-2,-4.5204666E-2,-4.094581E-2,-1.2694314E-2,2.1415386E-2,-1.69415E-2,1.2676358E-2,-9.832842E-4,-1.1839974E-2,2.898331E-2,-1.2046023E-2,3.472882E-2,1.4839577E-2,6.0806233E-2,4.7217213E-2],"split_indices":[18,18,18,10,10,11,18,3,2,10,0,11,2,18,10,0,0,0,0,0,0,0,0,0,0,0,0,0,0,0,0],"split_type":[0,0,0,0,0,0,0,0,0,0,0,0,0,0,0,0,0,0,0,0,0,0,0,0,0,0,0,0,0,0,0],"sum_hessian":[4.904075E3,2.1526882E3,2.751387E3,1.9345825E3,2.1810562E2,3.6816733E2,2.3832197E3,3.0549442E1,1.9040331E3,3.1169525E1,1.869361E2,3.4043024E2,2.773708E1,2.0259613E3,3.5725836E2,2.9452188E1,1.0972543E0,6.893415E2,1.2146915E3,2.0755644E1,1.041388E1,1.8321849E2,3.7176135E0,2.774435E2,6.2986736E1,2.0239546E1,7.497533E0,1.9189534E3,1.0700797E2,4.5686756E1,3.1157162E2],"tree_param":{"num_deleted":"0","num_feature":"19","num_nodes":"31","size_leaf_vector":"1"}},{"base_weights":[-1.5857766E-3,-6.855806E-1,6.6273856E-1,-8.2169694E-1,-1.7835079E-1,2.1140236E-2,6.928717E-1,-1.2380089E0,-8.143404E-1,-3.1233528E-1,-5.392549E-2,1.17472365E-1,-1.5575211E-1,6.462793E-1,9.5210797E-1,-1.3081412E-2,-6.320911E-2,-1.9788194E-2,-4.0960334E-2,-2.0842863E-2,-1.1800203E-2,-4.231082E-3,1.3395463E-2,-3.3730813E-4,1.5669292E-2,-2.415589E-2,-2.2094066E-3,3.3486348E-2,1.1468929E-2,5.0852884E-2,4.0279143E-2],"categories":[],"categories_nodes":[],"categories_segments":[],"categories_sizes":[],"default_left":[0,0,0,0,0,0,0,0,0,0,0,0,0,0,0,0,0,0,0,0,0,0,0,0,0,0,0,0,0,0,0],"id":16,"left_children":[1,3,5,7,9,11,13,15,17,19,21,23,25,27,29,-1,-1,-1,-1,-1,-1,-1,-1,-1,-1,-1,-1,-1,-1,-1,-1],"loss_changes":[2.2052197E3,1.649436E2,4.758313E1,4.7646484E0,8.438473E0,1.9178253E0,2.7786865E1,4.5656204E-1,3.4545898E0,1.8483467E0,2.632551E0,1.7723155E0,1.429759E0,1.936145E1,2.5698853E0,0E0,0E0,0E0,0E0,0E0,0E0,0E0,0E0,0E0,0E0,0E0,0E0,0E0,0E0,0E0,0E0],"parents":[2147483647,0,0,1,1,2,2,3,3,4,4,5,5,6,6,7,7,8,8,9,9,10,10,11,11,12,12,13,13,14,14],"right_children":[2,4,6,8,10,12,14,16,18,20,22,24,26,28,30,-1,-1,-1,-1,-1,-1,-1,-1,-1,-1,-1,-1,-1,-1,-1,-1],"split_conditions":[4E-1,1.6666667E-1,5E-1,1.3916667E0,3.3333334E-1,1.98E0,6.666667E-1,3.3333332E1,4.2941814E1,1.9288889E0,5.3670525E1,1.8733333E0,4.21406E1,5.16129E-1,1.971111E0,-1.3081412E-2,-6.320911E-2,-1.9788194E-2,-4.0960334E-2,-2.0842863E-2,-1.1800203E-2,-4.231082E-3,1.3395463E-2,-3.3730813E-4,1.5669292E-2,-2.415589E-2,-2.2094066E-3,3.3486348E-2,1.1468929E-2,5.0852884E-2,4.0279143E-2],"split_indices":[18,18,18,10,18,11,18,0,1,11,7,11,7,18,10,0,0,0,0,0,0,0,0,0,0,0,0,0,0,0,0],"split_type":[0,0,0,0,0,0,0,0,0,0,0,0,0,0,0,0,0,0,0,0,0,0,0,0,0,0,0,0,0,0,0],"sum_hessian":[4.851096E3,2.3901462E3,2.46095E3,1.8839609E3,5.0618524E2,1.1047196E2,2.350478E3,2.9808031E1,1.854153E3,2.4300293E2,2.631823E2,7.1739784E1,3.8732178E1,1.9953479E3,3.551301E2,1.0652572E0,2.8742773E1,2.2254377E1,1.8318986E3,1.006794E2,1.4232353E2,2.4093896E2,2.2243355E1,4.4494015E1,2.7245771E1,8.998167E0,2.9734013E1,1.8885253E3,1.06822624E2,2.4194356E2,1.1318655E2],"tree_param":{"num_deleted":"0","num_feature":"19","num_nodes":"31","size_leaf_vector":"1"}},{"base_weights":[-3.2459165E-3,8.0640423E-1,-8.034248E-3,1.952364E-2,9.237844E-1,-9.839064E-2,2.5551086E-2,-3.2840785E-2,3.178489E-2,1.0604194E0,3.7026075E-1,-6.4884394E-1,-8.519917E-2,8.50992E-2,-5.1092334E-2,5.7033747E-2,2.1557508E-2,-7.878535E-3,3.5630815E-2,-2.7260312E-3,-5.277607E-2,1.9051677E-2,-5.0197253E-3,1.6637055E-2,3.0882035E-3,-3.3331865E-3,1.3509899E-2],"categories":[],"categories_nodes":[],"categories_segments":[],"categories_sizes":[],"default_left":[0,0,0,0,0,0,0,0,0,0,0,0,0,0,0,0,0,0,0,0,0,0,0,0,0,0,0],"id":17,"left_children":[1,3,5,7,9,11,13,-1,-1,15,17,19,21,23,25,-1,-1,-1,-1,-1,-1,-1,-1,-1,-1,-1,-1],"loss_changes":[1.8573929E1,2.5836353E0,1.4453871E1,2.3670418E0,1.4595337E0,9.31635E0,1.5852681E1,0E0,0E0,4.730301E-1,1.2660668E0,7.2065754E0,8.975956E0,1.1274369E1,7.617118E0,0E0,0E0,0E0,0E0,0E0,0E0,0E0,0E0,0E0,0E0,0E0,0E0],"parents":[2147483647,0,0,1,1,2,2,3,3,4,4,5,5,6,6,9,9,10,10,11,11,12,12,13,13,14,14],"right_children":[2,4,6,8,10,12,14,-1,-1,16,18,20,22,24,26,-1,-1,-1,-1,-1,-1,-1,-1,-1,-1,-1,-1],"split_conditions":[1.34E0,5.036305E1,5.6607944E1,5.3142017E1,1.9444444E0,1.4416667E0,6.2349903E1,-3.2840785E-2,3.178489E-2,5.0032444E1,1.9788889E0,3.908081E1,4.4158337E1,1.6911111E0,2.2455556E0,5.7033747E-2,2.1557508E-2,-7.878535E-3,3.5630815E-2,-2.7260312E-3,-5.277607E-2,1.9051677E-2,-5.0197253E-3,1.6637055E-2,3.0882035E-3,-3.3331865E-3,1.3509899E-2],"split_indices":[11,4,4,1,10,10,1,0,0,3,10,3,1,11,11,0,0,0,0,0,0,0,0,0,0,0,0],"split_type":[0,0,0,0,0,0,0,0,0,0,0,0,0,0,0,0,0,0,0,0,0,0,0,0,0,0,0],"sum_hessian":[4.7882847E3,2.7167526E1,4.761117E3,3.677958E0,2.3489569E1,1.2896295E3,3.4714875E3,1.7219325E0,1.9560255E0,1.8104727E1,5.384842E0,2.905456E1,1.260575E3,1.9535592E3,1.5179285E3,1.53361E1,2.7686272E0,2.3308957E0,3.053946E0,1.2264757E1,1.6789803E1,3.9027668E1,1.2215474E3,1.6708855E2,1.7864707E3,1.4485182E3,6.941018E1],"tree_param":{"num_deleted":"0","num_feature":"19","num_nodes":"27","size_leaf_vector":"1"}},{"base_weights":[5.6484058E-3,-1.6928698E-1,2.6160454E-2,-4.5908925E-1,-3.414598E-2,6.0542995E-1,1.819642E-2,2.2121001E-2,-5.2460086E-1,6.3944554E-1,-7.393675E-2,3.6047718E-1,9.2383623E-1,6.1887547E-2,-3.947319E-2,2.1742927E-2,-1.3153893E-2,1.0695026E-2,-2.7686927E-2,3.9864648E-2,-1.3811412E-2,-2.0560311E-2,-2.2502982E-3,4.7295492E-2,7.5755425E-4,5.550142E-2,2.227261E-2,1.188616E-2,2.3600943E-3,-2.3752984E-3,3.125517E-2],"categories":[],"categories_nodes":[],"categories_segments":[],"categories_sizes":[],"default_left":[0,0,0,0,0,0,0,0,0,0,0,0,0,0,0,0,0,0,0,0,0,0,0,0,0,0,0,0,0,0,0],"id":18,"left_children":[1,3,5,7,9,11,13,15,17,19,21,23,25,27,29,-1,-1,-1,-1,-1,-1,-1,-1,-1,-1,-1,-1,-1,-1,-1,-1],"loss_changes":[1.7234758E1,1.972628E1,1.9820492E1,5.0627823E0,9.290296E0,4.2115974E0,1.0689491E1,2.487376E0,3.154007E0,3.0153966E0,3.1674533E0,6.975074E0,1.7052135E0,6.221321E0,9.792995E0,0E0,0E0,0E0,0E0,0E0,0E0,0E0,0E0,0E0,0E0,0E0,0E0,0E0,0E0,0E0,0E0],"parents":[2147483647,0,0,1,1,2,2,3,3,4,4,5,5,6,6,7,7,8,8,9,9,10,10,11,11,12,12,13,13,14,14],"right_children":[2,4,6,8,10,12,14,16,18,20,22,24,26,28,30,-1,-1,-1,-1,-1,-1,-1,-1,-1,-1,-1,-1,-1,-1,-1,-1],"split_conditions":[5.036305E1,1E0,1.4416667E0,3.3333332E1,4.6989548E1,4.5848927E1,6.2349903E1,1.7377778E0,4.4158337E1,4.9959484E1,1.6555556E0,3.1365665E1,4.6233547E1,1.6911111E0,7.74569E1,2.1742927E-2,-1.3153893E-2,1.0695026E-2,-2.7686927E-2,3.9864648E-2,-1.3811412E-2,-2.0560311E-2,-2.2502982E-3,4.7295492E-2,7.5755425E-4,5.550142E-2,2.227261E-2,1.188616E-2,2.3600943E-3,-2.3752984E-3,3.125517E-2],"split_indices":[0,8,11,0,1,2,1,10,1,0,11,2,3,11,0,0,0,0,0,0,0,0,0,0,0,0,0,0,0,0,0],"split_type":[0,0,0,0,0,0,0,0,0,0,0,0,0,0,0,0,0,0,0,0,0,0,0,0,0,0,0,0,0,0,0],"sum_hessian":[4.800831E3,5.030821E2,4.297749E3,1.5922847E2,3.438536E2,5.726844E1,4.2404805E3,1.9159107E1,1.4006937E2,1.833876E1,3.2551486E2,3.357275E1,2.3695686E1,2.4125974E3,1.8278832E3,7.6145854E0,1.1544523E1,5.0760007E0,1.3499336E2,1.5752556E1,2.5862038E0,2.467264E1,3.0084222E2,1.1810755E1,2.1761997E1,1.6106495E1,7.5891914E0,1.8479587E2,2.2278015E3,1.8069708E3,2.091244E1],"tree_param":{"num_deleted":"0","num_feature":"19","num_nodes":"31","size_leaf_vector":"1"}},{"base_weights":[-5.2278014E-3,-7.371533E-1,5.610866E-1,-7.936744E-1,-2.9067114E-1,-2.842386E-2,6.561319E-1,-9.3067753E-1,-7.682915E-1,-5.201558E-1,-2.3615557E-1,-3.9974943E-2,3.6829203E-1,6.0689354E-1,9.331552E-1,-1.5236072E-2,-4.7057025E-2,-4.154486E-2,-3.636831E-2,-3.309119E-2,-7.278241E-3,1.1443577E-3,-1.3773113E-2,-7.5921095E-3,6.32755E-4,4.4068858E-2,-1.6253041E-3,3.1420406E-2,1.16490405E-2,4.850697E-2,3.640197E-2],"categories":[],"categories_nodes":[],"categories_segments":[],"categories_sizes":[],"default_left":[0,0,0,0,0,0,0,0,0,0,0,0,0,0,0,0,0,0,0,0,0,0,0,0,0,0,0,0,0,0,0],"id":19,"left_children":[1,3,5,7,9,11,13,15,17,19,21,23,25,27,29,-1,-1,-1,-1,-1,-1,-1,-1,-1,-1,-1,-1,-1,-1,-1,-1],"loss_changes":[1.9852375E3,5.2492798E1,1.5131317E2,5.7321777E0,2.8339005E0,1.7371224E0,3.115216E1,1.5801849E0,3.4178467E0,2.2670536E0,1.96947E0,2.1575558E0,2.2356668E0,1.576001E1,1.941803E0,0E0,0E0,0E0,0E0,0E0,0E0,0E0,0E0,0E0,0E0,0E0,0E0,0E0,0E0,0E0,0E0],"parents":[2147483647,0,0,1,1,2,2,3,3,4,4,5,5,6,6,7,7,8,8,9,9,10,10,11,11,12,12,13,13,14,14],"right_children":[2,4,6,8,10,12,14,16,18,20,22,24,26,28,30,-1,-1,-1,-1,-1,-1,-1,-1,-1,-1,-1,-1,-1,-1,-1,-1],"split_conditions":[3.3333334E-1,1.6666667E-1,5E-1,1.7366667E0,1.8333334E0,2.26E0,6.666667E-1,1.34E0,3.905453E1,2E0,1.7428571E0,5.7481224E1,2E0,5.16129E-1,6.878023E1,-1.5236072E-2,-4.7057025E-2,-4.154486E-2,-3.636831E-2,-3.309119E-2,-7.278241E-3,1.1443577E-3,-1.3773113E-2,-7.5921095E-3,6.32755E-4,4.4068858E-2,-1.6253041E-3,3.1420406E-2,1.16490405E-2,4.850697E-2,3.640197E-2],"split_indices":[18,18,18,11,11,11,18,11,2,10,10,1,9,18,0,0,0,0,0,0,0,0,0,0,0,0,0,0,0,0,0],"split_type":[0,0,0,0,0,0,0,0,0,0,0,0,0,0,0,0,0,0,0,0,0,0,0,0,0,0,0,0,0,0,0],"sum_hessian":[4.787479E3,2.0882483E3,2.6992305E3,1.8529073E3,2.3534102E2,3.7486484E2,2.3243657E3,2.8405746E2,1.5688499E3,4.3535553E1,1.9180547E2,3.651326E2,9.732244E0,1.9762888E3,3.4807678E2,5.1652436E0,2.788922E2,6.1252765E2,9.5632214E2,3.1032469E1,1.2503082E1,2.5324842E1,1.6648062E2,1.1621913E2,2.4891347E2,3.7423666E0,5.989877E0,1.8681183E3,1.0817063E2,2.9174316E2,5.6333607E1],"tree_param":{"num_deleted":"0","num_feature":"19","num_nodes":"31","size_leaf_vector":"1"}},{"base_weights":[2.1771204E-3,-7.048609E-1,5.52641E-1,-7.6169837E-1,-2.627212E-1,-1.2612877E-2,6.4357746E-1,-8.799047E-1,-7.4031293E-1,-4.663013E-1,-2.0170999E-1,1.6843219E-1,-4.326667E-2,5.986692E-1,9.004306E-1,-4.458996E-2,-8.361354E-3,-2.1220548E-2,-3.7529036E-2,-2.5260588E-2,2.377643E-2,3.3224456E-3,-1.20127285E-2,-1.5018607E-2,1.3155353E-2,2.6017232E-2,-2.7898338E-3,3.0994643E-2,1.1637498E-2,4.8846304E-2,3.8684886E-2],"categories":[],"categories_nodes":[],"categories_segments":[],"categories_sizes":[],"default_left":[0,0,0,0,0,0,0,0,0,0,0,0,0,0,0,0,0,0,0,0,0,0,0,0,0,0,0,0,0,0,0],"id":20,"left_children":[1,3,5,7,9,11,13,15,17,19,21,23,25,27,29,-1,-1,-1,-1,-1,-1,-1,-1,-1,-1,-1,-1,-1,-1,-1,-1],"loss_changes":[1.8412677E3,5.184265E1,1.3673712E2,3.9858398E0,2.8548832E0,2.0585077E0,2.5891602E1,2.1883392E0,4.740906E0,2.2185955E0,1.922328E0,2.4634829E0,2.2668905E0,1.5025757E1,2.5307922E0,0E0,0E0,0E0,0E0,0E0,0E0,0E0,0E0,0E0,0E0,0E0,0E0,0E0,0E0,0E0,0E0],"parents":[2147483647,0,0,1,1,2,2,3,3,4,4,5,5,6,6,7,7,8,8,9,9,10,10,11,11,12,12,13,13,14,14],"right_children":[2,4,6,8,10,12,14,16,18,20,22,24,26,28,30,-1,-1,-1,-1,-1,-1,-1,-1,-1,-1,-1,-1,-1,-1,-1,-1],"split_conditions":[3.3333334E-1,1.6666667E-1,5E-1,1.7366667E0,2.5E-1,1.7333333E0,6.666667E-1,7.717742E1,1.7677778E0,7.437906E1,1.7333333E0,3.1970898E1,4.4158337E1,5.16129E-1,4.587602E1,-4.458996E-2,-8.361354E-3,-2.1220548E-2,-3.7529036E-2,-2.5260588E-2,2.377643E-2,3.3224456E-3,-1.20127285E-2,-1.5018607E-2,1.3155353E-2,2.6017232E-2,-2.7898338E-3,3.0994643E-2,1.1637498E-2,4.8846304E-2,3.8684886E-2],"split_indices":[18,18,18,11,18,10,18,1,11,1,10,6,1,18,6,0,0,0,0,0,0,0,0,0,0,0,0,0,0,0,0],"split_type":[0,0,0,0,0,0,0,0,0,0,0,0,0,0,0,0,0,0,0,0,0,0,0,0,0,0,0,0,0,0,0],"sum_hessian":[4.7289165E3,2.069932E3,2.6589846E3,1.8335099E3,2.3642192E2,3.6860803E2,2.2903767E3,2.7474295E2,1.558767E3,5.2983986E1,1.8343794E2,5.272327E1,3.1588477E2,1.9523568E3,3.380198E2,2.699856E2,4.7573504E0,5.0402496E1,1.5083644E3,5.132706E1,1.6569254E0,2.2962355E1,1.6047559E2,8.493432E0,4.422984E1,5.9885025E0,3.0989627E2,1.8446702E3,1.0768662E2,2.066052E2,1.314146E2],"tree_param":{"num_deleted":"0","num_feature":"19","num_nodes":"31","size_leaf_vector":"1"}},{"base_weights":[3.973648E-3,-6.8552154E-1,5.36659E-1,-7.378075E-1,-2.883343E-1,-3.7032715E-3,6.2475765E-1,-8.856389E-1,-7.115557E-1,-4.6639064E-1,-2.3197067E-1,1.8442562E-2,-1.9052796E-1,5.839912E-1,8.6220086E-1,-1.3182868E-2,-4.4832285E-2,-2.221312E-2,-3.620967E-2,-2.5002468E-2,1.962084E-2,-1.3217616E-2,-2.0184233E-3,3.1762835E-4,2.0436417E-2,-1.388937E-2,2.53247E-2,3.0179584E-2,1.2555909E-2,4.669707E-2,3.789571E-2],"categories":[],"categories_nodes":[],"categories_segments":[],"categories_sizes":[],"default_left":[0,0,0,0,0,0,0,0,0,0,0,0,0,0,0,0,0,0,0,0,0,0,0,0,0,0,0,0,0,0,0],"id":21,"left_children":[1,3,5,7,9,11,13,15,17,19,21,23,25,27,29,-1,-1,-1,-1,-1,-1,-1,-1,-1,-1,-1,-1,-1,-1,-1,-1],"loss_changes":[1.7211614E3,4.2203857E1,1.2585687E2,6.371765E0,2.2927608E0,1.5409445E0,2.1499695E1,1.5982666E0,4.8709717E0,1.8303642E0,1.1291018E0,1.5692769E0,2.5412278E0,1.2526306E1,1.7684326E0,0E0,0E0,0E0,0E0,0E0,0E0,0E0,0E0,0E0,0E0,0E0,0E0,0E0,0E0,0E0,0E0],"parents":[2147483647,0,0,1,1,2,2,3,3,4,4,5,5,6,6,7,7,8,8,9,9,10,10,11,11,12,12,13,13,14,14],"right_children":[2,4,6,8,10,12,14,16,18,20,22,24,26,28,30,-1,-1,-1,-1,-1,-1,-1,-1,-1,-1,-1,-1,-1,-1,-1,-1],"split_conditions":[3.3333334E-1,1.6666667E-1,5E-1,1.7366667E0,2.5E-1,2.1544445E0,6.666667E-1,1.34E0,1.7766666E0,5.9573128E1,4E0,2.1266668E0,4E0,5.16129E-1,4.5014084E1,-1.3182868E-2,-4.4832285E-2,-2.221312E-2,-3.620967E-2,-2.5002468E-2,1.962084E-2,-1.3217616E-2,-2.0184233E-3,3.1762835E-4,2.0436417E-2,-1.388937E-2,2.53247E-2,3.0179584E-2,1.2555909E-2,4.669707E-2,3.789571E-2],"split_indices":[18,18,18,11,18,10,18,11,11,3,8,10,8,18,2,0,0,0,0,0,0,0,0,0,0,0,0,0,0,0,0],"split_type":[0,0,0,0,0,0,0,0,0,0,0,0,0,0,0,0,0,0,0,0,0,0,0,0,0,0,0,0,0,0,0],"sum_hessian":[4.684185E3,2.0414691E3,2.6427158E3,1.803233E3,2.3823604E2,3.7059445E2,2.2721213E3,2.6699133E2,1.5362417E3,5.553205E1,1.82704E2,3.3212616E2,3.84683E1,1.9421372E3,3.2998422E2,5.0765333E0,2.619148E2,7.0986595E1,1.4652551E3,5.3839684E1,1.6923664E0,1.5596541E2,2.6738579E1,3.2313266E2,8.993497E0,3.472285E1,3.74545E0,1.8333702E3,1.0876696E2,1.9078474E2,1.391995E2],"tree_param":{"num_deleted":"0","num_feature":"19","num_nodes":"31","size_leaf_vector":"1"}},{"base_weights":[4.7440187E-4,-6.5897614E-1,5.064288E-1,-7.104785E-1,-2.7086547E-1,-1.5276959E-2,5.9262854E-1,-8.8535684E-1,-6.9534713E-1,-4.682473E-1,-2.2195214E-1,-2.7406782E-2,4.0836993E-1,5.4801303E-1,8.55775E-1,-4.5632437E-2,-9.23142E-4,-3.810328E-2,-3.2755554E-2,-2.496355E-2,1.8514147E-2,2.9795362E-2,-1.1939957E-2,8.6677814E-5,-1.380821E-2,-2.3891435E-3,6.676036E-2,2.8586587E-2,7.4497997E-3,4.5833606E-2,3.4636494E-2],"categories":[],"categories_nodes":[],"categories_segments":[],"categories_sizes":[],"default_left":[0,0,0,0,0,0,0,0,0,0,0,0,0,0,0,0,0,0,0,0,0,0,0,0,0,0,0,0,0,0,0],"id":22,"left_children":[1,3,5,7,9,11,13,15,17,19,21,23,25,27,29,-1,-1,-1,-1,-1,-1,-1,-1,-1,-1,-1,-1,-1,-1,-1,-1],"loss_changes":[1.5504545E3,4.013336E1,1.182594E2,4.095825E0,2.1935463E0,1.9322178E0,2.6025085E1,3.2511444E0,3.9122314E0,1.3908501E0,2.796152E0,2.6416943E0,4.489643E0,1.8202332E1,2.5954895E0,0E0,0E0,0E0,0E0,0E0,0E0,0E0,0E0,0E0,0E0,0E0,0E0,0E0,0E0,0E0,0E0],"parents":[2147483647,0,0,1,1,2,2,3,3,4,4,5,5,6,6,7,7,8,8,9,9,10,10,11,11,12,12,13,13,14,14],"right_children":[2,4,6,8,10,12,14,16,18,20,22,24,26,28,30,-1,-1,-1,-1,-1,-1,-1,-1,-1,-1,-1,-1,-1,-1,-1,-1],"split_conditions":[3.3333334E-1,1.6666667E-1,5E-1,1.6555556E0,1.8333334E0,2.26E0,6.666667E-1,7.717742E1,3.8761833E1,5.281097E1,1.8366667E0,2.1544445E0,4.6030014E1,5.16129E-1,6.5153595E1,-4.5632437E-2,-9.23142E-4,-3.810328E-2,-3.2755554E-2,-2.496355E-2,1.8514147E-2,2.9795362E-2,-1.1939957E-2,8.6677814E-5,-1.380821E-2,-2.3891435E-3,6.676036E-2,2.8586587E-2,7.4497997E-3,4.5833606E-2,3.4636494E-2],"split_indices":[18,18,18,11,11,11,18,1,2,2,11,10,3,18,1,0,0,0,0,0,0,0,0,0,0,0,0,0,0,0,0],"split_type":[0,0,0,0,0,0,0,0,0,0,0,0,0,0,0,0,0,0,0,0,0,0,0,0,0,0,0,0,0,0,0],"sum_hessian":[4.644923E3,2.0164375E3,2.6284856E3,1.7794706E3,2.3696686E2,3.728305E2,2.255655E3,1.3712766E2,1.6423429E3,4.5358208E1,1.9160866E2,3.6336206E2,9.468444E0,1.9312941E3,3.2436096E2,1.3289113E2,4.236518E0,6.110969E2,1.031246E3,4.413008E1,1.2281257E0,3.1735313E0,1.8843512E2,3.2614883E2,3.7213215E1,6.981078E0,2.4873662E0,1.8225253E3,1.0876884E2,2.327915E2,9.1569466E1],"tree_param":{"num_deleted":"0","num_feature":"19","num_nodes":"31","size_leaf_vector":"1"}},{"base_weights":[-1.1630651E-3,-6.325604E-1,4.8285666E-1,-6.820708E-1,-2.6498306E-1,-3.0154092E-2,5.66886E-1,-1.0422277E0,-6.735593E-1,-2.9178348E-1,8.980733E-4,5.460919E-2,-1.1559321E-1,5.2269274E-1,8.265272E-1,-5.4257553E-2,8.842182E-3,-3.8692415E-2,-3.2613374E-2,7.7565893E-4,-1.5440541E-2,-2.090641E-2,1.16082905E-2,-3.6730326E-4,1.232443E-2,-1.1307539E-3,-1.2978693E-2,2.7100885E-2,9.753753E-3,4.4639036E-2,3.282238E-2],"categories":[],"categories_nodes":[],"categories_segments":[],"categories_sizes":[],"default_left":[0,0,0,0,0,0,0,0,0,0,0,0,0,0,0,0,0,0,0,0,0,0,0,0,0,0,0,0,0,0,0],"id":23,"left_children":[1,3,5,7,9,11,13,15,17,19,21,23,25,27,29,-1,-1,-1,-1,-1,-1,-1,-1,-1,-1,-1,-1,-1,-1,-1,-1],"loss_changes":[1.3986102E3,3.5960327E1,1.1169159E2,4.661133E0,1.6917057E0,2.6537027E0,2.511023E1,2.2098541E0,3.150879E0,1.1331081E0,2.3000357E0,2.1913636E0,2.435565E0,1.1954956E1,3.042984E0,0E0,0E0,0E0,0E0,0E0,0E0,0E0,0E0,0E0,0E0,0E0,0E0,0E0,0E0,0E0,0E0],"parents":[2147483647,0,0,1,1,2,2,3,3,4,4,5,5,6,6,7,7,8,8,9,9,10,10,11,11,12,12,13,13,14,14],"right_children":[2,4,6,8,10,12,14,16,18,20,22,24,26,28,30,-1,-1,-1,-1,-1,-1,-1,-1,-1,-1,-1,-1,-1,-1,-1,-1],"split_conditions":[3.3333334E-1,1.6666667E-1,5E-1,1.4416667E0,5.0544357E1,1.9466667E0,6.666667E-1,7.2375694E1,3.1365665E1,4.8724194E1,6.252896E1,1.8866667E0,4.587602E1,5.16129E-1,1.9861112E0,-5.4257553E-2,8.842182E-3,-3.8692415E-2,-3.2613374E-2,7.7565893E-4,-1.5440541E-2,-2.090641E-2,1.16082905E-2,-3.6730326E-4,1.232443E-2,-1.1307539E-3,-1.2978693E-2,2.7100885E-2,9.753753E-3,4.4639036E-2,3.282238E-2],"split_indices":[18,18,18,10,3,11,18,3,2,1,1,11,2,18,10,0,0,0,0,0,0,0,0,0,0,0,0,0,0,0,0],"split_type":[0,0,0,0,0,0,0,0,0,0,0,0,0,0,0,0,0,0,0,0,0,0,0,0,0,0,0,0,0,0,0],"sum_hessian":[4.5744736E3,1.9848961E3,2.5895776E3,1.748525E3,2.3637114E2,3.645556E2,2.225022E3,3.7564503E1,1.7109604E3,2.1463846E2,2.173267E1,1.8318272E2,1.8137288E2,1.9039636E3,3.2105832E2,3.6392963E1,1.1715386E0,2.9344183E2,1.4175187E3,1.12734165E1,2.0336505E2,7.4415646E0,1.4291104E1,1.3919899E2,4.3983746E1,1.1090866E2,7.0464226E1,1.7972935E3,1.0667017E2,2.2799496E2,9.306336E1],"tree_param":{"num_deleted":"0","num_feature":"19","num_nodes":"31","size_leaf_vector":"1"}},{"base_weights":[-2.3925954E-3,6.494088E-1,-6.17618E-3,8.0510503E-1,-2.1902174E-1,2.8088398E-2,-7.032662E-2,-1.175619E-2,8.7604535E-1,2.2677127E-2,-3.475411E-2,-4.505313E-2,5.8946617E-2,-2.993416E-1,-5.1455032E-2,2.1810943E-2,5.2703824E-2,-1.0953112E-2,9.0472976E-4,1.2487798E-2,2.1547948E-3,-1.6594423E-2,4.7366753E-2,-2.9347574E-3,2.6002226E-2],"categories":[],"categories_nodes":[],"categories_segments":[],"categories_sizes":[],"default_left":[0,0,0,0,0,0,0,0,0,0,0,0,0,0,0,0,0,0,0,0,0,0,0,0,0],"id":24,"left_children":[1,3,5,7,9,11,13,-1,15,-1,-1,17,19,21,23,-1,-1,-1,-1,-1,-1,-1,-1,-1,-1],"loss_changes":[1.1190466E1,3.717266E0,9.9171505E0,1.8604937E0,1.8417044E0,6.640607E0,6.7733583E0,0E0,1.2002773E0,0E0,0E0,9.599061E0,6.2463E0,5.158164E0,6.04021E0,0E0,0E0,0E0,0E0,0E0,0E0,0E0,0E0,0E0,0E0],"parents":[2147483647,0,0,1,1,2,2,3,3,4,4,5,5,6,6,8,8,11,11,12,12,13,13,14,14],"right_children":[2,4,6,8,10,12,14,-1,16,-1,-1,18,20,22,24,-1,-1,-1,-1,-1,-1,-1,-1,-1,-1],"split_conditions":[1.34E0,1.95E0,6.400631E1,4.446168E1,3.1365665E1,5.7015743E1,2.7187286E1,-1.175619E-2,3.856155E1,2.2677127E-2,-3.475411E-2,1E0,1.6911111E0,2.37E0,7.5628456E1,2.1810943E-2,5.2703824E-2,-1.0953112E-2,9.0472976E-4,1.2487798E-2,2.1547948E-3,-1.6594423E-2,4.7366753E-2,-2.9347574E-3,2.6002226E-2],"split_indices":[11,10,1,0,2,0,2,0,2,0,0,8,11,11,0,0,0,0,0,0,0,0,0,0,0],"split_type":[0,0,0,0,0,0,0,0,0,0,0,0,0,0,0,0,0,0,0,0,0,0,0,0,0],"sum_hessian":[4.535007E3,2.5188128E1,4.509819E3,2.1420654E1,3.7674732E0,2.940028E3,1.5697908E3,1.2198005E0,2.0200853E1,1.5810757E0,2.1863976E0,8.7221216E2,2.067816E3,1.18376595E2,1.4514142E3,6.814888E0,1.3385965E1,2.3158641E2,6.4062573E2,1.574686E2,1.9103474E3,1.1607989E2,2.2967043E0,1.4341428E3,1.7271318E1],"tree_param":{"num_deleted":"0","num_feature":"19","num_nodes":"25","size_leaf_vector":"1"}},{"base_weights":[-3.2824764E-3,-5.179834E-1,5.443887E-1,-6.473498E-1,-9.961802E-2,5.0308675E-1,7.931528E-1,-6.99794E-1,-5.7005525E-1,-2.1912982E-1,-4.3948416E-2,5.2280706E-1,1.6569394E-1,8.586037E-1,6.3336116E-1,-3.5193346E-2,4.484895E-3,-2.157416E-2,-3.1486638E-2,2.7820358E-2,-1.1446477E-2,-7.2061755E-3,3.1077652E-4,3.746892E-2,2.4844542E-2,-7.112451E-3,1.6282855E-2,5.002016E-2,3.7495364E-2,1.4838378E-2,3.9901722E-2],"categories":[],"categories_nodes":[],"categories_segments":[],"categories_sizes":[],"default_left":[0,0,0,0,0,0,0,0,0,0,0,0,0,0,0,0,0,0,0,0,0,0,0,0,0,0,0,0,0,0,0],"id":25,"left_children":[1,3,5,7,9,11,13,15,17,19,21,23,25,27,29,-1,-1,-1,-1,-1,-1,-1,-1,-1,-1,-1,-1,-1,-1,-1,-1],"loss_changes":[1.2745917E3,1.2609387E2,2.2108765E1,6.817688E0,3.6611018E0,1.2431732E1,2.7003021E0,3.4594727E0,5.723984E0,1.4579802E0,1.8986456E0,1.0062592E1,5.236373E0,2.598175E0,4.9704514E0,0E0,0E0,0E0,0E0,0E0,0E0,0E0,0E0,0E0,0E0,0E0,0E0,0E0,0E0,0E0,0E0],"parents":[2147483647,0,0,1,1,2,2,3,3,4,4,5,5,6,6,7,7,8,8,9,9,10,10,11,11,12,12,13,13,14,14],"right_children":[2,4,6,8,10,12,14,16,18,20,22,24,26,28,30,-1,-1,-1,-1,-1,-1,-1,-1,-1,-1,-1,-1,-1,-1,-1,-1],"split_conditions":[5E-1,2.5E-1,6.666667E-1,1.9744444E0,3.0769232E-1,5.16129E-1,1.98E0,6E0,2.0333333E0,1.4833333E0,5.7481224E1,1.6911111E0,5.714286E-1,3.896291E1,2.0611112E0,-3.5193346E-2,4.484895E-3,-2.157416E-2,-3.1486638E-2,2.7820358E-2,-1.1446477E-2,-7.2061755E-3,3.1077652E-4,3.746892E-2,2.4844542E-2,-7.112451E-3,1.6282855E-2,5.002016E-2,3.7495364E-2,1.4838378E-2,3.9901722E-2],"split_indices":[18,18,18,11,18,18,10,9,11,10,1,11,18,7,10,0,0,0,0,0,0,0,0,0,0,0,0,0,0,0,0],"split_type":[0,0,0,0,0,0,0,0,0,0,0,0,0,0,0,0,0,0,0,0,0,0,0,0,0,0,0,0,0,0,0],"sum_hessian":[4.5196426E3,2.329982E3,2.1896606E3,1.7792555E3,5.5072644E2,1.880471E3,3.091897E2,1.05523E3,7.240255E2,1.740782E2,3.7664825E2,1.7761096E3,1.04361336E2,2.1624294E2,9.294675E1,1.049922E3,5.307961E0,2.2042519E2,5.0360034E2,1.4761953E0,1.72602E2,1.2505203E2,2.5159622E2,1.7944052E2,1.5966691E3,3.5715885E1,6.8645454E1,9.027345E1,1.2596949E2,3.145487E1,6.1491875E1],"tree_param":{"num_deleted":"0","num_feature":"19","num_nodes":"31","size_leaf_vector":"1"}},{"base_weights":[-4.0181465E-3,-5.9633976E-1,4.4614175E-1,-6.487339E-1,-2.0943339E-1,-1.6289344E-2,5.2558833E-1,-7.880112E-1,-6.2357944E-1,-3.9517358E-1,-1.5438536E-1,-1.1147085E-1,2.944293E-2,4.870704E-1,7.593202E-1,-3.4421E-2,-4.353891E-2,-1.3301647E-2,-3.1790722E-2,-3.7157845E-2,-1.4761842E-2,-1.3640757E-2,-4.2485986E-3,1.5843742E-2,-7.843052E-3,-1.1314425E-2,3.2039662E-3,4.7808066E-2,2.3726152E-2,4.1369677E-2,2.9330153E-2],"categories":[],"categories_nodes":[],"categories_segments":[],"categories_sizes":[],"default_left":[0,0,0,0,0,0,0,0,0,0,0,0,0,0,0,0,0,0,0,0,0,0,0,0,0,0,0,0,0,0,0],"id":26,"left_children":[1,3,5,7,9,11,13,15,17,19,21,23,25,27,29,-1,-1,-1,-1,-1,-1,-1,-1,-1,-1,-1,-1,-1,-1,-1,-1],"loss_changes":[1.1948765E3,3.9091187E1,9.355151E1,5.477722E0,2.313838E0,1.6324465E0,1.9192505E1,1.5177307E0,6.165039E0,1.6049175E0,1.4631734E0,2.4154167E0,2.260772E0,1.0542664E1,3.1081085E0,0E0,0E0,0E0,0E0,0E0,0E0,0E0,0E0,0E0,0E0,0E0,0E0,0E0,0E0,0E0,0E0],"parents":[2147483647,0,0,1,1,2,2,3,3,4,4,5,5,6,6,7,7,8,8,9,9,10,10,11,11,12,12,13,13,14,14],"right_children":[2,4,6,8,10,12,14,16,18,20,22,24,26,28,30,-1,-1,-1,-1,-1,-1,-1,-1,-1,-1,-1,-1,-1,-1,-1,-1],"split_conditions":[3.3333334E-1,1.6666667E-1,5E-1,1.7366667E0,3.5842587E1,5.7481224E1,6.666667E-1,4.040384E1,1.7677778E0,2.5E-1,5.856002E1,1.7155555E0,3.206414E1,1.5022222E0,6.5153595E1,-3.4421E-2,-4.353891E-2,-1.3301647E-2,-3.1790722E-2,-3.7157845E-2,-1.4761842E-2,-1.3640757E-2,-4.2485986E-3,1.5843742E-2,-7.843052E-3,-1.1314425E-2,3.2039662E-3,4.7808066E-2,2.3726152E-2,4.1369677E-2,2.9330153E-2],"split_indices":[18,18,18,11,3,1,18,2,11,18,0,10,2,10,1,0,0,0,0,0,0,0,0,0,0,0,0,0,0,0,0],"split_type":[0,0,0,0,0,0,0,0,0,0,0,0,0,0,0,0,0,0,0,0,0,0,0,0,0,0,0,0,0,0,0],"sum_hessian":[4.479247E3,1.934069E3,2.545178E3,1.7028019E3,2.3126714E2,3.7327396E2,2.171904E3,2.5585236E2,1.4469496E3,5.1458813E1,1.7980832E2,1.2067613E2,2.5259784E2,1.8672706E3,3.046334E2,1.2035286E2,1.354995E2,4.8627975E1,1.3983215E3,1.004511E1,4.14137E1,6.536146E1,1.1444686E2,1.09893055E1,1.0968683E2,2.9470985E1,2.2312686E2,4.6685993E1,1.8205846E3,2.1579231E2,8.884107E1],"tree_param":{"num_deleted":"0","num_feature":"19","num_nodes":"31","size_leaf_vector":"1"}},{"base_weights":[6.8970253E-3,2.8950027E-1,-5.4293904E-3,-3.520055E-1,3.225523E-1,-1.1154578E-1,1.5447512E-2,-5.2719057E-1,1.4280093E-2,3.6406532E-1,-1.11659974E-1,-7.2683346E-1,-9.4950214E-2,6.752205E-1,1.0815186E-2,-1.647488E-2,-4.073323E-2,2.8444324E-2,1.3805725E-2,-2.2130026E-2,1.0842854E-2,-8.700888E-3,-5.2568316E-2,-1.8270932E-2,-3.7545704E-3,3.7508216E-2,-2.2399537E-2,1.329129E-3,-7.90201E-3],"categories":[],"categories_nodes":[],"categories_segments":[],"categories_sizes":[],"default_left":[0,0,0,0,0,0,0,0,0,0,0,0,0,0,0,0,0,0,0,0,0,0,0,0,0,0,0,0,0],"id":27,"left_children":[1,3,5,7,9,11,13,15,-1,17,19,21,23,25,27,-1,-1,-1,-1,-1,-1,-1,-1,-1,-1,-1,-1,-1,-1],"loss_changes":[1.5458379E1,4.0460176E0,9.423077E0,1.2190496E0,3.2293835E0,7.0709467E0,1.0856138E1,1.7800188E-1,0E0,2.755804E0,1.8574749E0,3.084815E0,3.635838E0,2.4208078E0,9.404356E0,0E0,0E0,0E0,0E0,0E0,0E0,0E0,0E0,0E0,0E0,0E0,0E0,0E0,0E0],"parents":[2147483647,0,0,1,1,2,2,3,3,4,4,5,5,6,6,7,7,9,9,10,10,11,11,12,12,13,13,14,14],"right_children":[2,4,6,8,10,12,14,16,-1,18,20,22,24,26,28,-1,-1,-1,-1,-1,-1,-1,-1,-1,-1,-1,-1,-1,-1],"split_conditions":[4.7082474E1,4.0920135E1,5.3237617E1,2.5073685E1,2.1544445E0,1.3916667E0,1.3833333E0,1.0927504E1,1.4280093E-2,4.0196007E1,2.23125E0,3.896291E1,2.7201014E1,7.2850784E1,7.2348335E1,-1.647488E-2,-4.073323E-2,2.8444324E-2,1.3805725E-2,-2.2130026E-2,1.0842854E-2,-8.700888E-3,-5.2568316E-2,-1.8270932E-2,-3.7545704E-3,3.7508216E-2,-2.2399537E-2,1.329129E-3,-7.90201E-3],"split_indices":[5,0,0,3,10,10,11,2,0,5,10,3,3,5,5,0,0,0,0,0,0,0,0,0,0,0,0,0,0],"split_type":[0,0,0,0,0,0,0,0,0,0,0,0,0,0,0,0,0,0,0,0,0,0,0,0,0,0,0,0,0],"sum_hessian":[4.4361675E3,1.844673E2,4.2517E3,8.56571E0,1.7590158E2,6.98239E2,3.5534614E3,6.85535E0,1.7103599E0,1.606994E2,1.5202174E1,1.7214302E1,6.810247E2,2.3765923E1,3.5296956E3,5.3336415E0,1.5217085E0,4.6632576E1,1.1406683E2,7.400157E0,7.8020167E0,6.9358497E0,1.0278453E1,4.5392845E1,6.356319E2,2.2590729E1,1.1751932E0,3.2290186E3,3.00677E2],"tree_param":{"num_deleted":"0","num_feature":"19","num_nodes":"29","size_leaf_vector":"1"}},{"base_weights":[4.5568324E-3,-5.5761045E-1,4.3103403E-1,-6.0378563E-1,-2.2311555E-1,8.357914E-3,5.031312E-1,-6.54012E-1,-5.3926975E-1,-4.3202975E-1,-1.87714E-1,2.690004E-2,-2.518486E-1,4.6423203E-1,7.436389E-1,-3.1071952E-2,-3.9016634E-2,-2.1454694E-2,-3.0896038E-2,-3.592464E-2,-1.44246435E-2,-1.2708723E-2,-5.8264197E-3,-1.7735171E-4,1.2121219E-2,-4.3074176E-2,-8.353328E-3,3.448368E-2,2.2180906E-2,4.575714E-2,3.29919E-2],"categories":[],"categories_nodes":[],"categories_segments":[],"categories_sizes":[],"default_left":[0,0,0,0,0,0,0,0,0,0,0,0,0,0,0,0,0,0,0,0,0,0,0,0,0,0,0,0,0,0,0],"id":28,"left_children":[1,3,5,7,9,11,13,15,17,19,21,23,25,27,29,-1,-1,-1,-1,-1,-1,-1,-1,-1,-1,-1,-1,-1,-1,-1,-1],"loss_changes":[1.0567711E3,2.9233276E1,7.6374054E1,5.0594482E0,1.636426E0,1.773794E0,1.968628E1,3.3597412E0,6.1194916E0,1.1447425E0,9.18221E-1,2.2502103E0,1.1202319E0,8.271393E0,3.6564636E0,0E0,0E0,0E0,0E0,0E0,0E0,0E0,0E0,0E0,0E0,0E0,0E0,0E0,0E0,0E0,0E0],"parents":[2147483647,0,0,1,1,2,2,3,3,4,4,5,5,6,6,7,7,8,8,9,9,10,10,11,11,12,12,13,13,14,14],"right_children":[2,4,6,8,10,12,14,16,18,20,22,24,26,28,30,-1,-1,-1,-1,-1,-1,-1,-1,-1,-1,-1,-1,-1,-1,-1,-1],"split_conditions":[3.3333334E-1,1.6666667E-1,5E-1,1.9622222E0,1.7955556E0,7.328428E1,6.666667E-1,1.9144444E0,2.0533333E0,3.6158585E1,4.245827E1,6.844557E1,1.7083334E0,1.6666666E0,1.8444444E0,-3.1071952E-2,-3.9016634E-2,-2.1454694E-2,-3.0896038E-2,-3.592464E-2,-1.44246435E-2,-1.2708723E-2,-5.8264197E-3,-1.7735171E-4,1.2121219E-2,-4.3074176E-2,-8.353328E-3,3.448368E-2,2.2180906E-2,4.575714E-2,3.29919E-2],"split_indices":[18,18,18,11,11,1,18,11,11,2,2,1,11,11,11,0,0,0,0,0,0,0,0,0,0,0,0,0,0,0,0],"split_type":[0,0,0,0,0,0,0,0,0,0,0,0,0,0,0,0,0,0,0,0,0,0,0,0,0,0,0,0,0,0,0],"sum_hessian":[4.405774E3,1.9004111E3,2.5053628E3,1.6691843E3,2.3122679E2,3.652382E2,2.1401248E3,9.3339124E2,7.35793E2,3.1881529E1,1.9934528E2,3.4177982E2,2.3458357E1,1.8446974E3,2.9542728E2,7.4675336E2,1.8663791E2,3.091646E2,4.2662842E2,9.305162E0,2.2576366E1,1.0176481E2,9.758046E1,3.0033508E2,4.1444725E1,1.7455596E0,2.1712797E1,1.5182523E2,1.6928722E3,9.371432E1,2.0171297E2],"tree_param":{"num_deleted":"0","num_feature":"19","num_nodes":"31","size_leaf_vector":"1"}},{"base_weights":[-1.2475057E-3,-5.42936E-1,4.0733677E-1,-5.880867E-1,-1.9521911E-1,-1.7935721E-2,4.8067817E-1,-6.992172E-1,-5.6421125E-1,-4.1592738E-1,-1.553618E-1,-3.1812508E-2,3.1152987E-1,4.4468117E-1,7.043195E-1,-5.91613E-3,-3.6004882E-2,1.3320361E-2,-2.836503E-2,3.2559514E-2,-2.513805E-2,6.390606E-3,-8.625299E-3,-5.7617356E-3,1.5472019E-3,2.2823116E-2,-2.5005266E-2,2.8954102E-2,2.0182693E-2,3.8188223E-2,2.6264343E-2],"categories":[],"categories_nodes":[],"categories_segments":[],"categories_sizes":[],"default_left":[0,0,0,0,0,0,0,0,0,0,0,0,0,0,0,0,0,0,0,0,0,0,0,0,0,0,0,0,0,0,0],"id":29,"left_children":[1,3,5,7,9,11,13,15,17,19,21,23,25,27,29,-1,-1,-1,-1,-1,-1,-1,-1,-1,-1,-1,-1,-1,-1,-1,-1],"loss_changes":[9.7013184E2,2.9473633E1,7.794092E1,4.0300903E0,1.8539085E0,1.6946098E0,1.6843323E1,3.4411163E0,3.686737E0,3.3633847E0,9.266329E-1,1.8594878E0,1.9910872E0,9.903259E0,2.7250977E0,0E0,0E0,0E0,0E0,0E0,0E0,0E0,0E0,0E0,0E0,0E0,0E0,0E0,0E0,0E0,0E0],"parents":[2147483647,0,0,1,1,2,2,3,3,4,4,5,5,6,6,7,7,8,8,9,9,10,10,11,11,12,12,13,13,14,14],"right_children":[2,4,6,8,10,12,14,16,18,20,22,24,26,28,30,-1,-1,-1,-1,-1,-1,-1,-1,-1,-1,-1,-1,-1,-1,-1,-1],"split_conditions":[3.3333334E-1,1.8181819E-1,5E-1,3.1365665E1,1.7955556E0,5E0,6.666667E-1,4.6343613E1,3.1572449E1,4.9985764E1,4.8724194E1,4.1667404E1,7.119988E1,1E0,3E0,-5.91613E-3,-3.6004882E-2,1.3320361E-2,-2.836503E-2,3.2559514E-2,-2.513805E-2,6.390606E-3,-8.625299E-3,-5.7617356E-3,1.5472019E-3,2.2823116E-2,-2.5005266E-2,2.8954102E-2,2.0182693E-2,3.8188223E-2,2.6264343E-2],"split_indices":[18,18,18,2,11,8,18,1,2,0,1,7,1,9,9,0,0,0,0,0,0,0,0,0,0,0,0,0,0,0,0],"split_type":[0,0,0,0,0,0,0,0,0,0,0,0,0,0,0,0,0,0,0,0,0,0,0,0,0,0,0,0,0,0,0],"sum_hessian":[4.3812827E3,1.883658E3,2.4976248E3,1.6665651E3,2.170929E2,3.6748807E2,2.1301367E3,2.897252E2,1.3768398E3,3.1764246E1,1.8532864E2,3.5350232E2,1.3985749E1,1.8373827E3,2.927541E2,1.0284235E1,2.7944095E2,4.7861543E0,1.3720537E3,1.9011619E0,2.9863085E1,1.0211299E1,1.7511736E2,1.514044E2,2.0209792E2,1.2238025E1,1.7477239E0,4.2664093E2,1.4107418E3,2.1732773E2,7.542638E1],"tree_param":{"num_deleted":"0","num_feature":"19","num_nodes":"31","size_leaf_vector":"1"}},{"base_weights":[1.7366509E-4,-5.173819E-1,3.878922E-1,-5.655301E-1,-1.7312835E-1,-2.1674339E-2,4.611965E-1,-6.963828E-1,-5.4235095E-1,3.5750464E-2,-2.1766387E-1,1.8196532E-1,-5.6190558E-2,4.2276242E-1,6.949117E-1,-3.7732508E-2,-2.5675807E-2,-1.2537454E-2,-2.7841767E-2,-1.1389569E-2,1.030207E-2,-2.187059E-2,-8.347753E-3,3.5333012E-3,2.5154313E-2,-1.6089426E-2,-1.4977715E-3,2.0571135E-2,5.0674576E-2,3.8459778E-2,2.6849145E-2],"categories":[],"categories_nodes":[],"categories_segments":[],"categories_sizes":[],"default_left":[0,0,0,0,0,0,0,0,0,0,0,0,0,0,0,0,0,0,0,0,0,0,0,0,0,0,0,0,0,0,0],"id":30,"left_children":[1,3,5,7,9,11,13,15,17,19,21,23,25,27,29,-1,-1,-1,-1,-1,-1,-1,-1,-1,-1,-1,-1,-1,-1,-1,-1],"loss_changes":[8.707167E2,3.0705505E1,7.4489075E1,4.56604E0,2.1424313E0,2.6640012E0,1.860727E1,2.1884308E0,5.727783E0,1.8953295E0,2.0361862E0,1.9285792E0,2.245194E0,1.17048645E1,3.0549011E0,0E0,0E0,0E0,0E0,0E0,0E0,0E0,0E0,0E0,0E0,0E0,0E0,0E0,0E0,0E0,0E0],"parents":[2147483647,0,0,1,1,2,2,3,3,4,4,5,5,6,6,7,7,8,8,9,9,10,10,11,11,12,12,13,13,14,14],"right_children":[2,4,6,8,10,12,14,16,18,20,22,24,26,28,30,-1,-1,-1,-1,-1,-1,-1,-1,-1,-1,-1,-1,-1,-1,-1,-1],"split_conditions":[3.0769232E-1,1.6666667E-1,5E-1,1.7366667E0,5.6830097E1,1.7333333E0,6.4285713E-1,6.554483E1,1.7766666E0,5.9042698E1,5.851177E1,6.799904E1,1.7944444E0,7.473129E1,6.462495E1,-3.7732508E-2,-2.5675807E-2,-1.2537454E-2,-2.7841767E-2,-1.1389569E-2,1.030207E-2,-2.187059E-2,-8.347753E-3,3.5333012E-3,2.5154313E-2,-1.6089426E-2,-1.4977715E-3,2.0571135E-2,5.0674576E-2,3.8459778E-2,2.6849145E-2],"split_indices":[18,18,18,11,0,10,18,1,11,1,0,1,10,0,1,0,0,0,0,0,0,0,0,0,0,0,0,0,0,0,0],"split_type":[0,0,0,0,0,0,0,0,0,0,0,0,0,0,0,0,0,0,0,0,0,0,0,0,0,0,0,0,0,0,0],"sum_hessian":[4.3371367E3,1.8574027E3,2.479734E3,1.628933E3,2.2846979E2,3.7655374E2,2.1031802E3,2.4075648E2,1.3881764E3,4.018639E1,1.8828339E2,5.3955254E1,3.2259848E2,1.8085723E3,2.9460788E2,1.8020915E2,6.0547333E1,6.6556984E1,1.3216195E3,1.5641688E1,2.45447E1,3.3872044E1,1.5441135E2,4.097391E1,1.2981342E1,2.798812E1,2.9461035E2,1.776173E3,3.239922E1,1.9773172E2,9.687616E1],"tree_param":{"num_deleted":"0","num_feature":"19","num_nodes":"31","size_leaf_vector":"1"}},{"base_weights":[9.52647E-4,2.5242442E-1,-9.590243E-3,-4.2953372E-1,2.8666878E-1,1.9391356E-2,-8.289786E-2,-1.3142833E-1,-4.508384E-2,6.35627E-1,2.2800143E-1,-1.11790724E-1,4.2466972E-2,-7.001749E-2,-3.9122573E-1,-2.1787047E-2,3.437416E-2,-6.798228E-3,3.8621966E-2,-2.7884096E-3,1.5611539E-2,-4.7034374E-3,-3.766448E-2,3.0047124E-2,1.902019E-3,-3.8404525E-3,2.021574E-2,-4.672012E-2,-9.216657E-3],"categories":[],"categories_nodes":[],"categories_segments":[],"categories_sizes":[],"default_left":[0,0,0,0,0,0,0,0,0,0,0,0,0,0,0,0,0,0,0,0,0,0,0,0,0,0,0,0,0],"id":31,"left_children":[1,3,5,7,9,11,13,15,-1,17,19,21,23,25,27,-1,-1,-1,-1,-1,-1,-1,-1,-1,-1,-1,-1,-1,-1],"loss_changes":[1.1410479E1,4.1673603E0,8.77766E0,1.1032579E0,3.243185E0,8.96858E0,4.621313E0,1.917292E0,0E0,2.5603828E0,3.4410076E0,4.9682055E0,6.2043276E0,3.6546497E0,5.078213E0,0E0,0E0,0E0,0E0,0E0,0E0,0E0,0E0,0E0,0E0,0E0,0E0,0E0,0E0],"parents":[2147483647,0,0,1,1,2,2,3,3,4,4,5,5,6,6,7,7,9,9,10,10,11,11,12,12,13,13,14,14],"right_children":[2,4,6,8,10,12,14,16,-1,18,20,22,24,26,28,-1,-1,-1,-1,-1,-1,-1,-1,-1,-1,-1,-1,-1,-1],"split_conditions":[4.7082474E1,4.0920135E1,6.568679E1,2.1193605E1,1.6911111E0,5.212575E1,5.6721916E1,3.4797684E1,-4.508384E-2,5.036305E1,1E0,2.26E0,1.3833333E0,7.473129E1,5.668485E1,-2.1787047E-2,3.437416E-2,-6.798228E-3,3.8621966E-2,-2.7884096E-3,1.5611539E-2,-4.7034374E-3,-3.766448E-2,3.0047124E-2,1.902019E-3,-3.8404525E-3,2.021574E-2,-4.672012E-2,-9.216657E-3],"split_indices":[1,0,1,2,10,0,3,1,0,0,8,11,11,0,0,0,0,0,0,0,0,0,0,0,0,0,0,0,0],"split_type":[0,0,0,0,0,0,0,0,0,0,0,0,0,0,0,0,0,0,0,0,0,0,0,0,0,0,0,0,0],"sum_hessian":[4.3019155E3,1.721764E2,4.1297393E3,7.680484E0,1.6449593E2,2.9601875E3,1.1695518E3,5.491551E0,2.1889331E0,2.2259594E1,1.4223633E2,4.4224335E2,2.5179443E3,1.1238308E3,4.572087E1,4.3448715E0,1.1466792E0,3.3533916E0,1.8906202E1,3.2633057E1,1.0960327E2,4.3147025E2,1.0773107E1,1.8741072E1,2.4992031E3,1.1087931E3,1.5037804E1,1.1641325E1,3.4079544E1],"tree_param":{"num_deleted":"0","num_feature":"19","num_nodes":"29","size_leaf_vector":"1"}},{"base_weights":[2.9199957E-4,-4.2212176E-1,4.49067E-1,-5.44603E-1,-9.869662E-2,4.1419217E-1,6.6845137E-1,-9.9291724E-1,-5.3709865E-1,4.9362946E-2,-1.0344331E-1,4.367227E-1,5.5219878E-2,7.781857E-1,5.089188E-1,-5.0909467E-2,-1.3578161E-2,-2.7229447E-2,-1.0177551E-2,-9.182482E-3,-2.7635386E-3,2.1255644E-2,5.0690856E-2,-1.3771787E-2,8.89674E-3,1.9192863E-2,4.0896125E-2,3.0580385E-2,9.150534E-3],"categories":[],"categories_nodes":[],"categories_segments":[],"categories_sizes":[],"default_left":[0,0,0,0,0,0,0,0,0,0,0,0,0,0,0,0,0,0,0,0,0,0,0,0,0,0,0,0,0],"id":32,"left_children":[1,3,5,7,9,11,13,15,17,-1,19,21,23,25,27,-1,-1,-1,-1,-1,-1,-1,-1,-1,-1,-1,-1,-1,-1],"loss_changes":[8.114137E2,8.729071E1,1.5601959E1,4.846405E0,3.2303333E0,1.4480316E1,4.558876E0,1.8193817E-1,3.8238525E0,0E0,2.3279157E0,1.0873901E1,4.3929424E0,2.2840347E0,3.8451023E0,0E0,0E0,0E0,0E0,0E0,0E0,0E0,0E0,0E0,0E0,0E0,0E0,0E0,0E0],"parents":[2147483647,0,0,1,1,2,2,3,3,4,4,5,5,6,6,7,7,8,8,10,10,11,11,12,12,13,13,14,14],"right_children":[2,4,6,8,10,12,14,16,18,-1,20,22,24,26,28,-1,-1,-1,-1,-1,-1,-1,-1,-1,-1,-1,-1,-1,-1],"split_conditions":[5E-1,1.6666667E-1,6.666667E-1,1.3916667E0,1.3916667E0,5.16129E-1,4.5014084E1,6.6666664E1,6.25E1,4.9362946E-2,3.0769232E-1,7.473129E1,5.5172414E-1,5.036305E1,1.9977778E0,-5.0909467E-2,-1.3578161E-2,-2.7229447E-2,-1.0177551E-2,-9.182482E-3,-2.7635386E-3,2.1255644E-2,5.0690856E-2,-1.3771787E-2,8.89674E-3,1.9192863E-2,4.0896125E-2,3.0580385E-2,9.150534E-3],"split_indices":[18,18,18,10,10,18,2,3,2,0,18,0,18,0,10,0,0,0,0,0,0,0,0,0,0,0,0,0,0],"split_type":[0,0,0,0,0,0,0,0,0,0,0,0,0,0,0,0,0,0,0,0,0,0,0,0,0,0,0,0,0],"sum_hessian":[4.278314E3,2.2039163E3,2.0743977E3,1.5980502E3,6.05866E2,1.79236E3,2.8203772E2,2.4147465E1,1.5739027E3,1.7358959E0,6.041301E2,1.6863043E3,1.060557E2,1.6480136E2,1.17236374E2,2.2932545E1,1.21492E0,1.538716E3,3.518666E1,2.2563686E2,3.7849332E2,1.6547511E3,3.1553213E1,2.83695E1,7.76862E1,1.6062727E1,1.4873863E2,8.848077E1,2.8755608E1],"tree_param":{"num_deleted":"0","num_feature":"19","num_nodes":"29","size_leaf_vector":"1"}},{"base_weights":[-7.827658E-3,-4.1540784E-1,4.2378458E-1,-5.379634E-1,-8.9167126E-2,3.8837793E-1,6.5072316E-1,-6.633493E-1,-5.149004E-1,-1.7393433E-1,-3.7995957E-2,6.5614575E-1,3.6745682E-1,7.322765E-1,4.8840094E-1,-3.409802E-2,6.428709E-3,-3.0973995E-2,-2.3893451E-2,-2.0062169E-2,-5.833053E-3,-6.714555E-3,4.5657126E-4,4.9704444E-2,2.6513768E-2,1.9175908E-2,6.021783E-3,4.122768E-2,2.6873935E-2,2.633202E-2,-1.2734148E-2],"categories":[],"categories_nodes":[],"categories_segments":[],"categories_sizes":[],"default_left":[0,0,0,0,0,0,0,0,0,0,0,0,0,0,0,0,0,0,0,0,0,0,0,0,0,0,0,0,0,0,0],"id":33,"left_children":[1,3,5,7,9,11,13,15,17,19,21,23,25,27,29,-1,-1,-1,-1,-1,-1,-1,-1,-1,-1,-1,-1,-1,-1,-1,-1],"loss_changes":[7.486962E2,8.747061E1,1.6356323E1,4.259186E0,2.591372E0,9.789642E0,3.3157883E0,3.6795578E0,4.925476E0,2.8847327E0,1.701942E0,4.938362E0,6.5520325E0,2.8408508E0,2.8562431E0,0E0,0E0,0E0,0E0,0E0,0E0,0E0,0E0,0E0,0E0,0E0,0E0,0E0,0E0,0E0,0E0],"parents":[2147483647,0,0,1,1,2,2,3,3,4,4,5,5,6,6,7,7,8,8,9,9,10,10,11,11,12,12,13,13,14,14],"right_children":[2,4,6,8,10,12,14,16,18,20,22,24,26,28,30,-1,-1,-1,-1,-1,-1,-1,-1,-1,-1,-1,-1,-1,-1,-1,-1],"split_conditions":[5E-1,1.6666667E-1,6.666667E-1,1.7233334E0,3.0769232E-1,1.6555556E0,6.427367E1,7.717742E1,3.552909E1,1.8333334E0,5.7481224E1,1.6922222E0,5.16129E-1,1.971111E0,2.23125E0,-3.409802E-2,6.428709E-3,-3.0973995E-2,-2.3893451E-2,-2.0062169E-2,-5.833053E-3,-6.714555E-3,4.5657126E-4,4.9704444E-2,2.6513768E-2,1.9175908E-2,6.021783E-3,4.122768E-2,2.6873935E-2,2.633202E-2,-1.2734148E-2],"split_indices":[18,18,18,10,18,10,1,1,6,11,1,11,18,10,11,0,0,0,0,0,0,0,0,0,0,0,0,0,0,0,0],"split_type":[0,0,0,0,0,0,0,0,0,0,0,0,0,0,0,0,0,0,0,0,0,0,0,0,0,0,0,0,0,0,0],"sum_hessian":[4.2539717E3,2.187916E3,2.0660557E3,1.5899766E3,5.979394E2,1.7895621E3,2.7649365E2,2.427053E2,1.3472712E3,2.2417874E2,3.7376068E2,1.27488144E2,1.662074E3,1.8169559E2,9.4798065E1,2.3726808E2,5.437226E0,3.4819968E2,9.990716E2,4.390814E1,1.802706E2,1.22206726E2,2.5155394E2,3.2726017E1,9.476213E1,1.5600846E3,1.0198941E2,1.2109785E2,6.0597733E1,9.043548E1,4.362582E0],"tree_param":{"num_deleted":"0","num_feature":"19","num_nodes":"31","size_leaf_vector":"1"}},{"base_weights":[1.3255851E-3,-4.6918017E-1,3.5149053E-1,-5.1678985E-1,-1.4387086E-1,-7.03013E-3,4.1703093E-1,-6.6066766E-1,-4.9180296E-1,-3.0254236E-1,-9.6537374E-2,-1.7102402E-2,3.5288858E-1,3.8174957E-1,6.413812E-1,-4.188504E-2,-3.0065691E-2,2.1307075E-3,-2.4939379E-2,-2.9785937E-2,-7.2320844E-3,-5.375942E-3,2.9979294E-2,1.6797349E-3,-5.3139767E-3,-2.1767092E-3,4.6265244E-2,3.3541784E-2,1.7934427E-2,3.561126E-2,2.3688713E-2],"categories":[],"categories_nodes":[],"categories_segments":[],"categories_sizes":[],"default_left":[0,0,0,0,0,0,0,0,0,0,0,0,0,0,0,0,0,0,0,0,0,0,0,0,0,0,0,0,0,0,0],"id":34,"left_children":[1,3,5,7,9,11,13,15,17,19,21,23,25,27,29,-1,-1,-1,-1,-1,-1,-1,-1,-1,-1,-1,-1,-1,-1,-1,-1],"loss_changes":[6.920461E2,2.768396E1,5.6589874E1,5.2943726E0,1.6997018E0,1.3588912E0,1.5871063E1,1.895935E0,5.0069275E0,2.3406868E0,1.4311079E0,1.6491128E0,2.356067E0,1.150473E1,2.930336E0,0E0,0E0,0E0,0E0,0E0,0E0,0E0,0E0,0E0,0E0,0E0,0E0,0E0,0E0,0E0,0E0],"parents":[2147483647,0,0,1,1,2,2,3,3,4,4,5,5,6,6,7,7,8,8,9,9,10,10,11,11,12,12,13,13,14,14],"right_children":[2,4,6,8,10,12,14,16,18,20,22,24,26,28,30,-1,-1,-1,-1,-1,-1,-1,-1,-1,-1,-1,-1,-1,-1,-1,-1],"split_conditions":[3.3333334E-1,1.6666667E-1,5E-1,1.7366667E0,2.5E-1,2.26E0,6.666667E-1,1.7177777E0,1.7511111E0,1.9144444E0,2.1766667E0,4.587602E1,4.6030014E1,1.6555556E0,1.98E0,-4.188504E-2,-3.0065691E-2,2.1307075E-3,-2.4939379E-2,-2.9785937E-2,-7.2320844E-3,-5.375942E-3,2.9979294E-2,1.6797349E-3,-5.3139767E-3,-2.1767092E-3,4.6265244E-2,3.3541784E-2,1.7934427E-2,3.561126E-2,2.3688713E-2],"split_indices":[18,18,18,11,18,11,18,10,11,11,11,2,3,10,10,0,0,0,0,0,0,0,0,0,0,0,0,0,0,0,0],"split_type":[0,0,0,0,0,0,0,0,0,0,0,0,0,0,0,0,0,0,0,0,0,0,0,0,0,0,0,0,0,0,0],"sum_hessian":[4.198465E3,1.7912618E3,2.407203E3,1.5620623E3,2.2919958E2,3.7218115E2,2.0350217E3,2.2737361E2,1.3346886E3,5.1424034E1,1.7777554E2,3.629758E2,9.205342E0,1.7608169E3,2.7420474E2,5.3798042E1,1.7357556E2,1.7152876E1,1.3175358E3,1.7030508E1,3.4393528E1,1.7584708E2,1.9284716E0,2.318134E2,1.311624E2,5.9846573E0,3.2206845E0,1.2801166E2,1.6328053E3,1.9045428E2,8.375045E1],"tree_param":{"num_deleted":"0","num_feature":"19","num_nodes":"31","size_leaf_vector":"1"}},{"base_weights":[-5.08262E-3,2.2455625E-1,-1.4848785E-2,-3.984761E-1,2.591941E-1,-8.507565E-2,5.467736E-3,-8.020144E-3,-3.8197357E-2,5.028946E-1,1.5476547E-1,-3.4565496E-1,-3.902662E-2,8.859611E-1,2.1495936E-3,2.7655726E-2,-1.8899046E-2,4.002424E-2,5.2946485E-3,9.459338E-3,-1.982049E-2,3.9262485E-2,-2.535051E-3,-1.3364243E-2,5.5096865E-2,7.2870374E-4,-6.75976E-3],"categories":[],"categories_nodes":[],"categories_segments":[],"categories_sizes":[],"default_left":[0,0,0,0,0,0,0,0,0,0,0,0,0,0,0,0,0,0,0,0,0,0,0,0,0,0,0],"id":35,"left_children":[1,3,5,7,9,11,13,-1,-1,15,17,19,21,23,25,-1,-1,-1,-1,-1,-1,-1,-1,-1,-1,-1,-1],"loss_changes":[9.399569E0,3.7930117E0,5.73569E0,6.952518E-1,4.059619E0,1.0810317E1,9.109733E0,0E0,0E0,2.3467817E0,3.5523646E0,3.7488537E0,7.4272304E0,3.210268E0,5.3055887E0,0E0,0E0,0E0,0E0,0E0,0E0,0E0,0E0,0E0,0E0,0E0,0E0],"parents":[2147483647,0,0,1,1,2,2,3,3,4,4,5,5,6,6,9,9,10,10,11,11,12,12,13,13,14,14],"right_children":[2,4,6,8,10,12,14,-1,-1,16,18,20,22,24,26,-1,-1,-1,-1,-1,-1,-1,-1,-1,-1,-1,-1],"split_conditions":[4.7082474E1,4.0920135E1,1E0,2.1193605E1,4.0196007E1,5.1848267E1,1.5022222E0,-8.020144E-3,-3.8197357E-2,7.270441E1,4.8E1,3.3333332E1,1.1049724E1,3.1365665E1,7.2348335E1,2.7655726E-2,-1.8899046E-2,4.002424E-2,5.2946485E-3,9.459338E-3,-1.982049E-2,3.9262485E-2,-2.535051E-3,-1.3364243E-2,5.5096865E-2,7.2870374E-4,-6.75976E-3],"split_indices":[1,0,8,2,1,0,10,0,0,0,0,0,3,2,1,0,0,0,0,0,0,0,0,0,0,0,0],"split_type":[0,0,0,0,0,0,0,0,0,0,0,0,0,0,0,0,0,0,0,0,0,0,0,0,0,0,0],"sum_hessian":[4.1887144E3,1.6997505E2,4.0187393E3,8.398943E0,1.6157611E2,9.010271E2,3.1177122E3,5.957217E0,2.4417257E0,4.732356E1,1.1425255E2,1.3433792E2,7.6668915E2,1.0706323E1,3.1070059E3,4.512311E1,2.2004476E0,6.9568853E0,1.0729566E2,1.1406949E1,1.2293097E2,9.781747E0,7.569074E2,1.6513039E0,9.055018E0,2.8500762E3,2.5692966E2],"tree_param":{"num_deleted":"0","num_feature":"19","num_nodes":"27","size_leaf_vector":"1"}},{"base_weights":[-3.057999E-3,2.1746027E-1,-1.2441467E-2,1.0254877E-1,3.5785466E-1,6.3421053E-4,-1.5445948E-1,4.50967E-2,6.860593E-2,7.72891E-1,2.3336293E-1,-8.2234286E-2,2.1568136E-2,1.6753554E-2,-2.1773535E-1,7.31302E-3,-1.2326409E-2,4.8022356E-2,-2.5613038E-3,3.4689964E-3,2.3298541E-2,-1.1297075E-2,-1.2440478E-3,3.1541806E-2,8.6917466E-4,2.376274E-3,-4.2501885E-2,-1.2662341E-2,1.341991E-2],"categories":[],"categories_nodes":[],"categories_segments":[],"categories_sizes":[],"default_left":[0,0,0,0,0,0,0,0,0,0,0,0,0,0,0,0,0,0,0,0,0,0,0,0,0,0,0,0,0],"id":36,"left_children":[1,3,5,7,9,11,13,-1,15,17,19,21,23,25,27,-1,-1,-1,-1,-1,-1,-1,-1,-1,-1,-1,-1,-1,-1],"loss_changes":[8.631427E0,2.710002E0,7.4294553E0,2.516488E0,3.7582598E0,6.3587565E0,3.6578598E0,0E0,2.2932496E0,2.701066E0,2.2590415E0,6.0871286E0,7.44969E0,2.492915E0,4.320854E0,0E0,0E0,0E0,0E0,0E0,0E0,0E0,0E0,0E0,0E0,0E0,0E0,0E0,0E0],"parents":[2147483647,0,0,1,1,2,2,3,3,4,4,5,5,6,6,8,8,9,9,10,10,11,11,12,12,13,13,14,14],"right_children":[2,4,6,8,10,12,14,-1,16,18,20,22,24,26,28,-1,-1,-1,-1,-1,-1,-1,-1,-1,-1,-1,-1,-1,-1],"split_conditions":[4.7082474E1,2E0,7.2348335E1,1.2805556E0,3.4469624E1,5.4377316E1,1.9083333E0,4.50967E-2,6.4749275E1,3E0,4.587602E1,1E0,1.3833333E0,6.642269E1,7.48786E1,7.31302E-3,-1.2326409E-2,4.8022356E-2,-2.5613038E-3,3.4689964E-3,2.3298541E-2,-1.1297075E-2,-1.2440478E-3,3.1541806E-2,8.6917466E-4,2.376274E-3,-4.2501885E-2,-1.2662341E-2,1.341991E-2],"split_indices":[1,8,1,11,2,0,11,0,0,9,2,8,11,7,1,0,0,0,0,0,0,0,0,0,0,0,0,0,0],"split_type":[0,0,0,0,0,0,0,0,0,0,0,0,0,0,0,0,0,0,0,0,0,0,0,0,0,0,0,0,0],"sum_hessian":[4.169024E3,1.6925415E2,3.9997695E3,9.402554E1,7.52286E1,3.6634675E3,3.3630194E2,2.7882206E0,9.123733E1,1.6156603E1,5.9071995E1,7.382242E2,2.9252434E3,9.0948105E1,2.4535385E2,7.36296E1,1.7607721E1,1.302654E1,3.130062E0,3.5408276E1,2.366372E1,2.0974292E2,5.2848126E2,1.8932913E1,2.9063105E3,8.874282E1,2.2052848E0,2.2909761E2,1.6256235E1],"tree_param":{"num_deleted":"0","num_feature":"19","num_nodes":"29","size_leaf_vector":"1"}},{"base_weights":[2.1852636E-4,3.0653434E-2,-6.9929086E-2,5.320855E-1,2.7288698E-2,-3.2704613E-1,-4.9161028E-2,-1.8703881E-1,6.8075603E-1,3.265428E-1,2.2023752E-2,-1.9199477E-1,-5.748603E-1,-5.811752E-2,4.8690408E-1,2.8979806E-2,-4.1603375E-2,1.1062111E-2,4.655333E-2,-9.556208E-3,2.7831031E-2,2.5512867E-3,-1.1907688E-3,-3.0219397E-2,-9.4192865E-4,-3.726653E-2,-4.365151E-3,3.0507738E-2,-3.1468098E-3,4.7056634E-2,8.162253E-3],"categories":[],"categories_nodes":[],"categories_segments":[],"categories_sizes":[],"default_left":[0,0,0,0,0,0,0,0,0,0,0,0,0,0,0,0,0,0,0,0,0,0,0,0,0,0,0,0,0,0,0],"id":37,"left_children":[1,3,5,7,9,11,13,15,17,19,21,23,25,27,29,-1,-1,-1,-1,-1,-1,-1,-1,-1,-1,-1,-1,-1,-1,-1,-1],"loss_changes":[8.903945E0,4.892868E0,6.72259E0,2.1943164E0,4.5466204E0,3.0401888E0,5.640146E0,2.5080726E0,1.6615806E0,6.049534E0,3.7786303E0,4.4468613E0,2.6531267E0,3.7432692E0,2.685861E0,0E0,0E0,0E0,0E0,0E0,0E0,0E0,0E0,0E0,0E0,0E0,0E0,0E0,0E0,0E0,0E0],"parents":[2147483647,0,0,1,1,2,2,3,3,4,4,5,5,6,6,7,7,8,8,9,9,10,10,11,11,12,12,13,13,14,14],"right_children":[2,4,6,8,10,12,14,16,18,20,22,24,26,28,30,-1,-1,-1,-1,-1,-1,-1,-1,-1,-1,-1,-1,-1,-1,-1,-1],"split_conditions":[6.5105774E1,1.34E0,2.7187286E1,5.036305E1,1.6663246E1,4.7767956E1,7.473129E1,1.2805556E0,3.846154E1,5.4013157E1,1.9822222E0,3.2281708E1,2E0,1.4416667E0,3.908081E1,2.8979806E-2,-4.1603375E-2,1.1062111E-2,4.655333E-2,-9.556208E-3,2.7831031E-2,2.5512867E-3,-1.1907688E-3,-3.0219397E-2,-9.4192865E-4,-3.726653E-2,-4.365151E-3,3.0507738E-2,-3.1468098E-3,4.7056634E-2,8.162253E-3],"split_indices":[1,11,2,4,3,3,4,11,2,4,10,3,11,11,3,0,0,0,0,0,0,0,0,0,0,0,0,0,0,0,0],"split_type":[0,0,0,0,0,0,0,0,0,0,0,0,0,0,0,0,0,0,0,0,0,0,0,0,0,0,0,0,0,0,0],"sum_hessian":[4.168587E3,2.9076216E3,1.2609652E3,1.8333439E1,2.889288E3,9.31375E1,1.1678278E3,3.0966704E0,1.5236769E1,4.8898968E1,2.8403892E3,6.143306E1,3.1704435E1,1.1495134E3,1.8314302E1,1.4613069E0,1.6353635E0,6.0373764E0,9.199392E0,1.5098095E1,3.3800873E1,1.7396292E3,1.10076E3,1.743027E1,4.4002792E1,2.3099268E1,8.605168E0,7.330057E0,1.1421833E3,6.8263273E0,1.1487974E1],"tree_param":{"num_deleted":"0","num_feature":"19","num_nodes":"31","size_leaf_vector":"1"}},{"base_weights":[-1.4593463E-3,-4.543541E-1,3.3447284E-1,-4.9598876E-1,-1.388252E-1,6.384077E-3,3.9449978E-1,-6.314976E-1,-4.7689414E-1,-1.582854E-1,3.6567625E-1,-2.0284398E-1,2.4524927E-2,3.605247E-1,6.149383E-1,-3.50095E-2,-1.8723292E-2,-2.4118347E-2,1.1800134E-3,-1.3484582E-2,-4.5429138E-3,-3.959257E-4,2.1629648E-2,-2.392914E-2,-3.4988576E-3,2.5100142E-2,4.143121E-4,2.8959772E-2,1.7044747E-2,3.3378154E-2,1.7067341E-2],"categories":[],"categories_nodes":[],"categories_segments":[],"categories_sizes":[],"default_left":[0,0,0,0,0,0,0,0,0,0,0,0,0,0,0,0,0,0,0,0,0,0,0,0,0,0,0,0,0,0,0],"id":38,"left_children":[1,3,5,7,9,11,13,15,17,19,21,23,25,27,29,-1,-1,-1,-1,-1,-1,-1,-1,-1,-1,-1,-1,-1,-1,-1,-1],"loss_changes":[6.341237E2,2.3249023E1,4.712549E1,3.755249E0,2.1029E0,1.4135981E0,1.4928406E1,3.1019287E0,3.7862854E0,1.487328E0,2.0438421E-1,1.0552833E0,2.6507108E0,7.336441E0,3.6411057E0,0E0,0E0,0E0,0E0,0E0,0E0,0E0,0E0,0E0,0E0,0E0,0E0,0E0,0E0,0E0,0E0],"parents":[2147483647,0,0,1,1,2,2,3,3,4,4,5,5,6,6,7,7,8,8,9,9,10,10,11,11,12,12,13,13,14,14],"right_children":[2,4,6,8,10,12,14,16,18,20,22,24,26,28,30,-1,-1,-1,-1,-1,-1,-1,-1,-1,-1,-1,-1,-1,-1,-1,-1],"split_conditions":[3.0769232E-1,2E-1,5E-1,2.9089031E1,5E0,1.7083334E0,6.666667E-1,3E0,7.717742E1,1.92E0,5.169828E1,5.33706E1,1.7366667E0,1.6666666E0,6.878023E1,-3.50095E-2,-1.8723292E-2,-2.4118347E-2,1.1800134E-3,-1.3484582E-2,-4.5429138E-3,-3.959257E-4,2.1629648E-2,-2.392914E-2,-3.4988576E-3,2.5100142E-2,4.143121E-4,2.8959772E-2,1.7044747E-2,3.3378154E-2,1.7067341E-2],"split_indices":[18,18,18,2,8,11,18,8,1,11,1,0,11,11,0,0,0,0,0,0,0,0,0,0,0,0,0,0,0,0,0],"split_type":[0,0,0,0,0,0,0,0,0,0,0,0,0,0,0,0,0,0,0,0,0,0,0,0,0,0,0,0,0,0,0],"sum_hessian":[4.165976E3,1.7739849E3,2.3919912E3,1.5666857E3,2.0729921E2,3.701225E2,2.0218688E3,1.8953584E2,1.3771498E3,2.0026079E2,7.0384316E0,2.8718237E1,3.4140427E2,1.7541466E3,2.6772214E2,1.4820387E2,4.1331978E1,1.3622896E3,1.4860223E1,7.437505E1,1.2588573E2,1.2031174E0,5.8353143E0,8.492259E0,2.0225977E1,1.0245134E1,3.3115915E2,1.42148E2,1.6119987E3,2.2332587E2,4.439627E1],"tree_param":{"num_deleted":"0","num_feature":"19","num_nodes":"31","size_leaf_vector":"1"}},{"base_weights":[-1.3255662E-3,-3.6775863E-1,3.8662666E-1,-4.773456E-1,-9.65907E-2,3.505133E-1,6.2266564E-1,-5.292005E-1,-4.015755E-1,-1.7497808E-1,-4.646915E-2,8.4276E-1,3.3857557E-1,9.1287345E-1,5.785749E-1,-3.129561E-2,-2.4847632E-2,-9.5316265E-3,-2.2821179E-2,-1.0678289E-2,-3.3271592E-3,-2.9114578E-3,1.7505009E-2,1.761066E-2,4.9174163E-2,1.8704081E-2,1.1810406E-2,4.7834344E-2,8.585556E-3,2.9879838E-2,3.486544E-3],"categories":[],"categories_nodes":[],"categories_segments":[],"categories_sizes":[],"default_left":[0,0,0,0,0,0,0,0,0,0,0,0,0,0,0,0,0,0,0,0,0,0,0,0,0,0,0,0,0,0,0],"id":39,"left_children":[1,3,5,7,9,11,13,15,17,19,21,23,25,27,29,-1,-1,-1,-1,-1,-1,-1,-1,-1,-1,-1,-1,-1,-1,-1,-1],"loss_changes":[5.856436E2,6.2910706E1,1.6839172E1,5.7147217E0,2.392478E0,9.926666E0,2.852974E0,2.4723663E0,7.0525894E0,9.814234E-1,1.764898E0,2.4476871E0,6.0845795E0,9.1124916E-1,2.205101E0,0E0,0E0,0E0,0E0,0E0,0E0,0E0,0E0,0E0,0E0,0E0,0E0,0E0,0E0,0E0,0E0],"parents":[2147483647,0,0,1,1,2,2,3,3,4,4,5,5,6,6,7,7,8,8,9,9,10,10,11,11,12,12,13,13,14,14],"right_children":[2,4,6,8,10,12,14,16,18,20,22,24,26,28,30,-1,-1,-1,-1,-1,-1,-1,-1,-1,-1,-1,-1,-1,-1,-1,-1],"split_conditions":[5E-1,1.4285715E-1,6.666667E-1,1.9733334E0,3.3333334E-1,1.5022222E0,1.6933334E0,1.7366667E0,2.0122223E0,2.048889E0,2.26E0,3.3623447E1,6.568679E1,4E0,2.23125E0,-3.129561E-2,-2.4847632E-2,-9.5316265E-3,-2.2821179E-2,-1.0678289E-2,-3.3271592E-3,-2.9114578E-3,1.7505009E-2,1.761066E-2,4.9174163E-2,1.8704081E-2,1.1810406E-2,4.7834344E-2,8.585556E-3,2.9879838E-2,3.486544E-3],"split_indices":[18,18,18,11,18,10,10,11,11,10,11,6,1,8,11,0,0,0,0,0,0,0,0,0,0,0,0,0,0,0,0],"split_type":[0,0,0,0,0,0,0,0,0,0,0,0,0,0,0,0,0,0,0,0,0,0,0,0,0,0,0,0,0,0,0],"sum_hessian":[4.117652E3,2.1175818E3,2.0000703E3,1.5075684E3,6.100133E2,1.7368256E3,2.6324475E2,8.9148035E2,6.160881E2,2.3694818E2,3.7306512E2,3.9475555E1,1.6973501E3,3.2120583E1,2.3112416E2,2.1832143E2,6.7315894E2,1.280581E2,4.8802994E2,1.7404346E2,6.2904736E1,3.6314932E2,9.915792E0,9.580787E0,2.9894768E1,1.258267E3,4.3908307E2,3.005321E1,2.0673714E0,2.2262738E2,8.496777E0],"tree_param":{"num_deleted":"0","num_feature":"19","num_nodes":"31","size_leaf_vector":"1"}},{"base_weights":[6.090424E-3,-4.0980282E-1,3.1293732E-1,-4.456245E-1,-1.5200138E-1,6.193578E-3,3.6999646E-1,-5.153975E-1,-4.066187E-1,-1.693387E-1,2.9806897E-1,-3.768544E-3,5.290962E-2,3.3573976E-1,5.990762E-1,-2.886032E-2,-1.6377136E-2,-1.3055553E-2,-2.1501666E-2,-6.6819587E-3,-1.8747408E-2,2.4260687E-2,-2.214923E-2,-9.007483E-3,8.962757E-4,1.7754722E-2,1.7409635E-3,3.2479655E-2,1.6824042E-2],"categories":[],"categories_nodes":[],"categories_segments":[],"categories_sizes":[],"default_left":[0,0,0,0,0,0,0,0,0,0,0,0,0,0,0,0,0,0,0,0,0,0,0,0,0,0,0,0,0],"id":40,"left_children":[1,3,5,7,9,11,13,15,17,19,21,23,-1,25,27,-1,-1,-1,-1,-1,-1,-1,-1,-1,-1,-1,-1,-1,-1],"loss_changes":[5.228642E2,1.5996399E1,4.1262894E1,3.9456177E0,1.718257E0,3.8899791E0,1.5398743E1,6.1242523E0,3.2403412E0,1.4652338E0,1.3646739E0,1.4125532E0,0E0,1.0072586E1,3.1949387E0,0E0,0E0,0E0,0E0,0E0,0E0,0E0,0E0,0E0,0E0,0E0,0E0,0E0,0E0],"parents":[2147483647,0,0,1,1,2,2,3,3,4,4,5,5,6,6,7,7,8,8,9,9,10,10,11,11,13,13,14,14],"right_children":[2,4,6,8,10,12,14,16,18,20,22,24,-1,26,28,-1,-1,-1,-1,-1,-1,-1,-1,-1,-1,-1,-1,-1,-1],"split_conditions":[3.3333334E-1,1.8181819E-1,5E-1,3.846154E1,5E0,6.485182E1,6.666667E-1,3E0,4.0258636E1,6.993311E1,2.7272728E-1,2.9909555E1,5.290962E-2,5.16129E-1,6.878023E1,-2.886032E-2,-1.6377136E-2,-1.3055553E-2,-2.1501666E-2,-6.6819587E-3,-1.8747408E-2,2.4260687E-2,-2.214923E-2,-9.007483E-3,8.962757E-4,1.7754722E-2,1.7409635E-3,3.2479655E-2,1.6824042E-2],"split_indices":[18,18,18,2,8,3,18,8,2,0,18,3,0,18,0,0,0,0,0,0,0,0,0,0,0,0,0,0,0],"split_type":[0,0,0,0,0,0,0,0,0,0,0,0,0,0,0,0,0,0,0,0,0,0,0,0,0,0,0,0,0],"sum_hessian":[4.0951772E3,1.7385079E3,2.3566694E3,1.5257725E3,2.1273552E2,3.6979578E2,1.9868737E3,5.4273035E2,9.8304205E2,2.0544524E2,7.290282E0,3.6731384E2,2.4819372E0,1.7305516E3,2.5632196E2,4.0680786E2,1.3592249E2,1.379455E2,8.4509656E2,1.7645729E2,2.8987938E1,6.0960345E0,1.1942469E0,3.9429844E1,3.27884E2,1.6258027E3,1.0474887E2,2.1373152E2,4.259043E1],"tree_param":{"num_deleted":"0","num_feature":"19","num_nodes":"29","size_leaf_vector":"1"}},{"base_weights":[-9.712577E-5,-4.031297E-1,2.956929E-1,-4.414348E-1,-1.5119831E-1,6.9585843E-3,3.502113E-1,-6.4194137E-1,-4.237787E-1,-1.1974843E-1,-2.8352267E-1,-1.2361382E-1,4.511016E-2,3.1589937E-1,5.82898E-1,3.272511E-3,-3.4043532E-2,-4.60422E-2,-2.0879395E-2,-8.106824E-3,1.2264423E-3,1.1021081E-2,-1.9008942E-2,-3.9576013E-3,-3.1272516E-2,1.6886656E-3,2.412912E-2,4.082661E-2,1.5193015E-2,3.3016104E-2,1.9895699E-2],"categories":[],"categories_nodes":[],"categories_segments":[],"categories_sizes":[],"default_left":[0,0,0,0,0,0,0,0,0,0,0,0,0,0,0,0,0,0,0,0,0,0,0,0,0,0,0,0,0,0,0],"id":41,"left_children":[1,3,5,7,9,11,13,15,17,19,21,23,25,27,29,-1,-1,-1,-1,-1,-1,-1,-1,-1,-1,-1,-1,-1,-1,-1,-1],"loss_changes":[4.8416623E2,1.652246E1,3.686862E1,5.0086365E0,9.165492E-1,1.8639219E0,1.554631E1,3.315487E0,3.8431854E0,1.1431358E0,2.1845677E0,1.838581E0,1.4191277E0,1.0114044E1,3.3466568E0,0E0,0E0,0E0,0E0,0E0,0E0,0E0,0E0,0E0,0E0,0E0,0E0,0E0,0E0,0E0,0E0],"parents":[2147483647,0,0,1,1,2,2,3,3,4,4,5,5,6,6,7,7,8,8,9,9,10,10,11,11,12,12,13,13,14,14],"right_children":[2,4,6,8,10,12,14,16,18,20,22,24,26,28,30,-1,-1,-1,-1,-1,-1,-1,-1,-1,-1,-1,-1,-1,-1,-1,-1],"split_conditions":[3.3333334E-1,1.6666667E-1,5E-1,4.923339E1,6.873311E1,5.6625683E1,6.666667E-1,1.0927504E1,1.3916667E0,2.048889E0,1.7428571E0,5.574417E1,6.0676617E1,1.5022222E0,6.5153595E1,3.272511E-3,-3.4043532E-2,-4.60422E-2,-2.0879395E-2,-8.106824E-3,1.2264423E-3,1.1021081E-2,-1.9008942E-2,-3.9576013E-3,-3.1272516E-2,1.6886656E-3,2.412912E-2,4.082661E-2,1.5193015E-2,3.3016104E-2,1.9895699E-2],"split_indices":[18,18,18,0,0,1,18,2,10,10,10,1,2,10,1,0,0,0,0,0,0,0,0,0,0,0,0,0,0,0,0],"split_type":[0,0,0,0,0,0,0,0,0,0,0,0,0,0,0,0,0,0,0,0,0,0,0,0,0,0,0,0,0,0,0],"sum_hessian":[4.0593538E3,1.7180454E3,2.3413083E3,1.4906469E3,2.2739865E2,3.720462E2,1.9692621E3,1.1777769E2,1.3728691E3,1.8526999E2,4.212866E1,8.361993E1,2.8842627E2,1.7182474E3,2.5101468E2,6.1079297E0,1.1166976E2,1.5070848E1,1.3577982E3,1.4310312E2,4.216687E1,6.5738034E0,3.5554855E1,7.7877815E1,5.742107E0,2.8219067E2,6.235613E0,3.8780334E1,1.679467E3,1.7514082E2,7.5873856E1],"tree_param":{"num_deleted":"0","num_feature":"19","num_nodes":"31","size_leaf_vector":"1"}},{"base_weights":[3.94571E-3,-3.334168E-1,3.2393032E-1,-4.194666E-1,-7.975934E-2,4.7463283E-1,2.807425E-1,-4.9966294E-1,-3.7474367E-1,-9.215061E-2,2.5701952E-1,7.320753E-1,4.2990124E-1,2.5111738E-1,5.012135E-1,-2.7669592E-2,-1.6664652E-2,-9.358182E-3,-2.025601E-2,-1.3034562E-2,-3.4919132E-3,1.651718E-2,-1.6864521E-2,1.5108468E-2,4.0151652E-2,2.4878165E-2,1.4002076E-2,1.93704E-2,1.0173126E-2,3.118079E-2,1.6246982E-2],"categories":[],"categories_nodes":[],"categories_segments":[],"categories_sizes":[],"default_left":[0,0,0,0,0,0,0,0,0,0,0,0,0,0,0,0,0,0,0,0,0,0,0,0,0,0,0,0,0,0,0],"id":42,"left_children":[1,3,5,7,9,11,13,15,17,19,21,23,25,27,29,-1,-1,-1,-1,-1,-1,-1,-1,-1,-1,-1,-1,-1,-1,-1,-1],"loss_changes":[4.3316638E2,4.260112E1,1.3270035E1,5.0429993E0,2.0936024E0,4.950981E0,1.0344696E1,4.4555664E0,5.2813873E0,1.7836394E0,8.899851E-1,1.7788086E0,3.8353958E0,9.112762E0,3.8729095E0,0E0,0E0,0E0,0E0,0E0,0E0,0E0,0E0,0E0,0E0,0E0,0E0,0E0,0E0,0E0,0E0],"parents":[2147483647,0,0,1,1,2,2,3,3,4,4,5,5,6,6,7,7,8,8,9,9,10,10,11,11,12,12,13,13,14,14],"right_children":[2,4,6,8,10,12,14,16,18,20,22,24,26,28,30,-1,-1,-1,-1,-1,-1,-1,-1,-1,-1,-1,-1,-1,-1,-1,-1],"split_conditions":[4E-1,1.4285715E-1,1E0,3.8526783E1,5.9573128E1,2.8921396E1,6.666667E-1,3E0,4.0258636E1,2.5E-1,6.642269E1,5.1607643E1,6.320593E1,3.5835197E1,4.5014084E1,-2.7669592E-2,-1.6664652E-2,-9.358182E-3,-2.025601E-2,-1.3034562E-2,-3.4919132E-3,1.651718E-2,-1.6864521E-2,1.5108468E-2,4.0151652E-2,2.4878165E-2,1.4002076E-2,1.93704E-2,1.0173126E-2,3.118079E-2,1.6246982E-2],"split_indices":[18,18,9,2,3,3,18,8,2,18,3,0,1,2,2,0,0,0,0,0,0,0,0,0,0,0,0,0,0,0,0],"split_type":[0,0,0,0,0,0,0,0,0,0,0,0,0,0,0,0,0,0,0,0,0,0,0,0,0,0,0,0,0,0,0],"sum_hessian":[4.0106272E3,1.9522799E3,2.0583472E3,1.457268E3,4.95012E2,4.5625845E2,1.6020887E3,5.180816E2,9.391863E2,4.7814572E2,1.6866287E1,6.52664E1,3.9099203E2,1.414199E3,1.878898E2,3.8985294E2,1.2822867E2,1.318922E2,8.072941E2,5.4650322E1,4.234954E2,1.5409293E1,1.4569933E0,9.991304E0,5.52751E1,2.677721E2,1.23219925E2,3.6453015E2,1.0496688E3,1.093918E2,7.8498E1],"tree_param":{"num_deleted":"0","num_feature":"19","num_nodes":"31","size_leaf_vector":"1"}},{"base_weights":[8.74384E-3,-3.556267E-1,2.7219862E-1,-3.9263442E-1,-1.1479448E-1,2.6583334E-4,3.253407E-1,-4.4476914E-1,-3.1466106E-1,-1.7795599E-1,-2.7688377E-2,-1.0854009E-2,3.685051E-1,2.938017E-1,5.402029E-1,-2.995564E-2,-2.10888E-2,-4.458014E-3,-1.844966E-2,-9.631991E-3,1.7756311E-2,-1.7258413E-2,1.7288795E-3,-7.0617753E-3,9.240014E-4,-1.9150313E-4,4.1880023E-2,1.5753122E-2,-1.8366942E-3,3.2346286E-2,1.9620256E-2],"categories":[],"categories_nodes":[],"categories_segments":[],"categories_sizes":[],"default_left":[0,0,0,0,0,0,0,0,0,0,0,0,0,0,0,0,0,0,0,0,0,0,0,0,0,0,0,0,0,0,0],"id":43,"left_children":[1,3,5,7,9,11,13,15,17,19,21,23,25,27,29,-1,-1,-1,-1,-1,-1,-1,-1,-1,-1,-1,-1,-1,-1,-1,-1],"loss_changes":[3.8273022E2,1.4866379E1,3.3438248E1,5.7536774E0,1.2289076E0,1.5570145E0,1.2958145E1,2.822174E0,7.1266403E0,1.0845604E0,1.8987632E0,1.4143628E0,1.9499413E0,1.1888397E1,3.6353226E0,0E0,0E0,0E0,0E0,0E0,0E0,0E0,0E0,0E0,0E0,0E0,0E0,0E0,0E0,0E0,0E0],"parents":[2147483647,0,0,1,1,2,2,3,3,4,4,5,5,6,6,7,7,8,8,9,9,10,10,11,11,12,12,13,13,14,14],"right_children":[2,4,6,8,10,12,14,16,18,20,22,24,26,28,30,-1,-1,-1,-1,-1,-1,-1,-1,-1,-1,-1,-1,-1,-1,-1,-1],"split_conditions":[3.0769232E-1,1.6666667E-1,5E-1,1.9766667E0,4.4465714E1,2.26E0,6.666667E-1,1.6555556E0,2.0122223E0,6.071144E1,5.3699177E1,5.4634277E1,4.5829178E1,5.16129E-1,4.5014084E1,-2.995564E-2,-2.10888E-2,-4.458014E-3,-1.844966E-2,-9.631991E-3,1.7756311E-2,-1.7258413E-2,1.7288795E-3,-7.0617753E-3,9.240014E-4,-1.9150313E-4,4.1880023E-2,1.5753122E-2,-1.8366942E-3,3.2346286E-2,1.9620256E-2],"split_indices":[18,18,18,11,2,11,18,11,11,3,1,1,3,18,2,0,0,0,0,0,0,0,0,0,0,0,0,0,0,0,0],"split_type":[0,0,0,0,0,0,0,0,0,0,0,0,0,0,0,0,0,0,0,0,0,0,0,0,0,0,0,0,0,0,0],"sum_hessian":[3.9849656E3,1.672067E3,2.3128987E3,1.4488048E3,2.232622E2,3.7826862E2,1.93463E3,8.65445E2,5.8335986E2,1.2881453E2,9.444768E1,3.681228E2,1.0145802E1,1.6890646E3,2.4556538E2,1.0896319E2,7.564818E2,1.1377744E2,4.6958243E2,1.2598294E2,2.8315935E0,1.4741369E1,7.970631E1,6.691038E1,3.0121243E2,6.209204E0,3.936597E0,1.5870303E3,1.0203435E2,1.4063655E2,1.04928825E2],"tree_param":{"num_deleted":"0","num_feature":"19","num_nodes":"31","size_leaf_vector":"1"}},{"base_weights":[-7.935648E-3,-2.8682545E-1,2.8990486E-1,-3.7455857E-1,-4.990868E-2,2.546244E-1,5.35315E-1,-5.2802247E-1,-3.4855136E-1,1.0033337E-1,-7.4027866E-2,5.125451E-1,2.3478226E-1,8.8379896E-1,4.832216E-1,-2.7149618E-2,1.2042959E-2,1.1107531E-2,-1.7802773E-2,-1.4409977E-2,7.951063E-3,-2.4013452E-3,-1.1300268E-2,4.90687E-2,1.7781006E-2,1.3701253E-2,6.1521637E-3,4.6347324E-2,1.2794173E-2,2.9514715E-2,1.54434685E-2],"categories":[],"categories_nodes":[],"categories_segments":[],"categories_sizes":[],"default_left":[0,0,0,0,0,0,0,0,0,0,0,0,0,0,0,0,0,0,0,0,0,0,0,0,0,0,0,0,0,0,0],"id":44,"left_children":[1,3,5,7,9,11,13,15,17,19,21,23,25,27,29,-1,-1,-1,-1,-1,-1,-1,-1,-1,-1,-1,-1,-1,-1,-1,-1],"loss_changes":[3.2829254E2,4.2405365E1,1.641127E1,5.760086E0,2.0103426E0,8.441017E0,3.9173965E0,2.592514E0,5.5455933E0,1.7989122E0,1.8734152E0,8.380829E0,6.785904E0,5.7331467E-1,3.7454948E0,0E0,0E0,0E0,0E0,0E0,0E0,0E0,0E0,0E0,0E0,0E0,0E0,0E0,0E0,0E0,0E0],"parents":[2147483647,0,0,1,1,2,2,3,3,4,4,5,5,6,6,7,7,8,8,9,9,10,10,11,11,12,12,13,13,14,14],"right_children":[2,4,6,8,10,12,14,16,18,20,22,24,26,28,30,-1,-1,-1,-1,-1,-1,-1,-1,-1,-1,-1,-1,-1,-1,-1,-1],"split_conditions":[5E-1,2.5E-1,6.666667E-1,1.7366667E0,1.7333333E0,1.6555556E0,1.6933334E0,7.717742E1,1.7511111E0,3.1970898E1,6.993311E1,1.6922222E0,6.568679E1,7.416953E1,4.587602E1,-2.7149618E-2,1.2042959E-2,1.1107531E-2,-1.7802773E-2,-1.4409977E-2,7.951063E-3,-2.4013452E-3,-1.1300268E-2,4.90687E-2,1.7781006E-2,1.3701253E-2,6.1521637E-3,4.6347324E-2,1.2794173E-2,2.9514715E-2,1.54434685E-2],"split_indices":[18,18,18,11,10,10,10,1,11,2,1,11,1,1,2,0,0,0,0,0,0,0,0,0,0,0,0,0,0,0,0],"split_type":[0,0,0,0,0,0,0,0,0,0,0,0,0,0,0,0,0,0,0,0,0,0,0,0,0,0,0,0,0,0,0],"sum_hessian":[3.9502515E3,2.0400453E3,1.9102063E3,1.488321E3,5.517242E2,1.6718907E3,2.383155E2,2.1287592E2,1.2754452E3,7.588225E1,4.7584195E2,1.1765858E2,1.5542322E3,2.8915659E1,2.0939984E2,2.0909862E2,3.777303E0,1.6181787E1,1.2592634E3,9.444678E0,6.643757E1,4.074497E2,6.8392235E1,2.8188593E1,8.9469986E1,1.1491854E3,4.0504678E2,2.6610853E1,2.3048062E0,1.2825227E2,8.1147575E1],"tree_param":{"num_deleted":"0","num_feature":"19","num_nodes":"31","size_leaf_vector":"1"}},{"base_weights":[-9.51247E-4,-3.3781967E-1,2.4335209E-1,-3.766223E-1,-7.260006E-2,-1.1720993E-2,2.937461E-1,-5.8966017E-1,-3.584576E-1,7.9906255E-2,-1.1416067E-1,3.239448E-2,-1.01788536E-1,4.8542705E-1,2.6491416E-1,2.256776E-3,-3.1396046E-2,7.852028E-3,-1.8284833E-2,-2.0475152E-3,2.7516598E-2,-3.511453E-2,-4.145719E-3,-2.0276569E-4,1.3057778E-2,-8.3562825E-3,1.2936604E-2,8.558276E-3,2.8049499E-2,1.189387E-2,2.286856E-2],"categories":[],"categories_nodes":[],"categories_segments":[],"categories_sizes":[],"default_left":[0,0,0,0,0,0,0,0,0,0,0,0,0,0,0,0,0,0,0,0,0,0,0,0,0,0,0,0,0,0,0],"id":45,"left_children":[1,3,5,7,9,11,13,15,17,19,21,23,25,27,29,-1,-1,-1,-1,-1,-1,-1,-1,-1,-1,-1,-1,-1,-1,-1,-1],"loss_changes":[3.2404205E2,1.7006119E1,2.934018E1,5.3752594E0,1.3559155E0,1.5031537E0,1.040387E1,2.745472E0,5.031021E0,2.6431386E0,3.0179288E0,2.1200871E0,2.97223E0,5.7926598E0,8.52272E0,0E0,0E0,0E0,0E0,0E0,0E0,0E0,0E0,0E0,0E0,0E0,0E0,0E0,0E0,0E0,0E0],"parents":[2147483647,0,0,1,1,2,2,3,3,4,4,5,5,6,6,7,7,8,8,9,9,10,10,11,11,12,12,13,13,14,14],